tree
version=v4
num_class=1
num_tree_per_iteration=1
label_index=0
max_feature_idx=25
objective=binary sigmoid:1
feature_names=cluster_active_pods cluster_cpu_ratio cluster_mem_ratio cluster_pending_pods cluster_req_cpu cluster_req_gpu_milli cluster_req_mem cpu_milli cpu_x_mem creation_dayofweek creation_hour dayofweek_cos dayofweek_sin gpu_milli gpu_spec_provided hour_cos hour_sin memory_mib num_gpu qos_BE qos_Burstable qos_Guaranteed qos_LS recent_failure_rate scheduled_time_missing scheduling_latency_sec
feature_infos=[0:55] [0:0.0059476711761237786] [0:0.0040727324660690262] [0:3] [0:746516] [0:46920] [0:2492628] [1000:120200] [0:88473600000] [0:6] [0:23] [-0.90096886790241903:1] [-0.97492791218182362:0.97492791218182362] [0:1000] none [-1:1] [-1:1] [0:737280] [0:8] [0:1] [0:1] none [0:1] [0:1] [0:1] [-1:14330]
tree_sizes=1375 1380 1387 1374 1378 1377 1393 1379 1385 1383 1383 1390 1394 1395 1389 1384 1382 1390 1388 1389 1383 1394 1397 1400 1401 1395 1397 1384 1401 1396 1396 1396 1400 1408 1406 1401 1400 1408 1402 1399 1404 1398 1399 1404 1398 1395 1397

Tree=0
num_leaves=12
num_cat=0
split_feature=8 17 20 13 8 17 8 17 9 23 5
split_gain=6982.97 1291.03 185.559 72.3285 22.0578 336.788 22.6379 10.5832 6.54517 3.34434 4.44621
threshold=46581600.000000007 78336.000000000015 1.0000000180025095e-35 515.00000000000011 328449800.00000006 33280.000000000007 256072000.00000003 5872.0000000000009 2.5000000000000004 0.13961038961038963 29595.000000000004
decision_type=2 2 2 2 2 2 2 2 2 2 2
left_child=3 2 4 -1 5 6 -2 9 -3 10 -5
right_child=1 8 -4 7 -6 -7 -8 -9 -10 -11 -12
leaf_value=-0.97644098879675212 -1.3417912048202421 -0.89826048336943398 -0.99739546337464491 -0.81121721841939132 -1.3398726487642967 -0.83051142819605417 -1.2417112192132629 -0.86935221984163813 -0.83586013055742914 -0.81584662670939123 -0.86110134614791023
leaf_weight=28.997182309627533 192.15937197208405 30.172639548778534 15.378420054912565 28.901496350765228 434.98120445013046 12.540382027626036 22.30317497253418 41.310888588428497 30.309205412864685 379.06221550703049 37.121379375457764
leaf_count=90 1092 77 50 56 2466 26 111 97 64 747 85
internal_value=-1.22012 -1.28284 -1.31998 -0.832158 -1.32748 -1.30371 -1.33139 -0.82356 -0.866964 -0.819313 -0.839241
internal_weight=0 737.844 677.363 515.393 661.984 227.003 214.463 486.396 60.4818 445.085 66.0229
internal_count=4961 3886 3745 1075 3695 1229 1203 985 141 888 141
is_linear=0
shrinkage=1


Tree=1
num_leaves=12
num_cat=0
split_feature=8 17 20 8 17 8 17 23 23 23 2
split_gain=4575.34 965.908 152.023 21.3048 252.103 21.6205 17.5494 17.1343 5.07528 2.51055 1.42889
threshold=46581600.000000007 78336.000000000015 1.0000000180025095e-35 328449800.00000006 33280.000000000007 256072000.00000003 5872.0000000000009 0.15587044534412958 0.15587044534412958 0.13961038961038963 0.0026092228044522696
decision_type=2 2 2 2 2 2 2 2 2 2 2
left_child=6 2 3 4 5 -2 9 -8 -3 -1 -11
right_child=1 8 -4 -5 -6 -7 7 -9 -10 10 -12
leaf_value=0.28010269719840747 -0.11849552428526663 0.23604639332606023 0.17927529137666509 -0.11648988245951594 0.29069993549666973 -0.019809554656009021 0.18030040036834086 0.27649750002587037 0.28781204270613708 0.30060321415417612 0.28446010079262396
leaf_weight=80.030380427837372 179.39085753262043 27.908234536647797 17.203021943569183 406.5339677631855 15.065425395965574 22.040840625762939 23.249094247817993 55.977439224720001 43.689019620418549 399.6330174356699 59.756456032395363
leaf_count=146 1092 61 50 2466 26 111 63 112 80 650 104
internal_value=0 -0.0595958 -0.0961947 -0.103803 -0.0799739 -0.107705 0.2897 0.248288 0.267656 0.295779 0.298507
internal_weight=0 711.831 640.234 623.031 216.497 201.432 618.646 79.2265 71.5973 539.42 459.389
internal_count=4961 3886 3745 3695 1229 1203 1075 175 141 900 754
is_linear=0
shrinkage=0.0939483


Tree=2
num_leaves=12
num_cat=0
split_feature=7 25 25 13 22 7 19 7 7 7 7
split_gain=2689.49 290.827 245.563 233.816 207.813 193.974 224.617 173.296 43.7166 39.6665 147.273
threshold=3576.0000000000005 1.5000000000000002 -1.0000000180025095e-35 360.00000000000006 1.0000000180025095e-35 19354.000000000004 1.0000000180025095e-35 15050.000000000002 6500.0000000000009 8100.0000000000009 9605.0000000000018
decision_type=2 2 2 2 2 2 2 2 2 2 2
left_child=-1 2 -2 -4 8 -3 -7 9 -5 -6 -11
right_child=1 5 3 4 7 6 -8 -9 -10 10 -12
leaf_value=0.23930957381034162 -0.11655702003664446 -0.10847982457235755 -0.10131053887728081 0.25682531229896272 -0.12067656529755524 0.24991122945462982 -0.11579081198506347 0.19296721178931736 0.12074667832033505 0.24920625531179863 -0.088352345606867902
leaf_weight=598.05528381466866 74.998947143554688 344.48875963687897 54.084350064396858 71.249137386679649 32.448326706886292 31.051601558923721 28.359411150217056 42.478641331195831 29.523906975984573 16.113432049751282 39.060441866517067
leaf_count=920 485 2204 343 120 198 51 185 97 93 24 241
internal_value=0 -0.0267137 0.0346893 0.0745018 0.115694 -0.0814402 0.0753197 0.0372338 0.216973 -0.0382468 0.0102027
internal_weight=0 763.857 359.957 284.958 230.874 403.9 59.411 130.101 100.773 87.6222 55.1739
internal_count=4961 4041 1601 1116 773 2440 236 560 213 463 265
is_linear=0
shrinkage=0.0939483


Tree=3
num_leaves=12
num_cat=0
split_feature=8 17 20 13 8 17 8 5 17 23 5
split_gain=2594.86 649.992 115.216 22.2299 19.4539 168.736 22.2167 3.38462 3.37198 1.18448 0.785537
threshold=46581600.000000007 78336.000000000015 1.0000000180025095e-35 515.00000000000011 328449800.00000006 33280.000000000007 256072000.00000003 31495.000000000004 5872.0000000000009 0.088932806324110686 26915.000000000004
decision_type=2 2 2 2 2 2 2 2 2 2 2
left_child=3 2 4 -1 5 6 -2 -3 9 -5 -6
right_child=1 7 -4 8 10 -7 -8 -9 -10 -11 -12
leaf_value=0.13424319167045209 -0.11381030461718253 0.21150014573688555 0.13569142443809673 0.19744354619464979 -0.10256847986312834 0.2047301844145642 -0.010046290269739196 0.17300960083085268 0.18638150910316023 0.21196759510280719 -0.11370012783372771
leaf_weight=37.599534586071968 156.97714178264141 40.857272088527679 19.224271044135094 58.14277471601963 74.353178173303604 17.405348300933838 20.64043927192688 41.428086996078491 56.554298251867294 561.5373637676239 280.38011729717255
leaf_count=90 1092 64 50 91 511 26 111 77 97 797 1955
internal_value=0 -0.054657 -0.0903513 0.20467 -0.0982586 -0.0743993 -0.101761 0.19214 0.208584 0.210607 -0.111371
internal_weight=0 651.266 568.98 713.834 549.756 195.023 177.618 82.2854 676.234 619.68 354.733
internal_count=4961 3886 3745 1075 3695 1229 1203 141 985 888 2466
is_linear=0
shrinkage=0.0939483


Tree=4
num_leaves=12
num_cat=0
split_feature=8 17 20 8 17 8 13 13 23 23 5
split_gain=2075.64 545.124 99.5687 18.4741 143.129 21.3761 8.77708 10.3583 2.92115 2.3191 2.98589
threshold=46581600.000000007 78336.000000000015 1.0000000180025095e-35 328449800.00000006 33280.000000000007 256072000.00000003 730.00000000000011 515.00000000000011 0.15587044534412958 0.13961038961038963 26955.000000000004
decision_type=2 2 2 2 2 2 2 2 2 2 2
left_child=6 2 3 4 5 -2 7 -1 -3 10 -8
right_child=1 8 -4 -5 -6 -7 9 -9 -10 -11 -12
leaf_value=0.11743655020050332 -0.11167437511924741 0.14660796051717251 0.11753879737015528 -0.10910589169461207 0.18157280060239814 -0.0091594853038032397 0.19778866121382438 0.18047761097601583 0.18277946816020341 0.18804890952149847 0.16158693204188471
leaf_weight=38.871901363134384 145.50171276926994 32.833107978105545 20.06167995929718 329.30842001736164 17.759522914886475 20.518148422241211 28.996235236525536 57.096783399581909 51.896287858486176 533.15324793756008 70.204452067613602
leaf_count=90 1092 61 50 2466 26 111 40 86 80 744 115
internal_value=0 -0.052569 -0.0877494 -0.0957792 -0.0718911 -0.0990141 0.181532 0.154959 0.168781 0.185563 0.172184
internal_weight=0 617.879 533.149 513.088 183.779 166.02 728.323 95.9687 84.7294 632.354 99.2007
internal_count=4961 3886 3745 3695 1229 1203 1075 176 141 899 155
is_linear=0
shrinkage=0.0939483


Tree=5
num_leaves=12
num_cat=0
split_feature=17 17 20 13 17 17 8 10 17 5 17
split_gain=1699.92 463.972 87.0369 21.3628 17.2456 123.646 15.5228 12.1895 4.86808 2.55921 2.34867
threshold=11444.000000000002 78336.000000000015 1.0000000180025095e-35 515.00000000000011 35840.000000000007 33280.000000000007 256072000.00000003 5.5000000000000009 30883.500000000004 31495.000000000004 5872.0000000000009
decision_type=2 2 2 2 2 2 2 2 2 2 2
left_child=3 2 4 -1 5 6 -2 -8 -9 -3 -5
right_child=1 9 -4 10 -6 -7 7 8 -10 -11 -12
leaf_value=0.098229647063725153 -0.11038152432381142 0.16772729759272142 0.10316684005951608 0.16994394491054263 -0.1078518450500172 0.16441355544693306 0.046831620445874675 -0.02271208924290918 -0.1129499675319794 0.13490443278179162 0.14992802763482654
leaf_weight=40.838537342846394 134.14708217978477 42.51073594391346 20.675265282392502 630.23135973513126 293.21684861928225 17.76747190952301 10.24087532609701 8.8220556080341339 13.314897902309895 43.118997007608414 57.935818091034889
leaf_count=99 1084 64 50 888 2376 26 55 49 97 77 96
internal_value=0 -0.0507893 -0.0855141 0.16434 -0.0936869 -0.0711415 -0.0962836 -0.0378249 -0.077059 0.151218 0.168261
internal_weight=0 583.814 498.184 729.006 477.509 184.292 166.525 32.3778 22.137 85.6297 688.167
internal_count=4961 3878 3737 1083 3687 1311 1285 201 146 141 984
is_linear=0
shrinkage=0.0939483


Tree=6
num_leaves=12
num_cat=0
split_feature=17 17 20 13 17 17 7 15 6 23 17
split_gain=1415.69 398.248 76.5617 20.0324 16.4242 107.077 6.47145 7.58705 12.3759 3.75848 3.70681
threshold=11444.000000000002 78336.000000000015 1.0000000180025095e-35 515.00000000000011 35840.000000000007 33280.000000000007 11954.000000000002 -0.12940952255126037 1423798.5000000002 0.13961038961038963 32009.000000000004
decision_type=2 2 2 2 2 2 2 2 2 2 2
left_child=3 2 4 -1 5 6 10 -8 -9 -5 -2
right_child=1 -3 -4 9 -6 -7 7 8 -10 -11 -12
leaf_value=0.087594271027582632 -0.10878623200943419 0.13736312199812087 0.091420486650794469 0.13865201388223974 -0.10608074428015132 0.15111754775089953 -0.11046437012883673 0.032751935231878353 -0.11299051952642919 0.1580017605305972 -0.039810579265938159
leaf_weight=41.460206866264343 111.33083219826221 85.415127828717232 21.11559322476387 106.70216552913189 271.16578003019094 17.525050282478333 15.078547574579714 13.284281335771086 8.3816532567143422 570.81522218883038 7.4077527523040763
leaf_count=99 973 141 50 171 2376 26 122 82 62 813 46
internal_value=0 -0.0490964 -0.0833289 0.151074 -0.0916399 -0.0689967 -0.0938167 -0.0592634 -0.0235575 0.154957 -0.104496
internal_weight=0 550.705 465.289 718.978 444.174 173.008 155.483 36.7445 21.6659 677.517 118.739
internal_count=4961 3878 3737 1083 3687 1311 1285 266 144 984 1019
is_linear=0
shrinkage=0.0939483


Tree=7
num_leaves=12
num_cat=0
split_feature=8 17 8 8 8 25 13 13 17 2 23
split_gain=1234.36 310.34 26.5035 118.845 17.55 34.9945 11.7798 10.8306 4.32759 2.84606 2.26757
threshold=46581600.000000007 66048.000000000015 328449800.00000006 264140800.00000003 2081382400.0000002 1.0000000180025095e-35 730.00000000000011 515.00000000000011 32009.000000000004 0.0021020862207809647 0.097619047619047633
decision_type=2 2 2 2 2 2 2 2 2 2 2
left_child=6 2 3 8 5 -3 7 -1 -2 -5 -8
right_child=1 4 -4 9 -6 -7 10 -9 -10 -11 -12
leaf_value=0.070542660798902368 -0.10584047338332295 0.16118043138490973 -0.10294294720050112 0.10625997402798702 0.14564858539119527 -0.039023577923270804 0.13004581854133035 0.13685924420197179 -0.025633595767804711 0.057565074190101283 0.14796915937732058
leaf_weight=37.206959947943687 117.555983543396 14.766173377633097 253.04359589517117 18.636980772018433 53.909774139523506 16.097767665982246 72.076724633574486 52.728933408856392 6.3082904815673819 25.110331773757935 549.91078223288059
leaf_count=86 1097 35 2374 50 82 83 116 82 40 80 803
internal_value=0 -0.0506932 -0.0837434 -0.0547485 0.113286 0.0567089 0.141292 0.109441 -0.101768 0.0783456 0.145895
internal_weight=0 505.429 420.655 167.612 84.7737 30.8639 711.923 89.9359 123.864 43.7473 621.988
internal_count=4928 3841 3641 1267 200 118 1087 168 1137 130 919
is_linear=0
shrinkage=0.0939483


Tree=8
num_leaves=12
num_cat=0
split_feature=17 17 20 13 8 6 17 17 8 10 6
split_gain=1052.04 270.208 43.8733 24.8539 15.3332 32.6404 14.056 87.7656 11.571 16.5903 2.79063
threshold=11444.000000000002 66048.000000000015 1.0000000180025095e-35 515.00000000000011 2081382400.0000002 1245725.5000000002 35840.000000000007 33280.000000000007 256072000.00000003 4.5000000000000009 1140233.0000000002
decision_type=2 2 2 2 2 2 2 2 2 2 2
left_child=3 2 6 -1 5 -3 7 8 -2 -10 -11
right_child=1 4 -4 -5 -6 -7 -8 -9 9 10 -12
leaf_value=0.058986244214965775 -0.10612286928123861 0.1587980673245053 0.053631493428510861 0.13686314081503451 0.13532884384040803 -0.035920192190555082 -0.10417774103746252 0.14166289665266774 0.065897455094238847 -0.04113532426864553 -0.1123912201720855
leaf_weight=38.376507803797722 105.61939754337072 13.809455342590811 20.035409480333328 650.62913331389427 52.630152896046638 16.872734792530537 220.73341985046864 15.919989943504332 9.0953672677278536 7.8111558482050922 13.176958404481409
leaf_count=94 1085 36 50 1000 82 82 2271 24 46 56 102
internal_value=0 -0.0491198 -0.0817481 0.132528 0.104537 0.0516677 -0.0890367 -0.0669839 -0.0914728 -0.0399863 -0.0859465
internal_weight=0 475.704 392.392 689.006 83.3123 30.6822 372.356 151.623 135.703 30.0835 20.9881
internal_count=4928 3834 3634 1094 200 118 3584 1313 1289 204 158
is_linear=0
shrinkage=0.0939483


Tree=9
num_leaves=12
num_cat=0
split_feature=8 17 20 13 7 6 17 17 8 10 23
split_gain=903.958 235.956 39.701 20.2649 13.7177 26.7824 13.6128 76.7377 11.381 14.2596 3.08054
threshold=46581600.000000007 66048.000000000015 1.0000000180025095e-35 515.00000000000011 19354.000000000004 1245725.5000000002 35840.000000000007 33280.000000000007 256072000.00000003 4.5000000000000009 0.13961038961038963
decision_type=2 2 2 2 2 2 2 2 2 2 2
left_child=3 2 6 -1 5 -3 7 8 -2 -10 -5
right_child=1 4 -4 10 -6 -7 -8 -9 9 -11 -12
leaf_value=0.058038948427286623 -0.10439258081167374 0.1438775105520102 0.04831496929533894 0.11403556766124574 0.12672001046279274 -0.032826930851362589 -0.10293096810901771 0.13338726172544882 0.057327914575743891 -0.082864817384384046 0.13220717726252978
leaf_weight=37.396563962101936 97.710755921900272 13.808876365423204 20.14472408592701 99.391702100634575 51.003499001264572 16.735141336917877 203.2572933062911 15.346813321113585 9.4534209966659564 19.793157935142517 524.90494740009308
leaf_count=86 1092 36 50 169 82 82 2271 24 46 158 832
internal_value=0 -0.0476148 -0.0798401 0.125291 0.0968832 0.0470094 -0.0873156 -0.0650006 -0.0889944 -0.0374965 0.129317
internal_weight=0 447.254 365.706 661.693 81.5475 30.544 345.561 142.304 126.957 29.2466 624.297
internal_count=4928 3841 3641 1087 200 118 3591 1320 1296 204 1001
is_linear=0
shrinkage=0.0939483


Tree=10
num_leaves=12
num_cat=0
split_feature=17 17 13 8 8 8 2 17 23 5 10
split_gain=780.837 207.203 23.0112 22.5394 87.2867 12.404 22.1117 5.83911 3.29618 3.63744 1.96573
threshold=11444.000000000002 66048.000000000015 515.00000000000011 328449800.00000006 256072000.00000003 2081382400.0000002 0.0020354046763737198 32009.000000000004 0.13961038961038963 31850.000000000004 1.5000000000000002
decision_type=2 2 2 2 2 2 2 2 2 2 2
left_child=2 3 -1 4 -2 6 -3 -6 9 -4 -5
right_child=1 5 8 10 7 -7 -8 -9 -10 -11 -12
leaf_value=0.048384767212674359 -0.10291865783502552 0.1310817659501505 0.12227913293812959 -0.075044937845706275 0.025651856420109424 0.11937124934717744 -0.029987026186176768 0.092256130212606674 0.12659403270316738 0.084637424518198029 -0.10236117633622507
leaf_weight=38.378978572785854 92.279057122766972 13.736095964908602 58.039422288537025 27.443703055381775 28.234604597091675 49.146827876567841 16.605532214045525 19.848873376846313 498.87552551925182 37.813449248671532 171.91881596297026
leaf_count=94 1095 36 97 314 108 82 82 57 830 73 2060
internal_value=0 -0.0463445 0.118959 -0.078296 -0.0494338 0.0901932 0.0428795 0.0531787 0.123511 0.107446 -0.0986088
internal_weight=0 419.214 633.107 339.725 140.363 79.4885 30.3416 48.0835 594.728 95.8529 199.363
internal_count=4928 3834 1094 3634 1260 200 118 165 1000 170 2374
is_linear=0
shrinkage=0.0939483


Tree=11
num_leaves=12
num_cat=0
split_feature=8 17 20 13 17 17 7 2 8 10 23
split_gain=677.741 181.253 35.4192 19.2476 12.4811 61.3523 11.3072 18.3266 10.8435 12.074 3.32457
threshold=46581600.000000007 66048.000000000015 1.0000000180025095e-35 515.00000000000011 35840.000000000007 33280.000000000007 19354.000000000004 0.0020354046763737198 256072000.00000003 4.5000000000000009 0.23669467787114848
decision_type=2 2 2 2 2 2 2 2 2 2 2
left_child=3 2 4 -1 5 8 7 -3 -2 -10 -5
right_child=1 6 -4 10 -6 -7 -8 -9 9 -11 -12
leaf_value=0.048138438683036695 -0.10250193453421531 0.11984009318048355 0.044287576361097682 0.10690681446758021 -0.10079302096369289 0.12199223934135782 0.11297097538495478 -0.027380569531281044 0.049320213385348796 -0.079758546028467631 0.12266381955275782
leaf_weight=37.324302479624748 82.643980018794537 13.618733473122122 20.145797818899155 172.05982047319412 172.34577912092209 14.20884722471237 47.149679496884346 16.483933158218861 9.7809449359774607 18.428292043507099 393.05481721460819
leaf_count=86 1092 36 50 314 2271 24 82 82 46 158 687
internal_value=0 -0.0448166 -0.0762161 0.113551 -0.084384 -0.0617585 0.084234 0.0391714 -0.0853253 -0.0349478 0.117869
internal_weight=0 394.806 317.554 602.439 297.408 125.062 77.2523 30.1027 110.853 28.2092 565.115
internal_count=4928 3841 3641 1087 3591 1320 200 118 1296 204 1001
is_linear=0
shrinkage=0.0939483


Tree=12
num_leaves=12
num_cat=0
split_feature=17 17 20 17 17 8 17 10 17 23 4
split_gain=590.495 160.339 30.9642 8.58275 54.4168 11.1052 10.9828 10.4379 7.82294 9.80708 5.23154
threshold=11444.000000000002 78336.000000000015 1.0000000180025095e-35 35840.000000000007 33280.000000000007 256072000.00000003 66048.000000000015 4.5000000000000009 9216.0000000000018 0.23669467787114848 553056.00000000012
decision_type=2 2 2 2 2 2 2 2 2 2 2
left_child=8 2 3 4 5 -2 -5 -7 9 10 -1
right_child=1 -3 -4 6 -6 7 -8 -9 -10 -11 -12
leaf_value=0.093376605519740474 -0.10258753055285721 0.089846326262803519 0.040022717907138732 -0.099836749481537951 0.11657205622205984 0.043449025378229367 0.003607107205553592 -0.076757524683267159 0.13999740680973657 0.11350621142555051 0.049011251933012957
leaf_weight=128.73470535129309 75.432947181165218 65.348141938447952 20.195457592606544 158.32239512354136 13.506659865379332 10.045437492430212 9.5779073685407621 17.400239460170269 62.805926322937012 351.92184659093618 28.890395656228065
leaf_count=259 1085 129 50 2271 24 46 71 158 101 668 66
internal_value=0 -0.0436707 -0.0723314 -0.0803185 -0.0606739 -0.0839593 -0.0939264 -0.0327035 0.108638 0.10477 0.085255
internal_weight=0 369.829 304.481 284.286 116.385 102.879 167.9 27.4457 572.353 509.547 157.625
internal_count=4928 3834 3705 3655 1313 1289 2342 204 1094 993 325
is_linear=0
shrinkage=0.0939483


Tree=13
num_leaves=12
num_cat=0
split_feature=8 17 20 13 13 8 17 0 8 9 23
split_gain=514.364 140.346 28.1045 22.7334 8.80467 22.2133 29.9799 10.5785 9.00004 4.74618 3.71175
threshold=46581600.000000007 78336.000000000015 1.0000000180025095e-35 515.00000000000011 905.00000000000011 328449800.00000006 33280.000000000007 32.500000000000007 256072000.00000003 2.5000000000000004 0.13961038961038963
decision_type=2 2 2 2 2 2 2 2 2 2 2
left_child=3 2 4 -1 -2 6 8 -7 -6 -3 -5
right_child=1 9 -4 10 5 7 -8 -9 -10 -11 -12
leaf_value=0.032620274568277541 -0.098573251192676445 0.059934288381244753 0.036209074294052783 0.091161347106706966 -0.10108386439087751 0.032516220527133682 0.11178164251465728 -0.096231518346679118 -0.0073206748528433759 0.11166290325261065 0.11284524568310615
leaf_weight=36.731205027550459 112.61763119325042 33.560218527913094 20.223736301064491 84.516685947775841 18.598197720944881 5.9630284607410422 12.796703755855559 96.503289349377155 17.648185014724731 29.691797778010368 421.60814723372459
leaf_count=86 1755 74 50 169 290 67 24 1422 104 55 832
internal_value=0 -0.0423193 -0.0704774 0.104047 -0.0786521 -0.0638343 -0.0118006 -0.0887238 -0.0554742 0.0842415 0.109227
internal_weight=0 347.603 284.351 542.856 264.127 151.509 49.0431 102.466 36.2464 63.252 506.125
internal_count=4928 3841 3712 1087 3662 1907 418 1489 394 129 1001
is_linear=0
shrinkage=0.0939483


Tree=14
num_leaves=12
num_cat=0
split_feature=17 17 8 8 13 8 23 5 17 23 16
split_gain=460.616 125.626 28.0126 78.8642 13.1437 8.74396 4.4229 4.84811 3.98493 3.71385 2.27428
threshold=11444.000000000002 66048.000000000015 328449800.00000006 264140800.00000003 515.00000000000011 2081382400.0000002 0.23669467787114848 28775.000000000004 32009.000000000004 0.19292803970223329 -0.70710678118654735
decision_type=2 2 2 2 2 2 2 2 2 2 2
left_child=4 2 3 8 -1 -3 7 -6 -2 -5 -9
right_child=1 5 -4 9 6 -7 -8 10 -10 -11 -12
leaf_value=0.044602294152766418 -0.10117215821582688 0.028639514434780706 -0.097495170911042192 0.038224878364488998 0.11026282715911526 0.097937808878214475 0.11054270022607775 0.054257116281311156 -0.020311907426847634 0.092988947270921024 0.087150474715750353
leaf_weight=34.695536229759455 69.259133018553257 25.648341938853264 146.83563030511141 24.252892307937145 65.139402106404305 43.37738561630249 335.53410637378693 28.478972882032394 5.8857787251472464 20.115456767380238 55.078789293766022
leaf_count=83 1124 108 2428 80 132 86 705 67 40 58 117
internal_value=0 -0.0407272 -0.0700015 -0.0362094 0.100539 0.0722109 0.104544 0.0909965 -0.0948596 0.0630888 0.0759582
internal_weight=0 335.375 266.349 119.513 518.927 69.0257 484.231 148.697 75.1449 44.3683 83.5578
internal_count=5028 3924 3730 1302 1104 194 1021 316 1164 138 184
is_linear=0
shrinkage=0.0939483


Tree=15
num_leaves=12
num_cat=0
split_feature=17 17 8 8 13 7 6 23 5 0 16
split_gain=403.604 110.256 26.7705 70.1525 13.1998 8.18606 5.02206 4.61285 4.73361 2.16334 2.10965
threshold=11444.000000000002 66048.000000000015 328449800.00000006 256072000.00000003 515.00000000000011 19354.000000000004 1259634.5000000002 0.23669467787114848 28775.000000000004 31.500000000000004 -0.70710678118654735
decision_type=2 2 2 2 2 2 2 2 2 2 2
left_child=4 2 3 -2 -1 -3 -5 8 -6 -4 -10
right_child=1 5 9 6 7 -7 -8 -9 10 -11 -12
leaf_value=0.040668415940231954 -0.10002471089862509 0.025876956154300398 -0.024637502858545077 0.084546606685169071 0.1066129483413009 0.09350676337692819 0.023871729944606315 0.10739796318338007 0.050672066890008756 -0.09852047459462307 0.082913483980360525
leaf_weight=34.487195558845997 63.784010078758001 25.716076344251633 3.6521909907460204 20.309863530099392 61.230029702186584 41.268000841140747 29.821455515921116 313.95761369168758 27.669668689370155 131.28653011843562 52.577673688530922
leaf_count=83 1127 108 55 68 132 86 107 705 67 2373 117
internal_value=0 -0.0394124 -0.0682141 -0.0346558 0.096784 0.0675662 0.0484844 0.10103 0.0868869 -0.0965324 0.071816
internal_weight=0 315.838 248.854 113.915 489.922 66.9841 50.1313 455.435 141.477 134.939 80.2473
internal_count=5028 3924 3730 1302 1104 194 175 1021 316 2428 184
is_linear=0
shrinkage=0.0939483


Tree=16
num_leaves=12
num_cat=0
split_feature=17 17 17 7 7 13 5 0 5 25 23
split_gain=354.075 96.6981 22.3331 40.891 16.2091 13.2009 9.0511 9.69652 12.0199 8.1405 4.80956
threshold=11444.000000000002 66048.000000000015 35840.000000000007 8100.0000000000009 9905.0000000000018 515.00000000000011 32105.000000000004 39.500000000000007 26255.000000000004 1.5000000000000002 0.23669467787114848
decision_type=2 2 2 2 2 2 2 2 2 2 2
left_child=5 2 3 -2 -5 -1 7 8 -6 -3 -7
right_child=1 9 -4 4 6 10 -8 -9 -10 -11 -12
leaf_value=0.037090761912142854 -0.091268658826313409 0.090950611131922751 -0.09518884849647502 0.10768125908611892 0.039369735860191428 0.083001229705307017 -0.07903571707310067 0.099794550800656287 -0.10630916266316082 0.02325415596312155 0.10453185899962959
leaf_weight=34.272218830883503 59.403482276946306 38.357445292174816 117.54555194452405 14.117956876754759 13.041435878723865 134.55210468173027 11.659732971340416 9.0515144094824773 8.0999538227915746 26.640518523752689 293.26302650570869
leaf_count=83 1063 93 2337 29 89 316 86 51 75 101 705
internal_value=0 -0.0380813 -0.0663592 -0.0369734 0.0206239 0.0932673 -0.00870528 0.0184027 -0.0163705 0.0632282 0.0977639
internal_weight=0 297.918 232.92 115.374 55.9706 462.087 41.8526 30.1929 21.1414 64.998 427.815
internal_count=5028 3924 3730 1393 330 1104 301 215 164 194 1021
is_linear=0
shrinkage=0.0939483


Tree=17
num_leaves=12
num_cat=0
split_feature=8 17 8 8 13 8 23 5 2 0 23
split_gain=311.138 84.4592 25.094 57.9514 10.4326 8.39299 5.05839 5.8189 4.15188 2.29803 1.54085
threshold=46581600.000000007 66048.000000000015 328449800.00000006 256072000.00000003 515.00000000000011 2081382400.0000002 0.23669467787114848 28775.000000000004 0.0020581307453541508 31.500000000000004 0.072751322751322761
decision_type=2 2 2 2 2 2 2 2 2 2 2
left_child=4 2 3 -2 -1 -3 7 -6 -5 -4 -9
right_child=1 5 9 8 6 -7 -8 10 -10 -11 -12
leaf_value=0.039056779120966598 -0.097136525208211449 0.017092075148664239 -0.017742760968185538 0.076362127026170123 0.10215709304038477 0.086722742927276941 0.10141331468038443 0.041418685563898161 0.020599686426489888 -0.097082047192625781 0.070795141789305613
leaf_weight=32.872007366269827 55.091062419116497 25.696838095784187 3.3685945197939864 19.890666849911213 54.213449031114578 37.918352395296097 274.04610043764114 23.352555125951767 29.184540383517742 111.00735182315111 50.644625931978226
leaf_count=74 1134 108 55 68 130 86 707 60 107 2373 126
internal_value=0 -0.036636 -0.0643714 -0.0309902 0.0900262 0.0586206 0.0941875 0.0787302 0.0432327 -0.094759 0.0615455
internal_weight=0 282.157 218.542 104.166 435.129 63.6152 402.257 128.211 49.0752 114.376 73.9972
internal_count=5028 3931 3737 1309 1097 194 1023 316 175 2428 186
is_linear=0
shrinkage=0.0939483


Tree=18
num_leaves=12
num_cat=0
split_feature=17 17 8 8 13 8 23 5 23 0 16
split_gain=273.604 74.3049 23.7124 52.3716 12.9549 7.72261 5.17561 4.852 3.94718 2.29829 2.15623
threshold=11444.000000000002 66048.000000000015 328449800.00000006 256072000.00000003 515.00000000000011 2081382400.0000002 0.23669467787114848 28775.000000000004 0.19292803970223329 31.500000000000004 -0.70710678118654735
decision_type=2 2 2 2 2 2 2 2 2 2 2
left_child=4 2 3 -2 -1 -3 7 -6 -5 -4 -9
right_child=1 5 9 8 6 -7 -8 10 -10 -11 -12
leaf_value=0.030935606599260496 -0.097241927969395292 0.015466397760562203 -0.016337176279103957 0.013461681920812398 0.09795027916383886 0.082945204951737864 0.099437084850805296 0.037337272758449273 0.066835072189500438 -0.096372896393590965 0.071901818637038095
leaf_weight=33.697858083993196 50.300230957567692 25.728271529078484 3.317379191517829 25.590444907546043 51.011026531457901 36.014234215021133 254.98632940649986 24.743496254086494 23.582198277115822 101.76162165403366 45.980148062109947
leaf_count=83 1127 108 55 97 132 86 705 67 78 2373 117
internal_value=0 -0.0354633 -0.062732 -0.0298328 0.0868144 0.054852 0.0918087 0.0758172 0.0390903 -0.093861 0.0598312
internal_weight=0 266.294 204.552 99.4729 410.419 61.7425 376.721 121.735 49.1726 105.079 70.7236
internal_count=5028 3924 3730 1302 1104 194 1021 316 175 2428 184
is_linear=0
shrinkage=0.0939483


Tree=19
num_leaves=12
num_cat=0
split_feature=17 17 17 7 17 13 25 5 0 5 23
split_gain=240.324 65.0899 19.5894 30.7353 13.6913 12.7769 7.89979 7.29128 7.5805 6.36047 5.36571
threshold=11444.000000000002 66048.000000000015 35840.000000000007 8100.0000000000009 33280.000000000007 515.00000000000011 1.5000000000000002 32105.000000000004 39.500000000000007 26145.000000000004 0.23669467787114848
decision_type=2 2 2 2 2 2 2 2 2 2 2
left_child=5 2 3 -2 7 -1 -3 8 9 -5 -7
right_child=1 6 -4 4 -6 10 -8 -9 -10 -11 -12
leaf_value=0.028215396545968323 -0.086906502259591067 0.080026689430289191 -0.092439303689727956 0.025503305292235545 0.10187719947027613 0.072379053917584771 0.010741420381856754 -0.075222209522184391 0.084745636662195728 -0.081885017890327344 0.097114239884208295
leaf_weight=33.486096326261759 47.911314684897661 35.073163330554962 91.034529875963926 12.040150932967668 12.713568925857542 115.85970551520586 24.88956244289875 10.983694214373825 9.280899088829754 8.1585235223174077 237.40761387348175
leaf_count=83 1063 93 2337 87 29 316 101 86 51 77 705
internal_value=0 -0.0341439 -0.0608176 -0.0323254 0.0168217 0.083747 0.0512936 -0.00986409 0.0144344 -0.0177948 0.0890064
internal_weight=0 252.085 192.123 101.088 53.1768 386.753 59.9627 40.4633 29.4796 20.1987 353.267
internal_count=5028 3924 3730 1393 330 1104 194 301 215 164 1021
is_linear=0
shrinkage=0.0939483


Tree=20
num_leaves=12
num_cat=0
split_feature=17 17 17 7 13 7 7 5 0 23 5
split_gain=210.915 56.8884 18.7663 27.518 12.5309 12.1118 7.65154 6.14277 6.05706 5.57629 5.3938
threshold=11444.000000000002 66048.000000000015 35840.000000000007 8100.0000000000009 515.00000000000011 9905.0000000000018 19354.000000000004 32105.000000000004 39.500000000000007 0.13961038961038963 26145.000000000004
decision_type=2 2 2 2 2 2 2 2 2 2 2
left_child=4 2 3 -2 -1 -5 -3 8 10 -6 -7
right_child=1 6 -4 5 9 7 -8 -9 -10 -11 -12
leaf_value=0.025729207921253484 -0.084952883245630079 0.0088308486977951156 -0.09152256240516117 0.098701821534923115 0.060959468217597547 0.022894624604058618 0.077256051220490646 -0.070103143483534539 0.074629125303425567 0.092168295288859114 -0.076800043595986869
leaf_weight=33.282467726618052 44.570607285946608 25.617682129144669 83.662418682128191 11.9279248714447 62.659945569932461 12.146439306437975 33.178830206394196 10.693094681948422 9.5352295078337175 268.663339599967 7.8946969285607329
leaf_count=83 1063 108 2337 29 175 87 86 86 51 846 77
internal_value=0 -0.032771 -0.0589276 -0.0307309 0.0807487 0.0155385 0.0474698 -0.00905581 0.0129624 0.0862708 -0.0162994
internal_weight=0 239.227 180.43 96.768 364.606 52.1974 58.7965 40.2695 29.5764 331.323 20.0411
internal_count=5028 3924 3730 1393 1104 330 194 301 215 1021 164
is_linear=0
shrinkage=0.0939483


Tree=21
num_leaves=12
num_cat=0
split_feature=7 13 17 20 8 7 17 18 17 16 23
split_gain=194.929 68.1219 66.9804 30.3833 18.9829 13.0703 7.77158 31.401 20.8535 8.91958 7.34161
threshold=4576.0000000000009 360.00000000000006 78336.000000000015 1.0000000180025095e-35 40437600.000000007 3576.0000000000005 35840.000000000007 1.5000000000000002 33280.000000000007 -0.98296291314453399 0.072751322751322761
decision_type=2 2 2 2 2 2 2 2 2 2 2
left_child=1 5 3 4 -2 -1 8 -8 9 -6 -3
right_child=2 10 -4 -5 6 -7 7 -9 -10 -11 -12
leaf_value=-0.2724486291039539 -0.21277704643638923 0.049539769294158618 0.058543093296925391 0.052732248678437996 0.05329249751388291 -0.066845679651349271 -0.094913084375795528 0.27735978379510506 0.090825477470167282 -0.077800654820082096 0.093257192955036969
leaf_weight=3.6116929296404097 8.3762574791908246 38.382160060107708 54.278894729912281 18.351994454860687 5.0791058391332617 11.312342882156372 81.105141814798117 2.0483736731111994 8.9612661600112897 45.51742809265852 301.6354516595602
leaf_count=16 34 149 142 47 66 309 2351 7 24 842 1024
internal_value=0 0.0797015 -0.0322668 -0.0613664 -0.0752359 -0.116708 -0.0671521 -0.0857238 -0.0411963 -0.06461 0.0883269
internal_weight=0 354.942 223.718 169.44 151.088 14.924 142.711 83.1535 59.5578 50.5965 340.018
internal_count=5011 1498 3513 3371 3324 325 3290 2358 932 908 1173
is_linear=0
shrinkage=0.0939483


Tree=22
num_leaves=12
num_cat=0
split_feature=7 13 17 20 17 7 17 18 17 2 2
split_gain=171.51 59.2263 58.2304 26.8603 13.9953 8.82263 7.53651 25.3971 18.1836 8.38544 23.2153
threshold=4576.0000000000009 360.00000000000006 78336.000000000015 1.0000000180025095e-35 7168.0000000000009 3576.0000000000005 35840.000000000007 1.5000000000000002 33280.000000000007 0.002049320696900453 0.0019903397753348764
decision_type=2 2 2 2 2 2 2 2 2 2 2
left_child=1 5 3 4 -2 -1 8 -8 9 10 -6
right_child=2 -3 -4 -5 6 -7 7 -9 -10 -11 -12
leaf_value=-0.22981410864836757 -0.19000543680431042 0.085478109522726484 0.0548335313497786 0.047693876114269139 -0.061139279676165621 -0.063930811513696076 -0.09422300106655572 0.22297990512637655 0.087899706020891921 -0.096073522104367107 0.20476038133021238
leaf_weight=3.8643356449902031 8.4911859910935146 319.38087230920792 52.591197028756142 18.382643431425095 17.433771247044209 10.745006799697876 74.347636725753546 2.2938801534473887 8.4162083864212018 27.245699126273394 3.4748660270124665
leaf_count=16 34 1173 142 47 310 309 2351 7 24 561 37
internal_value=0 0.077014 -0.0309186 -0.0590996 -0.0729646 -0.107916 -0.0654924 -0.0847087 -0.0394307 -0.0617175 -0.0168737
internal_weight=0 333.99 212.677 160.086 141.703 14.6093 133.212 76.6415 56.5705 48.1543 20.9086
internal_count=5011 1498 3513 3371 3324 325 3290 2358 932 908 347
is_linear=0
shrinkage=0.0939483


Tree=23
num_leaves=12
num_cat=0
split_feature=7 17 17 20 18 17 17 17 16 23 15
split_gain=150.804 52.4673 50.6847 23.8336 19.0069 9.7085 10.5298 15.8868 7.94792 7.06696 6.63177
threshold=4576.0000000000009 13773.000000000002 78336.000000000015 1.0000000180025095e-35 1.5000000000000002 7168.0000000000009 35840.000000000007 33280.000000000007 -0.98296291314453399 0.072751322751322761 -0.37940952255126015
decision_type=2 2 2 2 2 2 2 2 2 2 2
left_child=1 9 3 4 5 -2 7 8 -7 -1 -4
right_child=2 -3 10 -5 -6 6 -8 -9 -10 -11 -12
leaf_value=0.042479917606007257 -0.17337746685869471 -0.10208102798154003 0.090008762168076059 0.043189638228521413 0.18764718805930986 0.051077776909978924 -0.093537457768759186 0.085064236089307771 -0.072973811300120095 0.087854229564494651 0.021568909870563722
leaf_weight=34.350219145417213 8.4329979307949525 14.201451130211352 22.136497274041176 18.392000377178192 2.4601232521235934 5.1179226934909812 68.153513493016362 7.9046691656112662 40.722276410087943 266.035017054528 28.877516031265259
leaf_count=108 34 430 56 47 7 66 2351 24 842 960 86
internal_value=0 0.0743255 -0.0296604 -0.0569886 -0.0708753 -0.0757672 -0.0690016 -0.0378587 -0.0590897 0.0826707 0.0512977
internal_weight=0 314.587 202.198 151.184 132.792 130.331 121.898 53.7449 45.8402 300.385 51.014
internal_count=5011 1498 3513 3371 3324 3317 3283 932 908 1068 142
is_linear=0
shrinkage=0.0939483


Tree=24
num_leaves=12
num_cat=0
split_feature=24 22 17 13 17 7 17 25 7 7 7
split_gain=146.449 140.575 132.549 86.8319 58.7451 37.1759 20.9956 9.57642 29.2883 9.46332 19.8235
threshold=1.0000000180025095e-35 1.0000000180025095e-35 7168.0000000000009 360.00000000000006 66048.000000000015 3576.0000000000005 20660.000000000004 1.0000000180025095e-35 19354.000000000004 8100.0000000000009 8455.0000000000018
decision_type=2 2 2 2 2 2 2 2 2 2 2
left_child=1 3 -2 -1 5 -3 -5 -6 -9 -7 -11
right_child=2 4 -4 6 7 9 -8 8 -10 10 -12
leaf_value=-0.10206057242014593 -0.82418039944758925 -0.42278208184074123 -0.12095426233133855 0.098108304246044969 0.099588266033207057 -0.12670617757205632 0.012908769560304418 -0.081121795978374128 0.098738786750527038 0.094632864994141724 -0.068489910576091093
leaf_weight=22.274988869205117 2.8234043680131462 2.6784248426556578 14.651059629395602 273.02320260182023 19.179966554045677 19.0440968349576 28.209473937749863 14.844505071640013 17.301160931587219 7.2915420681238166 66.325321920216084
leaf_count=670 28 17 482 1013 48 312 254 82 49 23 2033
internal_value=0 0.0423062 -0.234666 0.0768965 -0.0339809 -0.0776128 0.0901348 0.0470366 0.0156325 -0.0676186 -0.0523118
internal_weight=0 470.173 17.4745 323.508 146.665 95.3394 301.233 51.3256 32.1457 92.661 73.6169
internal_count=5011 4501 510 1937 2564 2385 1267 179 131 2368 2056
is_linear=0
shrinkage=0.0939483


Tree=25
num_leaves=12
num_cat=0
split_feature=7 13 7 17 7 23 15 17 8 23 7
split_gain=118.137 43.5788 38.9178 18.5025 21.9082 7.31215 6.51237 6.48647 7.02113 5.84436 5.79856
threshold=4576.0000000000009 360.00000000000006 11954.000000000002 66048.000000000015 12250.000000000002 0.072751322751322761 0.37940952255126048 9216.0000000000018 50176000.000000007 0.13961038961038963 7500.0000000000009
decision_type=2 2 2 2 2 2 2 2 2 2 2
left_child=1 7 10 4 -4 6 -3 -1 -9 -5 -2
right_child=2 5 3 9 -6 -7 -8 8 -10 -11 -12
leaf_value=-0.19916363070690291 -0.14088107905180439 0.071999999584564864 0.023975456961558797 0.010707387069455038 -0.08990757619963291 0.084289498550104383 -0.012873898251129064 0.11570392366591692 -0.095977635658595586 0.076168716679982262 -0.068915317427343831
leaf_weight=3.9849783293902865 11.888525009155272 19.233893442898989 33.135945692658424 20.144647501409054 27.084309175610542 231.05241480655968 13.589976156130431 1.7177468538284282 6.9979552030563354 30.138851873576641 60.309268165379763
leaf_count=16 112 85 222 60 1037 1024 64 3 306 90 1992
internal_value=0 0.0702049 -0.0271417 0.00789353 -0.0272179 0.0783897 0.0368122 -0.0997238 -0.0540784 0.0499747 -0.0807873
internal_weight=0 276.577 182.702 110.504 60.2203 263.876 32.8239 12.7007 8.7157 50.2835 72.1978
internal_count=5011 1498 3513 1409 1259 1173 149 325 309 150 2104
is_linear=0
shrinkage=0.0939483


Tree=26
num_leaves=12
num_cat=0
split_feature=24 22 13 8 17 7 17 8 13 8 8
split_gain=116.2 114.623 69.1883 54.0591 43.7618 26.6816 19.3742 8.78221 8.12348 10.4021 14.6528
threshold=1.0000000180025095e-35 1.0000000180025095e-35 360.00000000000006 928256000.00000012 13773.000000000002 3576.0000000000005 20660.000000000004 1270169600.0000002 905.00000000000011 328449800.00000006 264140800.00000003
decision_type=2 2 2 2 2 2 2 2 2 2 2
left_child=1 2 -1 5 -2 -3 -4 -5 -7 10 -10
right_child=4 3 6 7 -6 8 -8 -9 9 -11 -12
leaf_value=-0.096609420563564377 -0.43645997524730767 -0.35507090320813023 0.094914113113099455 0.097400061138805019 -0.11022823885614638 -0.11244974814879476 0.011775596076383222 0.015151051189741116 -0.099195041892553487 -0.087987220113754386 0.036841804007018718
leaf_weight=19.60484379902482 5.2106834743171957 2.918951950967311 237.66009644418955 19.498910866677761 12.025383796542881 23.822421966120601 27.663145994767547 27.920828562229872 10.62199496291578 28.99263578094542 20.416043043136597
leaf_count=670 31 17 1013 182 479 747 254 102 308 1108 100
internal_value=0 0.0399455 0.0736643 -0.0316376 -0.208943 -0.0757255 0.0862518 0.0490047 -0.0659828 -0.0475168 -0.00966296
internal_weight=0 419.12 284.928 134.192 17.2361 86.772 265.323 47.4197 83.8531 60.0307 31.038
internal_count=5011 4501 1937 2564 510 2280 1267 284 2263 1516 408
is_linear=0
shrinkage=0.0939483


Tree=27
num_leaves=12
num_cat=0
split_feature=24 22 13 8 8 8 17 7 7 8 17
split_gain=95.7267 101.733 61.1811 46.9058 22.627 19.8294 18.9275 7.91842 30.1718 18.009 8.63941
threshold=1.0000000180025095e-35 1.0000000180025095e-35 360.00000000000006 928256000.00000012 25209600.000000004 50176000.000000007 20660.000000000004 15300.000000000002 19354.000000000004 1218254848.0000002 65024.000000000007
decision_type=2 2 2 2 2 2 2 2 2 2 2
left_child=1 2 -1 4 -3 -2 -4 -5 9 10 -9
right_child=5 3 6 7 -6 -7 -8 8 -10 -11 -12
leaf_value=-0.093620326187611 -0.31856595522849174 -0.36566855012358956 0.093147979065769146 0.10687650642070708 -0.064511163922635742 -0.11002087116421237 0.010661468109270237 -0.095805488709563957 0.084438402630313325 -0.21995165652320889 0.13619280358173225
leaf_weight=18.389637481421232 6.390613671392205 2.2672081328928462 220.25617945753038 13.127627234905956 79.731276400387287 10.966742208227513 27.682455034926534 2.943678464740513 22.319817181676626 5.7746447585523129 2.7278776690363884
leaf_count=670 31 12 1013 31 2268 479 254 123 79 24 27
internal_value=0 0.0385172 0.0716781 -0.0299907 -0.0728571 -0.186893 0.0839446 0.0449323 0.0208031 -0.103147 0.0155038
internal_weight=0 395.22 266.328 128.892 81.9985 17.3574 247.939 46.8936 33.766 11.4462 5.67156
internal_count=5011 4501 1937 2564 2280 510 1267 284 253 174 150
is_linear=0
shrinkage=0.0939483


Tree=28
num_leaves=12
num_cat=0
split_feature=25 19 13 8 25 8 17 17 17 8 8
split_gain=86.6149 91.2189 59.504 40.6057 25.6115 28.0167 22.0938 9.98361 7.44727 17.2136 5.65455
threshold=-1.0000000180025095e-35 1.0000000180025095e-35 360.00000000000006 264140800.00000003 1.0000000180025095e-35 2081382400.0000002 35840.000000000007 13773.000000000002 82944.000000000015 1218254848.0000002 46581600.000000007
decision_type=2 2 2 2 2 2 2 2 2 2 2
left_child=7 3 -3 10 -5 6 -6 -1 9 -8 -2
right_child=1 2 -4 4 5 -7 8 -9 -10 -11 -12
leaf_value=-0.25758234569357885 -0.17773341366466874 -0.099684926583926442 0.08902809065296037 0.064190133103027888 0.036275361031690025 0.083341869519653139 -0.092596328048395654 -0.11336116136364033 -0.19789143482877614 0.12802798180647049 -0.088579935173899282
leaf_weight=7.5660112742334631 10.682780778035523 15.847331447526811 211.13113711960614 41.209250239655375 17.314475201070309 16.283549249172211 39.174938319250941 9.7653333302587253 4.8714965656399718 3.385885275900363 15.525536930188535
leaf_count=33 51 667 1210 162 127 56 1833 466 20 7 412
internal_value=0 0.0383931 0.0758455 -0.0188615 0.00387754 -0.026776 -0.0544944 -0.176411 -0.0876616 -0.075008 -0.12498
internal_weight=0 375.426 226.978 148.448 122.24 81.0303 64.7468 17.3313 47.4323 42.5608 26.2083
internal_count=5044 4545 1877 2668 2205 2043 1987 499 1860 1840 463
is_linear=0
shrinkage=0.0939483


Tree=29
num_leaves=12
num_cat=0
split_feature=25 22 13 8 25 7 17 8 8 5 7
split_gain=73.9499 77.812 50.5549 31.8141 22.4958 34.7424 15.6081 16.2931 12.0301 11.3002 5.51756
threshold=-1.0000000180025095e-35 1.0000000180025095e-35 360.00000000000006 264140800.00000003 1.5000000000000002 19354.000000000004 20660.000000000004 256072000.00000003 328449800.00000006 25755.000000000004 3576.0000000000005
decision_type=2 2 2 2 2 2 2 2 2 2 2
left_child=10 2 -2 -3 9 8 -4 -8 -6 -5 -1
right_child=1 3 6 4 5 -7 7 -9 -10 -11 -12
leaf_value=-0.22150276712736156 -0.098549472620385853 -0.12887378514781586 0.089505125904604285 0.15956037244059082 0.041376305860643309 0.096315362249323466 -0.10695927227725043 0.055749290183234448 -0.099497765161200333 0.028544648013701282 -0.11323631273795086
leaf_weight=7.9489222895354059 14.994951196946202 21.351182289421558 190.80764028057456 7.0598630234599105 6.2109825024381271 12.756685060448943 7.1895600147545364 22.189017292112112 37.968039878644049 33.137491127476096 8.8990467656403762
leaf_count=33 668 448 1017 33 32 47 175 85 1766 274 466
internal_value=0 0.0370373 0.0683175 -0.0250381 -0.00219746 -0.0402024 0.0796884 0.0158777 -0.0796573 0.0515939 -0.16441
internal_weight=0 353.665 235.181 118.484 97.1331 56.9357 220.186 29.3786 44.179 40.1974 16.848
internal_count=5044 4545 1945 2600 2152 1845 1277 260 1798 307 499
is_linear=0
shrinkage=0.0939483


Tree=30
num_leaves=12
num_cat=0
split_feature=19 24 13 7 7 7 18 7 7 7 17
split_gain=64.3349 67.4423 47.0436 30.0158 10.3329 18.8102 14.751 9.37756 16.0296 6.03259 5.97231
threshold=1.0000000180025095e-35 1.0000000180025095e-35 360.00000000000006 11954.000000000002 19354.000000000004 15300.000000000002 1.5000000000000002 7500.0000000000009 8455.0000000000018 8100.0000000000009 78336.000000000015
decision_type=2 2 2 2 2 2 2 2 2 2 2
left_child=3 2 -2 7 5 10 -7 -1 9 -9 -5
right_child=1 -3 -4 4 -6 6 -8 8 -10 -11 -12
leaf_value=-0.13857492082671566 -0.09499565073183458 -0.17293497824627332 0.085238340437320023 0.0065022215624245582 0.064043113676685914 -0.12232877300478891 0.12420049971798017 -0.049685889776681903 -0.097636504372268382 0.083250483799170022 0.090114899431303741
leaf_weight=15.89476879686117 13.734612056054173 10.388780125416814 182.88410274498165 37.225188847631216 23.975962724536657 15.809669457376005 2.4718470200896254 4.8415170907974225 23.774007793515921 7.9368840456008911 9.4718208312988263
leaf_count=232 667 217 1210 545 97 548 6 127 1343 27 25
internal_value=0 0.0603084 0.0726403 -0.0218978 0.0113232 -0.00810538 -0.0889098 -0.078273 -0.052008 0.0327606 0.0234954
internal_weight=0 207.007 196.619 141.402 88.9545 64.9785 18.2815 52.4472 36.5524 12.7784 46.697
internal_count=5044 2094 1877 2950 1221 1124 554 1729 1497 154 570
is_linear=0
shrinkage=0.0939483


Tree=31
num_leaves=12
num_cat=0
split_feature=19 25 13 7 7 7 2 7 7 7 7
split_gain=56.9362 58.753 41.5927 26.899 8.97381 16.6049 8.30385 8.1772 14.6345 5.31151 10.308
threshold=1.0000000180025095e-35 -1.0000000180025095e-35 360.00000000000006 11954.000000000002 19354.000000000004 15300.000000000002 0.0017268013581905322 7500.0000000000009 8455.0000000000018 15050.000000000002 12250.000000000002
decision_type=2 2 2 2 2 2 2 2 2 2 2
left_child=3 -2 -3 7 5 9 -7 -1 -9 10 -5
right_child=1 2 -4 4 -6 6 -8 8 -10 -11 -12
leaf_value=-0.1350323199246059 -0.16331368722805986 -0.092540717032228895 0.082860870293918754 0.026780614312032922 0.061075223391748534 0.029172574323733411 -0.12404906210922428 0.031447006348338712 -0.09741823151569054 0.086452882806528131 -0.11096459548662788
leaf_weight=14.830761780962346 9.986909866333006 12.818990815430878 171.03568268939853 31.656293217092752 22.835613053292036 4.0979471337050226 12.904783131554721 12.10435378551483 21.688372537493706 8.9701033085584623 5.6497931182384482
leaf_count=232 217 667 1210 225 97 91 463 154 1343 25 320
internal_value=0 0.058562 0.0706227 -0.020944 0.0105826 -0.00761403 -0.0870279 -0.0768112 -0.0512131 0.0215303 0.00587791
internal_weight=0 193.842 183.855 134.738 86.1145 63.2789 17.0027 48.6235 33.7927 46.2762 37.3061
internal_count=5044 2094 1877 2950 1221 1124 554 1729 1497 570 545
is_linear=0
shrinkage=0.0939483


Tree=32
num_leaves=12
num_cat=0
split_feature=24 19 13 8 7 8 8 7 2 5 17
split_gain=50.5012 57.7407 36.7003 26.3445 9.19145 19.6274 11.5991 12.2654 13.6238 8.01604 7.19532
threshold=1.0000000180025095e-35 1.0000000180025095e-35 360.00000000000006 264140800.00000003 19354.000000000004 328449800.00000006 1063424000.0000001 15300.000000000002 0.0017268013581905322 22150.000000000004 13773.000000000002
decision_type=2 2 2 2 2 2 2 2 2 2 2
left_child=1 3 -3 -1 5 -5 9 -8 -9 -7 -4
right_child=-2 2 10 4 -6 6 7 8 -10 -11 -12
leaf_value=-0.11170120592874058 -0.14539974011861465 -0.090020583653907207 0.085051302881914689 0.041636173936246149 0.058136607547394303 0.16583173320451897 0.08948516699418714 0.12049772226467682 -0.14394234462625677 -0.097916556654368922 -0.004436103616353832
leaf_weight=20.913182089105248 14.638782564550636 11.980727910995482 151.9277701061219 35.620643814094365 21.788085441105068 1.0519469017162943 8.5293102590367216 2.382307540625332 6.1410160548985004 27.446946773678064 8.3323395792394859
leaf_count=463 499 667 1010 133 97 35 27 20 127 1766 200
internal_value=0 0.0333427 0.0685264 -0.0155662 0.00394539 -0.0105812 -0.0514489 0.00975551 -0.0698464 -0.0881262 0.0803888
internal_weight=0 296.114 172.241 123.873 102.96 81.1722 45.5515 17.0526 8.52332 28.4989 160.26
internal_count=5044 4545 1877 2668 2205 2108 1975 174 147 1801 1210
is_linear=0
shrinkage=0.0939483


Tree=33
num_leaves=12
num_cat=0
split_feature=24 7 13 13 16 25 7 7 8 17 5
split_gain=44.4135 48.3932 21.1825 18.5674 9.36472 10.9476 10.0611 11.5928 8.10377 6.95162 6.70382
threshold=1.0000000180025095e-35 4576.0000000000009 905.00000000000011 360.00000000000006 0.91597561503675362 1.0000000180025095e-35 8455.0000000000018 19354.000000000004 328449800.00000006 33280.000000000007 31310.000000000004
decision_type=2 2 2 2 2 2 2 2 2 2 2
left_child=1 3 -3 -1 5 9 -7 8 -8 -4 -6
right_child=-2 2 4 -5 10 6 7 -9 -10 -11 -12
leaf_value=-0.08274208381543989 -0.14089432306199845 -0.090111113687441791 0.021393738458362566 0.074656710519008726 -0.14457659959004424 0.090822662522454592 0.014486244065653485 0.064809999273281377 -0.080341224354104346 0.10534597957777908 -0.0035421243298063595
leaf_weight=6.9183752723038188 13.731727983802555 24.184204725548625 19.583613676950336 146.50872690603137 5.6535561569035035 7.7248217277228823 11.727831890806554 9.9438043888658267 24.554048392921686 15.757653720676897 6.3275333140045404
leaf_count=280 499 1295 144 1149 126 102 87 46 1143 67 106
internal_value=0 0.0321588 -0.0111091 0.067549 0.00774137 0.0182201 -0.00837925 -0.0249909 -0.0496458 0.0588699 -0.0702232
internal_weight=0 278.884 125.457 153.427 101.273 89.2918 53.9505 46.2257 36.2819 35.3413 11.9811
internal_count=5044 4545 3116 1429 1821 1589 1378 1276 1230 211 232
is_linear=0
shrinkage=0.0939483


Tree=34
num_leaves=12
num_cat=0
split_feature=19 24 13 8 1 0 7 8 8 7 2
split_gain=41.5098 40.1975 29.0973 22.3102 9.83958 11.806 11.6937 18.2335 10.5964 8.72273 10.8899
threshold=1.0000000180025095e-35 1.0000000180025095e-35 360.00000000000006 264140800.00000003 0.0029531287346431477 30.500000000000004 19354.000000000004 328449800.00000006 1063424000.0000001 15300.000000000002 0.0017268013581905322
decision_type=2 2 2 2 2 2 2 2 2 2 2
left_child=3 2 -2 -1 -5 -6 7 -7 -9 -10 -11
right_child=1 -3 -4 4 5 6 -8 8 9 10 -12
leaf_value=-0.11001992822479745 -0.084937790549147241 -0.1419008353580494 0.077037996393907848 -0.16424038545562653 0.19994290000347734 0.034358680129071013 0.065144250571140816 -0.097476047763617041 0.069229915774819142 0.10222726784079486 -0.13566785079859903
leaf_weight=19.810507112182677 10.515815250109879 8.7034890768118185 139.96733831986785 3.1484786234796038 2.6538022859022012 33.021916406229138 18.82760913670063 25.141175558790565 8.0671202261000889 2.367836360819636 5.9600299103185534
leaf_count=468 667 217 1210 77 32 125 90 1965 28 15 150
internal_value=0 0.0543478 0.0657087 -0.0189962 -0.000800536 0.00454124 -0.000994854 -0.0177175 -0.0591566 -0.000299406 -0.0678398
internal_weight=0 159.187 150.483 118.998 99.188 96.0395 93.3857 74.5581 41.5362 16.395 8.32787
internal_count=5044 2094 1877 2950 2482 2405 2373 2283 2158 193 165
is_linear=0
shrinkage=0.0939483


Tree=35
num_leaves=12
num_cat=0
split_feature=19 24 8 7 12 7 25 6 8 15 0
split_gain=34.8893 31.4617 20.5992 16.7845 16.1825 11.1194 13.2651 10.868 10.8618 8.42215 7.30026
threshold=1.0000000180025095e-35 1.0000000180025095e-35 50176000.000000007 7500.0000000000009 -0.8783796973249266 19354.000000000004 1.0000000180025095e-35 1584635.0000000002 328449800.00000006 0.1294095225512602 40.500000000000007
decision_type=2 2 2 2 2 2 2 2 2 2 2
left_child=3 2 -2 -1 -4 6 7 9 -8 -5 -11
right_child=1 -3 4 5 -6 -7 8 -9 -10 10 -12
leaf_value=-0.13167047207388272 0.076211561297095304 -0.13453203469264793 0.14631748500855354 -0.0050319457263197582 -0.096128818880145392 0.060915752435506294 0.0037175389617487608 -0.09981038059977114 -0.085740717150997986 0.029198229286178868 0.15697513090781481
leaf_weight=9.8591695623472315 128.11353242350742 7.3834504387341431 3.1075621303170911 14.039496031589808 11.095320348627864 19.313696071505547 20.143933927174658 5.151872841641306 29.439223262481391 7.7381388419307759 8.1302233198657614
leaf_count=207 1024 222 92 205 755 96 237 105 1885 121 63
internal_value=0 0.0544888 0.0643063 -0.0145148 -0.0429718 -0.00338879 -0.0180802 0.02612 -0.0493653 0.0478649 0.094764
internal_weight=0 149.7 142.316 113.816 14.2029 103.957 84.6429 35.0597 49.5832 29.9079 15.8684
internal_count=5012 2093 1871 2919 847 2712 2616 494 2122 389 184
is_linear=0
shrinkage=0.0939483


Tree=36
num_leaves=12
num_cat=0
split_feature=19 24 13 8 7 25 8 6 23 15 0
split_gain=30.8649 27.6634 21.4131 15.3003 8.57475 12.204 11.751 9.68657 6.87317 6.33497 5.42027
threshold=1.0000000180025095e-35 1.0000000180025095e-35 360.00000000000006 264140800.00000003 19354.000000000004 1.0000000180025095e-35 328449800.00000006 1584635.0000000002 0.088932806324110686 0.1294095225512602 40.500000000000007
decision_type=2 2 2 2 2 2 2 2 2 2 2
left_child=3 2 -2 -1 5 7 -7 9 -4 -5 -11
right_child=1 -3 8 4 -6 6 -8 -9 -10 10 -12
leaf_value=-0.10015716370302549 -0.064544224228877123 -0.13005403999060289 0.019270582359497534 0.0020796172880990049 0.058074004799078635 0.019533095292499466 -0.083028767080767382 -0.091763516688674676 0.08254978756848394 0.03257177075474358 0.14443972688591683
leaf_weight=15.509101284202186 10.794464004691688 6.9415178862400344 17.78259688988328 13.077478670980783 18.400793641805649 15.282380509655921 27.680001889821142 4.970188933890312 105.01290236599743 7.3625151896849266 8.0507871531881374
leaf_count=449 676 222 171 160 96 66 1887 98 1024 104 59
internal_value=0 0.0527314 0.0622409 -0.0136494 0.000482932 -0.013363 -0.0465095 0.0291487 0.0733988 0.0502967 0.0911051
internal_weight=0 140.531 133.59 110.333 94.8241 76.4234 42.9624 33.461 122.795 28.4908 15.4133
internal_count=5012 2093 1871 2919 2470 2374 1953 421 1195 323 163
is_linear=0
shrinkage=0.0939483


Tree=37
num_leaves=12
num_cat=0
split_feature=7 8 13 23 25 19 25 8 5 16 17
split_gain=27.7165 37.1997 12.9003 7.74281 6.07414 5.62268 5.6634 9.48006 7.98277 11.7926 7.79375
threshold=2576.0000000000005 46581600.000000007 905.00000000000011 0.088932806324110686 -1.0000000180025095e-35 1.0000000180025095e-35 1.0000000180025095e-35 2081382400.0000002 26215.000000000004 -0.70710678118654735 33280.000000000007
decision_type=2 2 2 2 2 2 2 2 2 2 2
left_child=-1 3 -3 -2 -4 6 10 8 9 -8 -6
right_child=1 2 4 -5 5 -7 7 -9 -10 -11 -12
leaf_value=-0.17456066710776516 0.0085319213614573775 -0.081749935115517744 -0.13085084200020539 0.075001970057661738 -0.0086224377141346249 0.13006417716245733 0.19899618296602112 0.063852673679138244 -0.060615692855635186 -0.029479243870752795 0.075280880535426101
leaf_weight=6.1412560744211069 18.373633599840105 18.7220658371225 2.8816918134689322 99.659130267798901 21.118779287673533 3.197538135573267 2.81430808827281 10.150647386908529 31.252584835980088 6.8138996106572431 18.140080714598298
leaf_count=31 124 1773 208 939 235 39 54 56 1278 184 91
internal_value=0 0.027608 -0.0103856 0.0646681 0.00346241 0.00761926 0.00326566 -0.0173524 -0.0375538 0.0371411 0.0301063
internal_weight=0 233.124 115.092 118.033 96.3695 93.4878 90.2903 51.0314 40.8808 9.62821 39.2589
internal_count=5012 4981 3918 1063 2145 1937 1898 1572 1516 238 326
is_linear=0
shrinkage=0.0939483


Tree=38
num_leaves=12
num_cat=0
split_feature=24 19 8 8 12 25 7 8 15 23 18
split_gain=25.5781 28.1357 16.6067 14.3043 12.3696 7.05239 12.903 10.6334 5.12722 4.39222 4.12459
threshold=1.0000000180025095e-35 1.0000000180025095e-35 50176000.000000007 264140800.00000003 -0.8783796973249266 1.0000000180025095e-35 19354.000000000004 328449800.00000006 0.60355339059327384 0.088932806324110686 1.5000000000000002
decision_type=2 2 2 2 2 2 2 2 2 2 2
left_child=1 3 9 -1 -4 8 7 -7 -5 -3 -9
right_child=-2 2 4 5 -6 6 -8 10 -10 -11 -12
leaf_value=-0.095716221851802369 -0.12683005331332442 0.025671683108542682 0.11331500704977003 0.010822018220238098 -0.09600170820919654 0.020664998994098831 0.077333169520672124 -0.086163333585750609 0.085144086849753886 0.079142292418778598 0.11514385249125475
leaf_weight=14.308158890344201 9.8516262508928758 16.072143932338804 3.361140380613505 22.679562701843679 9.5909146638587099 15.3583752727136 10.235012287274001 24.027517583221201 12.878320459276436 90.00396450329572 0.92666993662714858
leaf_count=447 509 107 92 114 755 66 59 1883 59 917 4
internal_value=0 0.0278882 0.0587878 -0.00872402 -0.0415618 0.0057133 -0.016816 -0.0407585 0.037784 0.0710554 -0.0786251
internal_weight=0 219.442 119.028 100.414 12.9521 86.1055 50.5476 40.3126 35.5579 106.076 24.9542
internal_count=5012 4503 1871 2632 847 2185 2012 1953 173 1024 1887
is_linear=0
shrinkage=0.0939483


Tree=39
num_leaves=12
num_cat=0
split_feature=7 8 13 23 5 10 8 8 12 2 1
split_gain=23.6672 29.1899 10.5984 6.74456 5.41143 3.9825 7.04653 6.71553 6.50559 7.45269 11.8359
threshold=2576.0000000000005 46581600.000000007 730.00000000000011 0.088932806324110686 34305.000000000007 4.5000000000000009 1218254848.0000002 328449800.00000006 1.0000000180025095e-35 0.0020581307453541508 0.0041018053762926854
decision_type=2 2 2 2 2 2 2 2 2 2 2
left_child=-1 3 -3 -2 5 8 7 -7 9 -4 -11
right_child=1 2 4 -5 -6 6 -8 -9 -10 10 -12
leaf_value=-0.16659526843786882 0.007627978339813637 -0.079304211825819468 0.14962745842491842 0.071257381551151411 -0.041612495424543108 0.0039298706032390857 0.051295567687856113 -0.085794223043475087 -0.024515990600966004 -0.13803380916071203 0.1236533720335581
leaf_weight=5.822839193744584 17.74354738323018 16.125471435952932 7.5795541089028138 87.432818494737148 18.781885293312371 24.582603217568249 16.687181644141674 10.492727445438502 6.8977862850297234 2.6810050585772842 3.5368898664601147
leaf_count=31 124 1773 85 939 502 307 87 851 186 76 51
internal_value=0 0.0253591 -0.00908793 0.0605378 0.00330476 0.0149694 0.00101173 -0.0228663 0.0498045 0.0870732 0.0105684
internal_weight=0 212.541 107.365 105.176 91.2396 72.4577 51.7625 35.0753 20.6952 13.7974 6.21789
internal_count=5012 4981 3918 1063 2145 1643 1245 1158 398 212 127
is_linear=0
shrinkage=0.0939483


Tree=40
num_leaves=12
num_cat=0
split_feature=25 19 13 7 23 25 7 8 17 0 5
split_gain=22.6262 22.9565 13.4156 12.2593 5.29735 5.14544 10.9118 8.13635 5.60064 7.3494 4.59493
threshold=-1.0000000180025095e-35 1.0000000180025095e-35 360.00000000000006 7500.0000000000009 0.088932806324110686 1.0000000180025095e-35 19354.000000000004 328449800.00000006 33280.000000000007 40.500000000000007 27925.000000000004
decision_type=2 2 2 2 2 2 2 2 2 2 2
left_child=-1 3 -3 -2 10 8 7 -7 9 -5 -4
right_child=1 2 4 5 -6 6 -8 -9 -10 -11 -12
leaf_value=-0.12595249121564217 -0.11873581462921702 -0.054443217037485274 0.084574999936903303 -0.067337829740440502 0.075812421592203652 0.0070870725710918325 0.074673240545725258 -0.076055112406388417 0.069846086991190534 0.048074471858239924 -0.01882374969663362
leaf_weight=9.0833492279052717 8.0550810724962485 8.9244947340339404 5.8412599074654308 8.9276986634358781 80.462385578546673 19.360930229537189 9.3859755974262935 22.339053465053439 16.516496207565069 10.709778336808084 10.778522273525594
leaf_count=509 207 676 54 97 1024 237 59 1885 91 56 117
internal_value=0 0.0256097 0.0556921 -0.00783769 0.0658327 0.00238386 -0.0167908 -0.0374154 0.0295212 -0.00431516 0.017423
internal_weight=0 201.302 106.007 95.295 97.0822 87.2399 51.086 41.7 36.154 19.6375 16.6198
internal_count=5012 4503 1871 2632 1195 2425 2181 2122 244 153 171
is_linear=0
shrinkage=0.0939483


Tree=41
num_leaves=12
num_cat=0
split_feature=25 7 8 13 23 7 7 12 7 10 7
split_gain=19.9401 20.8076 27.7465 8.8041 5.4741 4.57297 8.68718 3.85305 5.47948 3.92686 3.68331
threshold=-1.0000000180025095e-35 2576.0000000000005 46581600.000000007 905.00000000000011 0.075498575498575513 8455.0000000000018 11954.000000000002 -0.8783796973249266 8100.0000000000009 19.500000000000004 27200.000000000004
decision_type=2 2 2 2 2 2 2 2 2 2 2
left_child=-1 -2 4 10 -3 7 -7 -5 9 -9 -4
right_child=1 2 3 5 -6 6 -8 8 -10 -11 -12
leaf_value=-0.12311042310509489 -0.16003932112281752 0.013785118330271231 -0.095603526218940041 0.14793192432588684 0.077576264398798306 -0.095284342084737378 0.0082828576242363044 -0.10063812481975419 0.088054267926618413 0.085904588135625154 0.047841619127060503
leaf_weight=8.4505376815795881 5.2540589175187042 14.181050055893136 11.505902309669178 3.0944607304409137 74.964579954743385 8.062729141674934 62.961947356816381 3.4050089181400818 6.0981259196996689 1.3995445966720579 1.815918684005738
leaf_count=509 31 104 1307 25 931 904 768 164 26 50 193
internal_value=0 0.0243103 0.0294847 -0.00491021 0.0674461 0.00619968 -0.00345205 0.0552867 0.0288479 -0.0459731 -0.0759327
internal_weight=0 192.743 187.489 98.3436 89.1456 85.0218 71.0247 13.9971 10.9027 4.80455 13.3218
internal_count=5012 4503 4472 3437 1035 1937 1672 265 240 214 1500
is_linear=0
shrinkage=0.0939483


Tree=42
num_leaves=12
num_cat=0
split_feature=25 8 7 13 17 23 9 10 5 5 22
split_gain=22.1452 22.3536 22.0492 11.4963 10.9878 8.65209 7.31494 14.482 6.62343 4.58712 4.41756
threshold=-1.0000000180025095e-35 17017600.000000004 4576.0000000000009 730.00000000000011 13773.000000000002 0.21807065217391305 1.5000000000000002 7.5000000000000009 22150.000000000004 35955.000000000007 1.0000000180025095e-35
decision_type=2 2 2 2 2 2 2 2 2 2 2
left_child=-1 -2 4 -4 9 6 7 -5 -7 -3 -10
right_child=1 2 3 5 -6 8 -8 -9 10 -11 -12
leaf_value=-0.12138956621379439 -0.17011291644501328 0.082674975533265777 -0.079563475611056686 -0.20186676227709155 -0.095953302681904093 0.18147122714230601 0.011300054811555263 0.0048063892146496629 0.086614273565915653 0.0098306102963539761 0.01250477613329256
leaf_weight=9.3674621582031232 4.9453881857916704 70.426548988325521 13.488798829726873 4.8526348462328297 3.4662367161363354 3.0154317051637909 28.617568023269996 7.769848738797009 10.380596440285442 8.6126389391720277 22.664251451380551
leaf_count=531 30 888 1241 148 390 33 769 205 44 109 588
internal_value=0 0.0267847 0.0324127 0.000449273 0.0675663 0.0144316 -0.0149304 -0.0745238 0.0480547 0.0747572 0.0358327
internal_weight=0 178.24 173.295 90.7891 82.5054 77.3003 41.2401 12.6225 36.0603 79.0392 33.0448
internal_count=4976 4445 4415 3028 1387 1787 1122 353 665 997 632
is_linear=0
shrinkage=0.0939483


Tree=43
num_leaves=12
num_cat=0
split_feature=25 8 7 13 16 25 5 16 23 5 17
split_gain=19.5183 19.8207 20.0932 10.082 7.90231 6.80815 6.40562 6.01801 4.93214 4.92932 4.81845
threshold=-1.0000000180025095e-35 17017600.000000004 4576.0000000000009 730.00000000000011 0.91597561503675362 1.0000000180025095e-35 35715.000000000007 0.98296291314453421 0.04083333333333334 28445.000000000004 33280.000000000007
decision_type=2 2 2 2 2 2 2 2 2 2 2
left_child=-1 -2 8 -4 5 10 -7 -6 9 -3 -5
right_child=1 2 3 4 7 6 -8 -9 -10 -11 -12
leaf_value=-0.11891680567124518 -0.16786659245760346 0.064128370753247191 -0.077655998838981818 0.025719464390856248 -0.13777069491398905 0.011805533401618605 -0.10703540371621942 0.038532171934656412 0.074730590359721502 -0.071834890568531012 0.1050266605747486
leaf_weight=8.696255683898924 4.5591171658597878 5.1833297163248044 12.566614799201487 16.230702370638031 5.0206751681398591 36.926722895586863 4.4896517794113597 2.5726602785289288 67.532363619655371 4.3096619737334549 11.676833938807247
leaf_count=531 30 95 1241 121 156 1151 216 78 1211 81 65
internal_value=0 0.0253407 0.0306402 0.000343826 0.0131077 0.0230913 -0.00103935 -0.0778322 0.0658166 0.00223832 0.0589586
internal_weight=0 171.068 166.509 89.4839 76.9172 69.3239 41.4164 7.59334 77.0254 9.49299 27.9075
internal_count=4976 4445 4415 3028 1787 1553 1367 234 1387 176 186
is_linear=0
shrinkage=0.0939483


Tree=44
num_leaves=12
num_cat=0
split_feature=24 7 7 13 23 5 9 10 23 0 7
split_gain=17.2102 15.2781 18.5921 8.66293 6.29438 6.30394 6.0983 12.3215 4.66116 5.61691 4.18532
threshold=1.0000000180025095e-35 2576.0000000000005 4576.0000000000009 905.00000000000011 0.21807065217391305 21520.000000000004 1.5000000000000002 7.5000000000000009 0.04083333333333334 40.500000000000007 27200.000000000004
decision_type=2 2 2 2 2 2 2 2 2 2 2
left_child=1 -1 8 10 6 -6 7 -5 9 -3 -4
right_child=-2 2 3 4 5 -7 -8 -9 -10 -11 -12
leaf_value=-0.15291750136193391 -0.11666849173174151 0.052944602119930038 -0.098728965505954641 -0.19311090028787664 0.18905319319919039 0.029302510781476689 0.0094514328997156553 0.0026774123371959184 0.072925933047536098 -0.10079100529565693 0.060887370918472433
leaf_weight=4.2011071878951034 8.0616719766985607 6.3699566842988116 10.040415586670857 4.5108610391616804 2.337853127392008 33.447321429848671 28.486749336356297 7.6043880977667868 63.166286499239504 3.1268381103873253 1.6819640696048743
leaf_count=33 531 114 1049 148 24 642 769 205 1207 62 192
internal_value=0 0.0238885 0.0285183 -0.000477041 0.0110451 0.0397828 -0.0142447 -0.070091 0.0636989 0.00216194 -0.0756931
internal_weight=0 164.974 160.773 88.1096 76.3872 35.7852 40.602 12.1152 72.6631 9.49679 11.7224
internal_count=4976 4445 4412 3029 1788 666 1122 353 1383 176 1241
is_linear=0
shrinkage=0.0939483


Tree=45
num_leaves=12
num_cat=0
split_feature=24 8 17 8 25 16 16 23 17 5 8
split_gain=15.1685 16.0419 17.0091 7.61672 7.03821 8.59312 5.5846 5.52033 7.17748 5.2792 5.03976
threshold=1.0000000180025095e-35 17017600.000000004 11444.000000000002 256072000.00000003 32.500000000000007 0.91597561503675362 0.98296291314453421 0.048809523809523817 33280.000000000007 21520.000000000004 2081382400.0000002
decision_type=2 2 2 2 2 2 2 2 2 2 2
left_child=1 -1 -3 -4 5 7 -7 8 -5 -9 -6
right_child=-2 2 3 4 10 6 -8 9 -10 -11 -12
leaf_value=-0.16745359568311322 -0.11462346055508339 0.0622275458117615 -0.074213184093514961 -0.14720687380903993 -0.067386081508210724 -0.13637802964347451 0.048821971620403644 0.20028322957007766 0.022439624755369321 0.046049810943952357 0.067418907142688736
leaf_weight=3.8326644427143028 7.4634135381784281 68.241803257027641 10.795063297031446 2.9024252909002817 13.878070364240559 4.4347603959031394 2.1108022108674049 2.0688560341950497 9.0764316811691952 39.491915556020103 2.9609156250953665
leaf_count=30 531 1033 950 44 947 124 65 14 348 870 20
internal_value=0 0.0223766 0.0270516 -0.000295878 0.0100569 0.0251174 -0.0764158 0.0375597 -0.0185343 0.0537651 -0.0435894
internal_weight=0 159.794 155.961 87.7192 76.9242 60.0852 6.54556 53.5396 11.9789 41.5608 16.839
internal_count=4976 4445 4415 3382 2432 1465 189 1276 392 884 967
is_linear=0
shrinkage=0.0939483


Tree=46
num_leaves=12
num_cat=0
split_feature=8 24 8 13 23 5 9 10 22 18 15
split_gain=13.4996 14.2759 15.0669 6.71551 4.96352 5.52007 5.24952 10.498 4.40936 6.09143 4.68862
threshold=17017600.000000004 1.0000000180025095e-35 46581600.000000007 730.00000000000011 0.21807065217391305 21225.000000000004 1.5000000000000002 11.500000000000002 1.0000000180025095e-35 1.5000000000000002 -0.9159756150367534
decision_type=2 2 2 2 2 2 2 2 2 2 2
left_child=-1 2 -2 -4 6 -6 7 -5 -7 10 -10
right_child=1 -3 3 4 5 8 -8 -9 9 -11 -12
leaf_value=-0.16747587267915995 0.059635275175183376 -0.11276199453823338 -0.071038312507840581 -0.15590782926997648 0.17988152538612401 0.075817983891632523 0.0085992261325132258 0.021408666273894473 0.085512256964180064 0.13628652434181165 -0.035680116000022875
leaf_weight=3.4884675412904462 64.720937333302572 6.9009328680112949 10.428151560714467 5.8083541326923278 2.1813711465802035 10.506091242190449 28.379968908964656 5.9553355970419943 3.380453763529661 2.6460112631320944 16.803279237821702
leaf_count=30 1030 531 1495 184 21 45 814 186 52 12 576
internal_value=0 0.0193321 0.025387 -0.000342413 0.00938073 0.034975 -0.0132249 -0.0660087 0.0254459 0.0021964 -0.0153047
internal_weight=0 157.711 150.81 86.089 75.6609 35.5172 40.1437 11.7637 33.3358 22.8297 20.1837
internal_count=4976 4946 4415 3385 1890 706 1184 370 685 640 628
is_linear=0
shrinkage=0.0939483


end of trees

feature_importances:
memory_mib=97
cpu_x_mem=87
cpu_milli=72
gpu_milli=46
recent_failure_rate=40
cluster_req_gpu_milli=29
scheduling_latency_sec=24
qos_Burstable=14
scheduled_time_missing=13
cluster_active_pods=12
cluster_mem_ratio=11
creation_hour=11
hour_sin=11
qos_BE=11
cluster_req_mem=7
hour_cos=7
qos_LS=7
num_gpu=6
creation_dayofweek=5
dayofweek_sin=4
cluster_cpu_ratio=2
cluster_req_cpu=1

parameters:
[boosting: gbdt]
[objective: binary]
[metric: auc]
[tree_learner: serial]
[device_type: gpu]
[data_sample_strategy: bagging]
[data: ]
[valid: ]
[num_iterations: 47]
[learning_rate: 0.0939483]
[num_leaves: 12]
[num_threads: 4]
[seed: 42]
[deterministic: 0]
[force_col_wise: 1]
[force_row_wise: 0]
[histogram_pool_size: -1]
[max_depth: 10]
[min_data_in_leaf: 58]
[min_sum_hessian_in_leaf: 0.001]
[bagging_fraction: 0.722738]
[pos_bagging_fraction: 1]
[neg_bagging_fraction: 1]
[bagging_freq: 7]
[bagging_seed: 400]
[feature_fraction: 0.898886]
[feature_fraction_bynode: 1]
[feature_fraction_seed: 30056]
[extra_trees: 0]
[extra_seed: 12879]
[early_stopping_round: 0]
[early_stopping_min_delta: 0]
[first_metric_only: 0]
[max_delta_step: 0]
[lambda_l1: 0.0166695]
[lambda_l2: 1.37589e-06]
[linear_lambda: 0]
[min_gain_to_split: 0]
[drop_rate: 0.1]
[max_drop: 50]
[skip_drop: 0.5]
[xgboost_dart_mode: 0]
[uniform_drop: 0]
[drop_seed: 17869]
[top_rate: 0.2]
[other_rate: 0.1]
[min_data_per_group: 100]
[max_cat_threshold: 32]
[cat_l2: 10]
[cat_smooth: 10]
[max_cat_to_onehot: 4]
[top_k: 20]
[monotone_constraints: ]
[monotone_constraints_method: basic]
[monotone_penalty: 0]
[feature_contri: ]
[forcedsplits_filename: ]
[refit_decay_rate: 0.9]
[cegb_tradeoff: 1]
[cegb_penalty_split: 0]
[cegb_penalty_feature_lazy: ]
[cegb_penalty_feature_coupled: ]
[path_smooth: 0]
[interaction_constraints: ]
[verbosity: -1]
[saved_feature_importance_type: 0]
[use_quantized_grad: 0]
[num_grad_quant_bins: 4]
[quant_train_renew_leaf: 0]
[stochastic_rounding: 1]
[linear_tree: 0]
[max_bin: 255]
[max_bin_by_feature: ]
[min_data_in_bin: 3]
[bin_construct_sample_cnt: 200000]
[data_random_seed: 175]
[is_enable_sparse: 1]
[enable_bundle: 1]
[use_missing: 1]
[zero_as_missing: 0]
[feature_pre_filter: 1]
[pre_partition: 0]
[two_round: 0]
[header: 0]
[label_column: ]
[weight_column: ]
[group_column: ]
[ignore_column: ]
[categorical_feature: ]
[forcedbins_filename: ]
[precise_float_parser: 0]
[parser_config_file: ]
[objective_seed: 16083]
[num_class: 1]
[is_unbalance: 0]
[scale_pos_weight: 2.96801]
[sigmoid: 1]
[boost_from_average: 1]
[reg_sqrt: 0]
[alpha: 0.9]
[fair_c: 1]
[poisson_max_delta_step: 0.7]
[tweedie_variance_power: 1.5]
[lambdarank_truncation_level: 30]
[lambdarank_norm: 1]
[label_gain: ]
[lambdarank_position_bias_regularization: 0]
[eval_at: ]
[multi_error_top_k: 1]
[auc_mu_weights: ]
[num_machines: 1]
[local_listen_port: 12400]
[time_out: 120]
[machine_list_filename: ]
[machines: ]
[gpu_platform_id: -1]
[gpu_device_id: -1]
[gpu_use_dp: 0]
[num_gpu: 1]

end of parameters

pandas_categorical:[]
