{"learner":{"attributes":{"scikit_learn":"{\"_estimator_type\": \"classifier\"}"},"feature_names":["cluster_active_pods","cluster_cpu_ratio","cluster_mem_ratio","cluster_pending_pods","cluster_req_cpu","cluster_req_gpu_milli","cluster_req_mem","cpu_milli","cpu_x_mem","creation_dayofweek","creation_hour","dayofweek_cos","dayofweek_sin","gpu_milli","gpu_spec_provided","hour_cos","hour_sin","memory_mib","num_gpu","qos_BE","qos_Burstable","qos_Guaranteed","qos_LS","recent_failure_rate","scheduled_time_missing","scheduling_latency_sec"],"feature_types":["int","float","float","int","float","float","float","float","float","int","int","float","float","float","int","float","float","float","float","i","i","i","i","float","int","float"],"gradient_booster":{"model":{"gbtree_model_param":{"num_parallel_tree":"1","num_trees":"99"},"iteration_indptr":[0,1,2,3,4,5,6,7,8,9,10,11,12,13,14,15,16,17,18,19,20,21,22,23,24,25,26,27,28,29,30,31,32,33,34,35,36,37,38,39,40,41,42,43,44,45,46,47,48,49,50,51,52,53,54,55,56,57,58,59,60,61,62,63,64,65,66,67,68,69,70,71,72,73,74,75,76,77,78,79,80,81,82,83,84,85,86,87,88,89,90,91,92,93,94,95,96,97,98,99],"tree_info":[0,0,0,0,0,0,0,0,0,0,0,0,0,0,0,0,0,0,0,0,0,0,0,0,0,0,0,0,0,0,0,0,0,0,0,0,0,0,0,0,0,0,0,0,0,0,0,0,0,0,0,0,0,0,0,0,0,0,0,0,0,0,0,0,0,0,0,0,0,0,0,0,0,0,0,0,0,0,0,0,0,0,0,0,0,0,0,0,0,0,0,0,0,0,0,0,0,0,0],"trees":[{"base_weights":[-2.7997084E-2,1.9941099E0,-1.4576654E0,-3.359307E-2,2.051597E0,-1.6311738E0,3.6687452E-2,2.0937161E0,-3.357314E-2,-1.6639085E0,-3.1683326E-2,2.122483E-3,3.7883773E-2,-1.7231498E0,-9.371694E-1,7.9055935E-1,-3.355571E-2,-1.4964455E0,-3.334847E-2,3.5264194E-2,-3.363322E-2,4.236907E-3,2.3029655E-2,-3.336013E-2,1.5210627E-2],"categories":[],"categories_nodes":[],"categories_segments":[],"categories_sizes":[],"default_left":[0,0,0,0,0,0,0,0,0,0,0,0,0,0,0,0,0,0,0,0,0,0,0,0,0],"id":0,"left_children":[1,3,5,-1,7,9,-1,11,-1,13,15,-1,-1,17,19,21,-1,23,-1,-1,-1,-1,-1,-1,-1],"loss_changes":[3.323886E3,1.0589319E2,4.0947925E2,0E0,7.756775E1,3.357849E1,0E0,1.7496216E1,0E0,2.7033691E1,1.950728E1,0E0,0E0,1.7970093E1,1.2927274E2,2.413488E0,0E0,1.86832E2,0E0,0E0,0E0,0E0,0E0,0E0,0E0],"parents":[2147483647,0,0,1,1,2,2,4,4,5,5,7,7,9,9,10,10,13,13,14,14,15,15,17,17],"right_children":[2,4,6,-1,8,10,-1,12,-1,14,16,-1,-1,18,20,22,-1,24,-1,-1,-1,-1,-1,-1,-1],"split_conditions":[4.9152E7,1E0,2.2550528E9,-3.359307E-2,1E0,1E0,3.6687452E-2,3.3E2,-3.357314E-2,1.2296192E9,1.5E1,2.122483E-3,3.7883773E-2,3.619876E8,1.31072E9,4.94456E5,-3.355571E-2,2.661376E8,-3.334847E-2,3.5264194E-2,-3.363322E-2,4.236907E-3,2.3029655E-2,-3.336013E-2,1.5210627E-2],"split_indices":[8,19,8,0,24,20,0,13,0,8,10,0,0,8,8,4,0,8,0,0,0,0,0,0,0],"split_type":[0,0,0,0,0,0,0,0,0,0,0,0,0,0,0,0,0,0,0,0,0,0,0,0,0],"sum_hessian":[1.1497559E3,4.7620532E2,6.7355054E2,6.9695807E0,4.6923572E2,6.417751E2,3.177543E1,4.6425745E2,4.978272E0,6.2889526E2,1.2879807E1,4.4565573E0,4.598009E2,5.814722E2,4.742306E1,8.89719E0,3.9826176E0,2.1882101E2,3.6265118E2,1.1579502E1,3.584356E1,4.207644E0,4.689546E0,1.8941528E2,2.9405733E1],"tree_param":{"num_deleted":"0","num_feature":"26","num_nodes":"25","size_leaf_vector":"1"}},{"base_weights":[-2.1837933E-2,1.9006124E0,-1.4164667E0,1.9806161E0,-3.308986E-2,-1.6211852E0,3.5758413E-2,-3.306357E-2,2.02701E0,-1.6636955E0,3.5179523E-1,-3.3570763E-2,3.6829237E-2,-1.7196658E0,-1.0052271E0,-1.1982869E-2,9.5617497E-1,-1.5163189E0,-3.297869E-2,3.5959747E-2,-3.311413E-2,2.9766694E-2,4.4866167E-3,-3.2839227E-2,1.2336583E-2],"categories":[],"categories_nodes":[],"categories_segments":[],"categories_sizes":[],"default_left":[0,0,0,0,0,0,0,0,0,0,0,0,0,0,0,0,0,0,0,0,0,0,0,0,0],"id":1,"left_children":[1,3,5,7,-1,9,-1,-1,11,13,15,-1,-1,17,19,-1,21,23,-1,-1,-1,-1,-1,-1,-1],"loss_changes":[3.1061462E3,1.4599243E2,4.6883838E2,8.463501E1,0E0,5.314746E1,0E0,0E0,4.963391E1,2.2809326E1,8.239766E0,0E0,0E0,1.3843018E1,1.2316361E2,0E0,4.144264E0,1.4709805E2,0E0,0E0,0E0,0E0,0E0,0E0,0E0],"parents":[2147483647,0,0,1,1,2,2,3,3,5,5,8,8,9,9,10,10,13,13,14,14,16,16,17,17],"right_children":[2,4,6,8,-1,10,-1,-1,12,14,16,-1,-1,18,20,-1,22,24,-1,-1,-1,-1,-1,-1,-1],"split_conditions":[4.9152E7,1E0,2.2550528E9,0E0,-3.308986E-2,1E0,3.5758413E-2,-3.306357E-2,6.144E6,1.2296192E9,2.291186E-3,-3.3570763E-2,3.6829237E-2,3.619876E8,1.54E4,-1.1982869E-2,2.5426385E-3,2.770944E8,-3.297869E-2,3.5959747E-2,-3.311413E-2,2.9766694E-2,4.4866167E-3,-3.2839227E-2,1.2336583E-2],"split_indices":[8,22,8,25,0,20,0,0,8,8,2,0,0,8,7,0,2,8,0,0,0,0,0,0,0],"split_type":[0,0,0,0,0,0,0,0,0,0,0,0,0,0,0,0,0,0,0,0,0,0,0,0,0],"sum_hessian":[1.1585294E3,4.87086E2,6.714434E2,4.7690598E2,1.0180024E1,6.3342975E2,3.8013683E1,5.710755E0,4.7119522E2,6.200771E2,1.3352634E1,3.2361698E0,4.6795905E2,5.7147516E2,4.860192E1,4.958895E0,8.39374E0,2.116989E2,3.5977628E2,1.06131735E1,3.798875E1,4.190841E0,4.202898E0,1.8522327E2,2.6475628E1],"tree_param":{"num_deleted":"0","num_feature":"26","num_nodes":"25","size_leaf_vector":"1"}},{"base_weights":[-3.964843E-2,1.8887331E0,-1.4029952E0,1.9499128E0,-3.258441E-2,-1.5920157E0,3.215061E-2,1.8513755E0,3.5500888E-2,-1.6725701E0,-5.4871035E-1,2.8027458E-2,1.9075937E0,-1.6996461E0,-2.7438888E-1,3.5772104E-2,-3.2616965E-2,3.5240702E-2,1.6604421E0,-1.5159543E0,-1.8038411E0,-2.1205036E-2,5.9186933E-3,3.4919776E-2,2.3964692E-2,-3.2344837E-2,1.1493411E-2,-1.7156793E-2,-3.248717E-2],"categories":[],"categories_nodes":[],"categories_segments":[],"categories_sizes":[],"default_left":[0,0,0,0,0,0,0,0,0,0,0,0,0,0,0,0,0,0,0,0,0,0,0,0,0,0,0,0,0],"id":2,"left_children":[1,3,5,7,-1,9,-1,11,-1,13,15,-1,17,19,21,-1,-1,-1,23,25,27,-1,-1,-1,-1,-1,-1,-1,-1],"loss_changes":[3.0015164E3,1.0722131E2,4.0405994E2,1.3112793E0,0E0,5.303772E1,0E0,1.7050781E0,0E0,2.216272E1,1.4633083E2,0E0,1.2395325E0,1.0951782E1,6.1346126E0,0E0,0E0,0E0,1.5559464E0,1.293367E2,2.4455566E0,0E0,0E0,0E0,0E0,0E0,0E0,0E0,0E0],"parents":[2147483647,0,0,1,1,2,2,3,3,5,5,7,7,9,9,10,10,12,12,13,13,14,14,18,18,19,19,20,20],"right_children":[2,4,6,8,-1,10,-1,12,-1,14,16,-1,18,20,22,-1,-1,-1,24,26,28,-1,-1,-1,-1,-1,-1,-1,-1],"split_conditions":[4.9152E7,1E0,2.2550528E9,-2.2252093E-1,-3.258441E-2,1.2296192E9,3.215061E-2,3.7E1,3.5500888E-2,1E0,1.54E4,2.8027458E-2,2.6042254E-3,3.619876E8,2.291186E-3,3.5772104E-2,-3.2616965E-2,3.5240702E-2,3.296E4,2.661376E8,3E1,-2.1205036E-2,5.9186933E-3,3.4919776E-2,2.3964692E-2,-3.2344837E-2,1.1493411E-2,-1.7156793E-2,-3.248717E-2],"split_indices":[8,22,8,11,0,8,0,0,0,20,7,0,2,8,2,0,0,0,5,8,0,0,0,0,0,0,0,0,0],"split_type":[0,0,0,0,0,0,0,0,0,0,0,0,0,0,0,0,0,0,0,0,0,0,0,0,0,0,0,0,0],"sum_hessian":[1.1416692E3,4.7284442E2,6.6882477E2,4.6517044E2,7.673992E0,6.314838E2,3.7340977E1,1.0877566E2,3.5639478E2,5.8620703E2,4.5276794E1,1.780698E1,9.096868E1,5.7506006E2,1.1146956E1,1.5076115E1,3.020068E1,7.3657585E1,1.7311092E1,2.0819667E2,3.668634E2,4.4627E0,6.684256E0,9.146519E0,8.164575E0,1.8368158E2,2.4515087E1,3.4578767E0,3.6340552E2],"tree_param":{"num_deleted":"0","num_feature":"26","num_nodes":"29","size_leaf_vector":"1"}},{"base_weights":[3.340734E-2,1.8758596E0,-1.3797773E0,1.9306335E0,-3.2147124E-2,-1.642854E0,1.5303462E0,1.9649523E0,-3.3018526E-2,-1.678682E0,2.5855994E-1,1.7784178E0,8.674689E-1,-3.2946374E-2,3.5717834E-2,-1.5153191E0,-1.7777385E0,-1.9317644E-2,9.981606E-1,3.4104425E-2,1.2405161E0,-5.27525E-3,2.8493464E-2,-1.7308571E0,3.484083E-2,-1.686126E-2,-3.2016855E-2,2.705119E-2,9.271158E-3,1.571377E-2,3.0681018E-2,-3.183791E-2,-2.831511E-2],"categories":[],"categories_nodes":[],"categories_segments":[],"categories_sizes":[],"default_left":[0,0,0,0,0,0,0,0,0,0,0,0,0,0,0,0,0,0,0,0,0,0,0,0,0,0,0,0,0,0,0,0,0],"id":3,"left_children":[1,3,5,7,-1,9,11,13,-1,15,17,19,21,-1,-1,23,25,-1,27,-1,29,-1,-1,31,-1,-1,-1,-1,-1,-1,-1,-1,-1],"loss_changes":[3.020513E3,1.0120264E2,5.0262354E2,6.4241455E1,0E0,4.1037964E1,8.907806E0,5.0641724E1,0E0,9.508789E0,1.0999045E1,2.5812607E0,1.2462387E1,0E0,0E0,1.6634418E2,2.3851318E0,0E0,1.7305388E0,0E0,1.2317905E0,0E0,0E0,1.37146E0,0E0,0E0,0E0,0E0,0E0,0E0,0E0,0E0,0E0],"parents":[2147483647,0,0,1,1,2,2,3,3,5,5,6,6,7,7,9,9,10,10,11,11,12,12,15,15,16,16,18,18,20,20,23,23],"right_children":[2,4,6,8,-1,10,12,14,-1,16,18,20,22,-1,-1,24,26,-1,28,-1,30,-1,-1,32,-1,-1,-1,-1,-1,-1,-1,-1,-1],"split_conditions":[1.2288E4,5E3,8.0896E4,1E0,-3.2147124E-2,1E0,5E-1,3.152E3,-3.3018526E-2,3.7888E4,2.2787945E-3,1.25952E5,1.65E4,-3.2946374E-2,3.5717834E-2,3.3792E4,3E1,-1.9317644E-2,2E0,3.4104425E-2,1E0,-5.27525E-3,2.8493464E-2,8.2E3,3.484083E-2,-1.686126E-2,-3.2016855E-2,2.705119E-2,9.271158E-3,1.571377E-2,3.0681018E-2,-3.183791E-2,-2.831511E-2],"split_indices":[17,7,17,24,0,20,15,7,0,17,2,17,7,0,0,17,0,0,10,0,20,0,0,7,0,0,0,0,0,0,0,0,0],"split_type":[0,0,0,0,0,0,0,0,0,0,0,0,0,0,0,0,0,0,0,0,0,0,0,0,0,0,0,0,0,0,0,0,0],"sum_hessian":[1.1600653E3,5.0355725E2,6.565081E2,4.961549E2,7.4023447E0,6.020854E2,5.4422726E1,4.9168665E2,4.468276E0,5.909579E2,1.1127476E1,3.9583195E1,1.4839529E1,3.4719396E0,4.882147E2,2.231425E2,3.678154E2,3.9578712E0,7.169605E0,3.2158382E1,7.4248133E0,5.6792226E0,9.160306E0,2.1005676E2,1.3085736E1,3.4513295E0,3.6436407E2,3.4612043E0,3.7084005E0,4.2074075E0,3.2174056E0,1.6207816E2,4.797862E1],"tree_param":{"num_deleted":"0","num_feature":"26","num_nodes":"33","size_leaf_vector":"1"}},{"base_weights":[-3.14752E-2,1.8289266E0,-1.373051E0,-3.169468E-2,1.8975414E0,-1.6430751E0,1.5669919E0,3.477904E-2,-3.2581218E-2,-1.6795343E0,2.9216543E-1,6.229364E-1,3.4458715E-2,-1.5064138E0,-1.751154E0,1.6671492E-2,3.1732228E-2,3.2252267E-2,-3.2117486E-2,-3.1720042E-2,3.4005128E-2,-1.2619073E0,-3.1642783E-2,-7.399622E-3,9.671071E-3,-6.7764586E-3,-3.1862717E-2],"categories":[],"categories_nodes":[],"categories_segments":[],"categories_sizes":[],"default_left":[0,0,0,0,0,0,0,0,0,0,0,0,0,0,0,0,0,0,0,0,0,0,0,0,0,0,0],"id":4,"left_children":[1,3,5,-1,7,9,11,-1,-1,13,15,17,-1,19,21,-1,23,-1,-1,-1,-1,25,-1,-1,-1,-1,-1],"loss_changes":[2.816948E3,1.16707886E2,5.206095E2,0E0,7.263684E1,4.239856E1,1.8436768E1,0E0,0E0,7.255493E0,1.8296299E0,4.282356E1,0E0,1.5426831E2,2.7263184E0,0E0,1.7848095E0,0E0,0E0,0E0,0E0,5.1219864E0,0E0,0E0,0E0,0E0,0E0],"parents":[2147483647,0,0,1,1,2,2,4,4,5,5,6,6,9,9,10,10,11,11,13,13,14,14,16,16,21,21],"right_children":[2,4,6,-1,8,10,12,-1,-1,14,16,18,-1,20,22,-1,24,-1,-1,-1,-1,26,-1,-1,-1,-1,-1],"split_conditions":[1.2288E4,1E0,7.8848E4,-3.169468E-2,1E0,1E0,1.65E4,3.477904E-2,-3.2581218E-2,8.71E3,2.694E4,1.54E4,3.4458715E-2,8.2E3,3.2E1,1.6671492E-2,3.186E4,3.2252267E-2,-3.2117486E-2,-3.1720042E-2,3.4005128E-2,1E0,-3.1642783E-2,-7.399622E-3,9.671071E-3,-6.7764586E-3,-3.1862717E-2],"split_indices":[17,19,17,0,24,20,7,0,0,7,5,7,0,7,0,0,5,0,0,0,0,25,0,0,0,0,0],"split_type":[0,0,0,0,0,0,0,0,0,0,0,0,0,0,0,0,0,0,0,0,0,0,0,0,0,0,0],"sum_hessian":[1.1286409E3,4.7287704E2,6.5576385E2,8.8474E0,4.6402963E2,6.006079E2,5.5155922E1,4.588305E2,5.19913E0,5.895095E2,1.10984E1,1.5080179E1,4.007574E1,1.725873E2,4.169222E2,3.2005556E0,7.897845E0,1.0145465E1,4.9347143E0,1.6022571E2,1.236159E1,1.1317265E1,4.0560495E2,4.196405E0,3.7014403E0,4.1787434E0,7.1385207E0],"tree_param":{"num_deleted":"0","num_feature":"26","num_nodes":"27","size_leaf_vector":"1"}},{"base_weights":[-1.9320197E-2,1.7711829E0,-1.2900748E0,-3.1289652E-2,1.8397696E0,-1.5789577E0,1.6027048E0,3.500876E-2,3.2532323E-2,-1.3529308E0,-1.7142586E0,1.0709633E0,3.2025628E-2,-3.0766673E-2,5.67522E-1,-1.2422105E0,-3.1001218E-2,3.2345936E-2,-3.1594716E-2,3.4451444E-2,5.5924464E-2,-3.1539492E-2,-1.0692372E-2,6.296757E-3,-3.34655E-2],"categories":[],"categories_nodes":[],"categories_segments":[],"categories_sizes":[],"default_left":[0,0,0,0,0,0,0,0,0,0,0,0,0,0,0,0,0,0,0,0,0,0,0,0,0],"id":5,"left_children":[1,3,5,-1,7,9,11,-1,-1,13,15,17,-1,-1,19,21,-1,-1,-1,-1,23,-1,-1,-1,-1],"loss_changes":[2.5958462E3,1.1422424E2,5.576527E2,0E0,1.2662354E0,1.8504517E1,5.862625E0,0E0,0E0,1.5842053E2,2.5888672E0,3.2331474E1,0E0,0E0,2.4988062E1,3.8073559E0,0E0,0E0,0E0,0E0,1.4863779E1,0E0,0E0,0E0,0E0],"parents":[2147483647,0,0,1,1,2,2,4,4,5,5,6,6,9,9,10,10,11,11,14,14,15,15,20,20],"right_children":[2,4,6,-1,8,10,12,-1,-1,14,16,18,-1,-1,20,22,-1,-1,-1,-1,24,-1,-1,-1,-1],"split_conditions":[4.9152E7,1E0,7.8848E4,-3.1289652E-2,-2.5881904E-1,3.619876E8,2.097152E9,3.500876E-2,3.2532323E-2,2.770944E8,3.2E1,1.31072E9,3.2025628E-2,-3.0766673E-2,2.82624E8,2.5881904E-1,-3.1001218E-2,3.2345936E-2,-3.1594716E-2,3.4451444E-2,2.5426385E-3,-3.1539492E-2,-1.0692372E-2,6.296757E-3,-3.34655E-2],"split_indices":[8,19,17,0,15,8,8,0,0,8,0,8,0,0,8,16,0,0,0,0,2,0,0,0,0],"split_type":[0,0,0,0,0,0,0,0,0,0,0,0,0,0,0,0,0,0,0,0,0,0,0,0,0],"sum_hessian":[1.1408834E3,4.7358548E2,6.672979E2,9.055592E0,4.6452988E2,6.067154E2,6.0582508E1,8.528026E1,3.792496E2,2.2723811E2,3.794773E2,1.5561806E1,4.5020702E1,1.9112325E2,3.6114876E1,1.1513196E1,3.679641E2,1.236782E1,3.193986E0,9.894595E0,2.622028E1,6.3808694E0,5.1323266E0,2.2737637E1,3.482644E0],"tree_param":{"num_deleted":"0","num_feature":"26","num_nodes":"25","size_leaf_vector":"1"}},{"base_weights":[-2.5163805E-2,1.7717756E0,-1.2843524E0,-3.081636E-2,1.8259567E0,-1.5343785E0,1.4599885E0,1.8701254E0,-3.2586206E-2,-1.2847613E0,-1.6769475E0,9.0026677E-1,3.0844802E-2,-3.4161437E-2,3.402446E-2,-3.0320456E-2,5.50755E-1,-1.6992297E0,-9.928721E-1,3.333249E-2,-3.1281956E-2,3.2351602E-2,7.855515E-2,-1.5496808E0,-3.0886326E-2,-3.0896569E-2,1.9616587E-2,1.461896E-2,-1.1515655E-2,-1.8839452E-2,-2.9661404E-2],"categories":[],"categories_nodes":[],"categories_segments":[],"categories_sizes":[],"default_left":[0,0,0,0,0,0,0,0,0,0,0,0,0,0,0,0,0,0,0,0,0,0,0,0,0,0,0,0,0,0,0],"id":6,"left_children":[1,3,5,-1,7,9,11,13,-1,15,17,19,-1,-1,-1,-1,21,23,25,-1,-1,-1,27,29,-1,-1,-1,-1,-1,-1,-1],"loss_changes":[2.5384353E3,8.742529E1,4.5262476E2,0E0,7.325647E1,2.1466919E1,7.9817047E0,4.664209E1,0E0,1.639367E2,5.8216553E0,4.4397434E1,0E0,0E0,0E0,0E0,2.3550018E1,1.2467041E0,1.855187E1,0E0,0E0,0E0,1.5374916E1,2.5873337E0,0E0,0E0,0E0,0E0,0E0,0E0,0E0],"parents":[2147483647,0,0,1,1,2,2,4,4,5,5,6,6,7,7,9,9,10,10,11,11,16,16,17,17,18,18,22,22,23,23],"right_children":[2,4,6,-1,8,10,12,14,-1,16,18,20,-1,-1,-1,-1,22,24,26,-1,-1,-1,28,30,-1,-1,-1,-1,-1,-1,-1],"split_conditions":[4.9152E7,1E0,8.0896E4,-3.081636E-2,1E0,3.619876E8,1.65E4,2E3,-3.2586206E-2,2.770944E8,6.656E4,1.54E4,3.0844802E-2,-3.4161437E-2,3.402446E-2,-3.0320456E-2,8.71E3,2E0,1E9,3.333249E-2,-3.1281956E-2,3.2351602E-2,1E0,2.694E4,-3.0886326E-2,-3.0896569E-2,1.9616587E-2,1.461896E-2,-1.1515655E-2,-1.8839452E-2,-2.9661404E-2],"split_indices":[8,19,17,0,24,8,7,7,0,8,17,7,0,0,0,0,7,10,8,0,0,0,22,5,0,0,0,0,0,0,0],"split_type":[0,0,0,0,0,0,0,0,0,0,0,0,0,0,0,0,0,0,0,0,0,0,0,0,0,0,0,0,0,0,0],"sum_hessian":[1.1218658E3,4.6222705E2,6.596388E2,7.060024E0,4.5516702E2,6.045656E2,5.5073204E1,4.4972025E2,5.4467793E0,2.1982008E2,3.8474554E2,1.7501732E1,3.7571472E1,3.2429419E0,4.4647733E2,1.7999095E2,3.982913E1,3.725845E2,1.21610365E1,1.2850028E1,4.6517043E0,1.0887751E1,2.8941376E1,5.041184E1,3.2217267E2,9.014071E0,3.146965E0,1.4321807E1,1.461957E1,8.763586E0,4.1648254E1],"tree_param":{"num_deleted":"0","num_feature":"26","num_nodes":"31","size_leaf_vector":"1"}},{"base_weights":[-1.4335633E-2,1.723909E0,-1.3033496E0,-3.0436365E-2,1.7888247E0,-1.5379035E0,1.4222337E0,-3.212606E-2,1.8415014E0,-1.3099715E0,-3.006922E-2,1.5454826E0,8.944921E-3,-2.5762164E-3,3.3274475E-2,-1.5311934E0,3.1464506E-2,3.177196E-2,1.0713066E0,-3.0503152E-2,-1.2943745E0,3.0384809E-2,-2.0859565E-3,2.4873125E-3,-2.7396897E-2],"categories":[],"categories_nodes":[],"categories_segments":[],"categories_sizes":[],"default_left":[0,0,0,0,0,0,0,0,0,0,0,0,0,0,0,0,0,0,0,0,0,0,0,0,0],"id":7,"left_children":[1,3,5,-1,7,9,11,-1,13,15,-1,17,-1,-1,-1,19,-1,-1,21,-1,23,-1,-1,-1,-1],"loss_changes":[2.465546E3,1.0407361E2,4.0394348E2,0E0,8.673743E1,1.839685E1,5.6659775E0,0E0,1.285498E1,1.4952832E2,0E0,4.6958466E0,0E0,0E0,0E0,8.232849E0,0E0,0E0,1.0608036E1,0E0,2.8810852E1,0E0,0E0,0E0,0E0],"parents":[2147483647,0,0,1,1,2,2,4,4,5,5,6,6,8,8,9,9,11,11,15,15,18,18,20,20],"right_children":[2,4,6,-1,8,10,12,-1,14,16,-1,18,-1,-1,-1,20,-1,-1,22,-1,24,-1,-1,-1,-1],"split_conditions":[1.2288E4,1E0,7.8848E4,-3.0436365E-2,0E0,3.7888E4,3.578E4,-3.212606E-2,3.3E2,3.3792E4,-3.006922E-2,1.25952E5,8.944921E-3,-2.5762164E-3,3.3274475E-2,8.1E2,3.1464506E-2,3.177196E-2,2.787E4,-3.0503152E-2,1E0,3.0384809E-2,-2.0859565E-3,2.4873125E-3,-2.7396897E-2],"split_indices":[17,19,17,0,25,17,5,0,13,17,0,17,0,0,0,13,0,0,5,0,22,0,0,0,0],"split_type":[0,0,0,0,0,0,0,0,0,0,0,0,0,0,0,0,0,0,0,0,0,0,0,0,0],"sum_hessian":[1.1003818E3,4.6854013E2,6.3184174E2,8.718941E0,4.598212E2,5.817821E2,5.0059647E1,6.661545E0,4.5315964E2,2.2053493E2,3.6124716E2,4.414937E1,5.9102783E0,3.2249718E0,4.4993466E2,2.0569363E2,1.4841301E1,2.9852976E1,1.4296392E1,1.1969153E2,8.60021E1,9.382931E0,4.9134617E0,1.20449E1,7.39572E1],"tree_param":{"num_deleted":"0","num_feature":"26","num_nodes":"25","size_leaf_vector":"1"}},{"base_weights":[-1.4761811E-2,1.7017728E0,-1.2516047E0,-3.0055916E-2,1.7601396E0,-1.43013E0,1.6450634E0,1.8020935E0,-3.1666383E-2,-1.4705248E0,4.5730633E-1,1.2641301E0,3.1825993E-2,2.6217295E-2,3.258731E-2,-1.5525988E0,-5.0237876E-1,-1.6727716E-2,9.698597E-1,1.2466034E-2,3.0511266E-2,-1.4057157E0,-1.6382453E0,3.3670504E-2,-3.0148935E-2,6.214832E-3,3.263045E-2,-2.983855E-2,4.8778467E-3,-2.9962072E-2,-2.3740208E-2],"categories":[],"categories_nodes":[],"categories_segments":[],"categories_sizes":[],"default_left":[0,0,0,0,0,0,0,0,0,0,0,0,0,0,0,0,0,0,0,0,0,0,0,0,0,0,0,0,0,0,0],"id":8,"left_children":[1,3,5,-1,7,9,11,13,-1,15,17,19,-1,-1,-1,21,23,-1,25,-1,-1,27,29,-1,-1,-1,-1,-1,-1,-1,-1],"loss_changes":[2.373827E3,9.233069E1,3.360647E2,0E0,6.81051E1,4.66875E1,1.8173828E0,2.3188477E0,0E0,4.7590576E1,9.138933E0,2.359686E0,0E0,0E0,0E0,6.9003906E0,1.315E2,0E0,4.934494E0,0E0,0E0,8.8282196E1,3.544983E0,0E0,0E0,0E0,0E0,0E0,0E0,0E0,0E0],"parents":[2147483647,0,0,1,1,2,2,4,4,5,5,6,6,7,7,9,9,10,10,11,11,15,15,16,16,18,18,21,21,22,22],"right_children":[2,4,6,-1,8,10,12,14,-1,16,18,20,-1,-1,-1,22,24,-1,26,-1,-1,28,30,-1,-1,-1,-1,-1,-1,-1,-1],"split_conditions":[4.9152E7,1E0,2.2550528E9,-3.0055916E-2,1E0,1E0,7.4074075E-2,3.5714287E-2,-3.1666383E-2,1.2296192E9,-7.0710677E-1,4.3442803E-3,3.1825993E-2,2.6217295E-2,3.258731E-2,3.619876E8,1.31072E9,-1.6727716E-2,4.4700354E-3,1.2466034E-2,3.0511266E-2,2.770944E8,9.304064E8,3.3670504E-2,-3.0148935E-2,6.214832E-3,3.263045E-2,-2.983855E-2,4.8778467E-3,-2.9962072E-2,-2.3740208E-2],"split_indices":[8,19,8,0,24,20,23,23,0,8,16,1,0,0,0,8,8,0,1,0,0,8,8,0,0,0,0,0,0,0,0],"split_type":[0,0,0,0,0,0,0,0,0,0,0,0,0,0,0,0,0,0,0,0,0,0,0,0,0,0,0,0,0,0,0],"sum_hessian":[1.118101E3,4.6824344E2,6.4985754E2,7.9476166E0,4.602958E2,6.12137E2,3.7720478E1,4.5488907E2,5.4067597E0,5.9931866E2,1.2818414E1,9.628195E0,2.8092283E1,1.9699871E1,4.3518918E2,5.524671E2,4.685152E1,3.4447868E0,9.373628E0,4.203008E0,5.425187E0,2.0356622E2,3.4890088E2,1.5515695E1,3.1335827E1,5.420031E0,3.9535966E0,1.7640373E2,2.7162493E1,3.1588922E2,3.3011665E1],"tree_param":{"num_deleted":"0","num_feature":"26","num_nodes":"31","size_leaf_vector":"1"}},{"base_weights":[-1.1095507E-2,1.6821636E0,-1.3263832E0,1.7214046E0,-3.1166479E-2,-1.5141183E0,1.3403366E0,7.248261E-1,1.7813277E0,-1.3180655E0,-2.926793E-2,1.5425398E0,8.4925675E-1,-3.060613E-2,3.2011922E-2,1.5257539E0,3.22258E-2,-2.9768527E-2,-9.9231344E-1,3.0750655E-2,9.668214E-1,2.855085E-2,-3.2870846E-3,2.9864134E-2,1.3385508E-2,-7.079662E-1,-3.0012641E-2,2.8510071E-2,7.550993E-3,-2.0121643E-2,-1.8052033E-3],"categories":[],"categories_nodes":[],"categories_segments":[],"categories_sizes":[],"default_left":[0,0,0,0,0,0,0,0,0,0,0,0,0,0,0,0,0,0,0,0,0,0,0,0,0,0,0,0,0,0,0],"id":9,"left_children":[1,3,5,7,-1,9,11,13,15,17,-1,19,21,-1,-1,23,-1,-1,25,-1,27,-1,-1,-1,-1,29,-1,-1,-1,-1,-1],"loss_changes":[2.527553E3,6.660095E1,3.197871E2,2.9254395E1,0E0,1.3779785E1,4.1334E0,7.180821E1,1.8310547E0,2.498117E1,0E0,2.9092026E0,9.441633E0,0E0,0E0,2.9307861E0,0E0,0E0,2.2256409E1,0E0,2.3087964E0,0E0,0E0,0E0,0E0,2.0407383E1,0E0,0E0,0E0,0E0,0E0],"parents":[2147483647,0,0,1,1,2,2,3,3,5,5,6,6,7,7,8,8,9,9,11,11,12,12,15,15,18,18,20,20,25,25],"right_children":[2,4,6,8,-1,10,12,14,16,18,-1,20,22,-1,-1,24,-1,-1,26,-1,28,-1,-1,-1,-1,30,-1,-1,-1,-1,-1],"split_conditions":[1.2288E4,1E0,7.8848E4,4.7E2,-3.1166479E-2,2E0,5E-1,1.024E4,3.5714287E-2,8.1E2,-2.926793E-2,1.25952E5,1E0,-3.060613E-2,3.2011922E-2,6.144E3,3.22258E-2,-2.9768527E-2,1E0,3.0750655E-2,2.1293766E-3,2.855085E-2,-3.2870846E-3,2.9864134E-2,1.3385508E-2,3.3792E4,-3.0012641E-2,2.8510071E-2,7.550993E-3,-2.0121643E-2,-1.8052033E-3],"split_indices":[17,24,17,13,0,25,15,17,23,13,0,17,25,0,0,17,0,0,24,0,2,0,0,0,0,17,0,0,0,0,0],"split_type":[0,0,0,0,0,0,0,0,0,0,0,0,0,0,0,0,0,0,0,0,0,0,0,0,0,0,0,0,0,0,0],"sum_hessian":[1.134893E3,4.9615164E2,6.387413E2,4.9052945E2,5.622201E0,5.967379E2,4.2003384E1,2.7837616E1,4.6269183E2,2.2450195E2,3.7223593E2,2.9727932E1,1.2275453E1,8.448996E0,1.938862E1,2.7246424E1,4.354454E2,1.0946561E2,1.1503635E2,2.285203E1,6.8759027E0,7.1456676E0,5.129785E0,2.3083359E1,4.163066E0,8.118927E1,3.3847076E1,3.1952708E0,3.6806319E0,4.8250576E1,3.2938694E1],"tree_param":{"num_deleted":"0","num_feature":"26","num_nodes":"31","size_leaf_vector":"1"}},{"base_weights":[-2.8366467E-2,1.6654805E0,-1.3046952E0,1.7205781E0,-2.9510314E-2,-1.4509302E0,2.818749E-2,1.7537624E0,-3.0805103E-2,-1.2163936E0,-1.5969275E0,-1.0088977E-2,3.183477E-2,-1.3639274E0,3.3635968E-1,-1.428439E0,-2.9284101E-2,-2.9494401E-2,-1.0294404E0,1.5436198E0,-2.9615963E-2,-2.9445436E-2,-4.765426E-1,3.2529313E-2,-2.3931202E-2,3.323618E-2,1.1848981E-2,-5.0673354E-4,-3.0631509E-2],"categories":[],"categories_nodes":[],"categories_segments":[],"categories_sizes":[],"default_left":[0,0,0,0,0,0,0,0,0,0,0,0,0,0,0,0,0,0,0,0,0,0,0,0,0,0,0,0,0],"id":10,"left_children":[1,3,5,7,-1,9,-1,11,-1,13,15,-1,-1,17,19,21,-1,-1,23,25,-1,-1,27,-1,-1,-1,-1,-1,-1],"loss_changes":[2.3483418E3,8.516846E1,2.606046E2,5.239978E1,0E0,2.014038E1,0E0,2.288562E1,0E0,5.1839905E1,2.1711426E0,0E0,0E0,1.9377045E1,4.7103516E1,1.3086105E1,0E0,0E0,8.1900314E1,3.303648E0,0E0,0E0,6.512501E0,0E0,0E0,0E0,0E0,0E0,0E0],"parents":[2147483647,0,0,1,1,2,2,3,3,5,5,7,7,9,9,10,10,13,13,14,14,15,15,18,18,19,19,22,22],"right_children":[2,4,6,8,-1,10,-1,12,-1,14,16,-1,-1,18,20,22,-1,-1,24,26,-1,-1,28,-1,-1,-1,-1,-1,-1],"split_conditions":[4.9152E7,1E0,2.097152E9,1E0,-2.9510314E-2,2E0,2.818749E-2,3.3E2,-3.0805103E-2,1.078272E9,3.619876E8,-1.0088977E-2,3.183477E-2,2.661376E8,1.64E4,2.62144E8,-2.9284101E-2,-2.9494401E-2,8.71E3,2.352881E-3,-2.9615963E-2,-2.9445436E-2,2.3036888E-3,3.2529313E-2,-2.3931202E-2,3.323618E-2,1.1848981E-2,-5.0673354E-4,-3.0631509E-2],"split_indices":[8,22,8,24,0,25,0,13,0,8,8,0,0,8,7,8,0,0,7,2,0,0,2,0,0,0,0,0,0],"split_type":[0,0,0,0,0,0,0,0,0,0,0,0,0,0,0,0,0,0,0,0,0,0,0,0,0,0,0,0,0],"sum_hessian":[1.086234E3,4.6676578E2,6.194682E2,4.591318E2,7.6339707E0,5.895078E2,2.9960382E1,4.5474875E2,4.383052E0,2.2622034E2,3.632875E2,4.214947E0,4.5053378E2,2.0659991E2,1.9620417E1,6.446489E1,2.988226E2,1.1224506E2,9.435485E1,1.2212304E1,7.408112E0,5.262875E1,1.1836141E1,9.14041E0,8.521444E1,9.024136E0,3.1881685E0,8.688582E0,3.1475585E0],"tree_param":{"num_deleted":"0","num_feature":"26","num_nodes":"29","size_leaf_vector":"1"}},{"base_weights":[1.476692E-2,1.6361153E0,-1.1806715E0,-2.91948E-2,1.6999857E0,-1.434433E0,1.3661957E0,-3.38274E-2,1.7273704E0,-1.501838E0,8.6870325E-1,2.9327974E-2,1.0229537E0,-3.0384658E-2,3.1497624E-2,-1.3418381E0,-1.5994081E0,-9.414149E-2,2.8011357E-2,-2.1249102E-3,1.4029286E0,-1.5326979E0,3.4126215E-2,-9.1287386E-1,-2.9119687E-2,-1.7655231E-2,1.6619975E-2,9.140053E-3,2.863612E-2,-2.853514E-2,-2.5079157E-2,-2.919456E-2,3.8167805E-4],"categories":[],"categories_nodes":[],"categories_segments":[],"categories_sizes":[],"default_left":[0,0,0,0,0,0,0,0,0,0,0,0,0,0,0,0,0,0,0,0,0,0,0,0,0,0,0,0,0,0,0,0,0],"id":11,"left_children":[1,3,5,-1,7,9,11,-1,13,15,17,-1,19,-1,-1,21,23,25,-1,-1,27,29,-1,31,-1,-1,-1,-1,-1,-1,-1,-1,-1],"loss_changes":[2.1448123E3,9.792554E1,4.116632E2,0E0,4.5248535E1,8.993555E1,5.2951202E0,0E0,4.5836426E1,8.737793E0,1.1016742E1,0E0,1.1040161E1,0E0,0E0,1.3208606E2,5.871521E0,6.266653E0,0E0,0E0,3.2752914E0,1.5367737E0,0E0,8.131942E0,0E0,0E0,0E0,0E0,0E0,0E0,0E0,0E0,0E0],"parents":[2147483647,0,0,1,1,2,2,4,4,5,5,6,6,8,8,9,9,10,10,12,12,15,15,16,16,17,17,20,20,21,21,23,23],"right_children":[2,4,6,-1,8,10,12,-1,14,16,18,-1,20,-1,-1,22,24,26,-1,-1,28,30,-1,32,-1,-1,-1,-1,-1,-1,-1,-1,-1],"split_conditions":[1.2288E4,1E0,8.0896E4,-2.91948E-2,5.6E3,1E0,1.390425E6,-3.38274E-2,0E0,3.7888E4,5E-1,2.9327974E-2,1.531959E6,-3.0384658E-2,3.1497624E-2,3.3792E4,3.3E1,1.499439E6,2.8011357E-2,-2.1249102E-3,9.3184E4,3E0,3.4126215E-2,1.2246469E-16,-2.9119687E-2,-1.7655231E-2,1.6619975E-2,9.140053E-3,2.863612E-2,-2.853514E-2,-2.5079157E-2,-2.919456E-2,3.8167805E-4],"split_indices":[17,19,17,0,17,20,6,0,25,17,15,0,6,0,0,17,0,6,0,0,17,25,0,16,0,0,0,0,0,0,0,0,0],"split_type":[0,0,0,0,0,0,0,0,0,0,0,0,0,0,0,0,0,0,0,0,0,0,0,0,0,0,0,0,0,0,0,0,0],"sum_hessian":[1.1065786E3,4.6963425E2,6.3694434E2,9.006971E0,4.606273E2,5.7923773E2,5.7706577E1,3.4850264E0,4.5714224E2,5.627744E2,1.6463335E1,3.2298477E1,2.54081E1,3.8748877E0,4.5326736E2,2.1325533E2,3.4951907E2,6.8856096E0,9.577726E0,6.336683E0,1.9071417E1,2.01415E2,1.1840325E1,1.2131832E1,3.3738724E2,3.6854439E0,3.2001657E0,3.4201944E0,1.5651222E1,1.3993196E2,6.1483044E1,6.8780985E0,5.253734E0],"tree_param":{"num_deleted":"0","num_feature":"26","num_nodes":"33","size_leaf_vector":"1"}},{"base_weights":[2.9002568E-3,1.6251566E0,-1.200776E0,-2.8939078E-2,1.6775309E0,-1.4501979E0,1.4946827E0,-3.0047206E-2,3.0833071E-2,-1.2381284E0,-1.575521E0,1.0158901E0,1.6477205E0,-1.4163079E0,3.2153495E-2,-2.8515352E-2,-1.1537336E0,3.176405E-2,7.342596E-3,1.2836776E0,3.101753E-2,-1.5699589E0,-9.5296794E-1,4.359871E-3,-2.8940259E-2,1.4521946E-2,3.2057744E-2,-2.882767E-2,-1.2963928E-2,-1.2142314E-2,-2.8904019E-2],"categories":[],"categories_nodes":[],"categories_segments":[],"categories_sizes":[],"default_left":[0,0,0,0,0,0,0,0,0,0,0,0,0,0,0,0,0,0,0,0,0,0,0,0,0,0,0,0,0,0,0],"id":12,"left_children":[1,3,5,-1,7,9,11,-1,-1,13,15,17,19,21,-1,-1,23,-1,-1,25,-1,27,29,-1,-1,-1,-1,-1,-1,-1,-1],"loss_changes":[2.175381E3,8.0509766E1,4.2996393E2,0E0,6.5889404E1,1.5511963E1,3.9260788E0,0E0,0E0,1.1747269E2,2.25531E0,5.991605E0,1.1778641E0,1.4584259E1,0E0,0E0,8.076838E0,0E0,0E0,1.7734795E0,0E0,4.9012756E0,9.26738E0,0E0,0E0,0E0,0E0,0E0,0E0,0E0,0E0],"parents":[2147483647,0,0,1,1,2,2,4,4,5,5,6,6,9,9,10,10,11,11,12,12,13,13,16,16,19,19,21,21,22,22],"right_children":[2,4,6,-1,8,10,12,-1,-1,14,16,18,20,22,-1,-1,24,-1,-1,26,-1,28,30,-1,-1,-1,-1,-1,-1,-1,-1],"split_conditions":[1.2288E4,1E0,8.0896E4,-2.8939078E-2,0E0,3.7888E4,1.65E4,-3.0047206E-2,3.0833071E-2,3.3792E4,6.656E4,2.0010688E-3,9.52381E-2,8.2E3,3.2153495E-2,-2.8515352E-2,1E0,3.176405E-2,7.342596E-3,2.5030847E-3,3.101753E-2,3.2768E4,3E4,4.359871E-3,-2.8940259E-2,1.4521946E-2,3.2057744E-2,-2.882767E-2,-1.2963928E-2,-1.2142314E-2,-2.8904019E-2],"split_indices":[17,19,17,0,25,17,7,0,0,17,17,2,23,7,0,0,25,0,0,2,0,17,17,0,0,0,0,0,0,0,0],"split_type":[0,0,0,0,0,0,0,0,0,0,0,0,0,0,0,0,0,0,0,0,0,0,0,0,0,0,0,0,0,0,0],"sum_hessian":[1.1140452E3,4.7452045E2,6.395247E2,7.5449224E0,4.6697552E2,5.8536505E2,5.415971E1,5.780709E0,4.6119482E2,2.174847E2,3.6788034E2,1.3145841E1,4.1013866E1,2.0541676E2,1.2067927E1,3.5535388E2,1.25264635E1,5.8398423E0,7.3059983E0,7.5929966E0,3.342087E1,1.5423325E2,5.118352E1,3.0973036E0,9.42916E0,3.9329913E0,3.6600053E0,1.4762532E2,6.607924E0,3.610346E1,1.5080066E1],"tree_param":{"num_deleted":"0","num_feature":"26","num_nodes":"31","size_leaf_vector":"1"}},{"base_weights":[-2.223623E-2,8.2332015E-1,-1.1756499E0,9.618322E-1,-2.8692044E-2,-6.65482E-1,-1.3034488E0,-8.6155884E-2,1.1801766E0,-5.729172E-1,-2.8467307E-2,-1.219454E0,-1.5224427E0,2.4947103E-2,-1.5951058E-1,7.350541E-1,1.2732123E0,-7.4604046E-1,-2.8449439E-2,-1.1824564E0,-2.8667167E-2,-2.8190095E-2,-1.2163229E0,-4.2055595E-1,3.3534452E-1,9.1861255E-2,1.0128717E0,1.0152442E0,1.3237059E0,-9.4702715E-1,-3.7317383E-1,1.0419251E-2,-6.337732E-1,-1.3829769E0,-1.0977775E0,-2.8633691E-2,-5.5964286E-3,-3.463976E-3,-1.7137501E-2,-1.0699438E-2,1.256067E-2,1.1006411E-2,-1.2094918E-2,1.31858485E-2,2.3224508E-2,2.064273E-2,1.6162187E-3,1.986838E-2,2.4728939E-2,-2.5842134E-2,-1.1262645E-2,-1.8325206E-2,1.4005046E-4,-3.5624336E-3,-2.950607E-2,-1.6456835E-2,-2.7048845E-2,-2.1719264E-2,-1.6587349E-2],"categories":[],"categories_nodes":[],"categories_segments":[],"categories_sizes":[],"default_left":[0,0,0,0,0,0,0,0,0,0,0,0,0,0,0,0,0,0,0,0,0,0,0,0,0,0,0,0,0,0,0,0,0,0,0,0,0,0,0,0,0,0,0,0,0,0,0,0,0,0,0,0,0,0,0,0,0,0,0],"id":13,"left_children":[1,3,5,7,-1,9,11,13,15,17,-1,19,21,-1,23,25,27,29,31,33,-1,-1,35,37,39,41,43,45,47,49,51,-1,53,55,57,-1,-1,-1,-1,-1,-1,-1,-1,-1,-1,-1,-1,-1,-1,-1,-1,-1,-1,-1,-1,-1,-1,-1,-1],"loss_changes":[1.0619879E3,2.1090503E2,3.0000793E1,1.3601294E2,0E0,7.8453712E0,6.730713E0,1.1088584E1,2.0338135E1,7.897026E0,0E0,3.6923218E0,1.5093079E0,0E0,1.2613794E1,1.5184498E1,5.261841E0,4.749176E0,7.4783974E0,4.0806885E0,0E0,0E0,4.899637E0,7.7635946E0,1.1473043E1,1.0272913E1,4.62212E0,8.369286E0,4.028015E0,6.4804916E0,5.5314007E0,0E0,4.4543495E0,4.1664276E0,3.3124542E0,0E0,0E0,0E0,0E0,0E0,0E0,0E0,0E0,0E0,0E0,0E0,0E0,0E0,0E0,0E0,0E0,0E0,0E0,0E0,0E0,0E0,0E0,0E0,0E0],"parents":[2147483647,0,0,1,1,2,2,3,3,5,5,6,6,7,7,8,8,9,9,11,11,12,12,14,14,15,15,16,16,17,17,18,18,19,19,22,22,23,23,24,24,25,25,26,26,27,27,28,28,29,29,30,30,32,32,33,33,34,34],"right_children":[2,4,6,8,-1,10,12,14,16,18,-1,20,22,-1,24,26,28,30,32,34,-1,-1,36,38,40,42,44,46,48,50,52,-1,54,56,58,-1,-1,-1,-1,-1,-1,-1,-1,-1,-1,-1,-1,-1,-1,-1,-1,-1,-1,-1,-1,-1,-1,-1,-1],"split_conditions":[1E0,1E0,-2.5881904E-1,1.0344828E-1,-2.8692044E-2,1E0,4.4E1,2.291E4,2.0689656E-1,3.305E4,-2.8467307E-2,1E0,3.2258064E-1,2.4947103E-2,4.5454547E-2,-1.8369701E-16,-5E-1,7.818315E-1,-7.0710677E-1,2E0,-2.8667167E-2,-2.8190095E-2,4.838504E-3,5E0,6.123234E-17,2.967E4,3.9760666E-3,3.196E4,3.4593751E-3,2.684E4,1.6E-1,1.0419251E-2,4.5E1,2.5881904E-1,4E1,-2.8633691E-2,-5.5964286E-3,-3.463976E-3,-1.7137501E-2,-1.0699438E-2,1.256067E-2,1.1006411E-2,-1.2094918E-2,1.31858485E-2,2.3224508E-2,2.064273E-2,1.6162187E-3,1.986838E-2,2.4728939E-2,-2.5842134E-2,-1.1262645E-2,-1.8325206E-2,1.4005046E-4,-3.5624336E-3,-2.950607E-2,-1.6456835E-2,-2.7048845E-2,-2.1719264E-2,-1.6587349E-2],"split_indices":[22,24,15,23,0,24,0,5,23,5,0,24,23,0,23,15,15,12,15,9,0,0,1,9,15,5,1,5,1,5,23,0,0,15,0,0,0,0,0,0,0,0,0,0,0,0,0,0,0,0,0,0,0,0,0,0,0,0,0],"split_type":[0,0,0,0,0,0,0,0,0,0,0,0,0,0,0,0,0,0,0,0,0,0,0,0,0,0,0,0,0,0,0,0,0,0,0,0,0,0,0,0,0,0,0,0,0,0,0,0,0,0,0,0,0,0,0,0,0,0,0],"sum_hessian":[1.0888994E3,6.282926E2,4.606068E2,5.9433203E2,3.3960552E1,9.229552E1,3.683113E2,1.0246533E2,4.918667E2,8.389441E1,8.401106E0,2.662679E2,1.0204339E2,4.8350735E0,9.7630264E1,8.506359E1,4.0680313E2,6.36337E1,2.026071E1,2.4265132E2,2.3616598E1,8.772624E1,1.4317147E1,6.393344E1,3.3696823E1,2.5675552E1,5.938804E1,6.664725E1,3.4015588E2,4.1318993E1,2.2314709E1,1.008345E1,1.01772585E1,7.198341E1,1.7066791E2,1.0063228E1,4.2539196E0,4.4893116E1,1.9040321E1,9.474314E0,2.422251E1,1.5284728E1,1.0390825E1,2.9984985E1,2.9403051E1,5.8089565E1,8.557682E0,6.96576E1,2.7049826E2,1.6183437E1,2.5135553E1,8.26746E0,1.404725E1,7.129068E0,3.0481906E0,1.5330802E1,5.6652615E1,1.0290742E2,6.776049E1],"tree_param":{"num_deleted":"0","num_feature":"26","num_nodes":"59","size_leaf_vector":"1"}},{"base_weights":[-4.9942685E-3,1.5787507E0,-1.1847498E0,1.6262608E0,-2.83048E-2,-1.4022672E0,1.447899E0,2.9889999E-2,-2.936026E-2,-1.1779326E0,-1.5318509E0,1.5783386E0,7.955883E-1,-2.7917348E-2,5.7146454E-1,-2.7864533E-2,-9.0354675E-1,3.1211887E-2,1.0863193E0,-7.0450776E-3,3.209341E-2,3.0656066E-2,-2.1482715E-2,1.4748087E-2,-2.8397188E-2,3.2032385E-2,-4.6793045E-3,1.2553052E-2,-1.1567089E-2],"categories":[],"categories_nodes":[],"categories_segments":[],"categories_sizes":[],"default_left":[0,0,0,0,0,0,0,0,0,0,0,0,0,0,0,0,0,0,0,0,0,0,0,0,0,0,0,0,0],"id":14,"left_children":[1,3,5,7,-1,9,11,-1,-1,13,15,17,19,-1,21,-1,23,-1,25,-1,-1,-1,27,-1,-1,-1,-1,-1,-1],"loss_changes":[2.0601348E3,7.061572E1,3.6186078E2,6.1675537E1,0E0,1.6924194E1,4.0657043E0,0E0,0E0,1.4176602E2,5.1190186E0,3.1636124E0,9.546005E0,0E0,2.5714859E1,0E0,1.4864894E1,0E0,9.452473E0,0E0,0E0,0E0,1.1260103E1,0E0,0E0,0E0,0E0,0E0,0E0],"parents":[2147483647,0,0,1,1,2,2,3,3,5,5,6,6,9,9,10,10,11,11,12,12,14,14,16,16,18,18,22,22],"right_children":[2,4,6,8,-1,10,12,-1,-1,14,16,18,20,-1,22,-1,24,-1,26,-1,-1,-1,28,-1,-1,-1,-1,-1,-1],"split_conditions":[4.9152E7,1E0,8.0896E4,1E0,-2.83048E-2,3.619876E8,3.503E4,2.9889999E-2,-2.936026E-2,2.770944E8,6.656E4,1.25952E5,4.2534912E9,-2.7917348E-2,8.71E3,-2.7864533E-2,1E0,3.1211887E-2,2.936E4,-7.0450776E-3,3.209341E-2,3.0656066E-2,1E0,1.4748087E-2,-2.8397188E-2,3.2032385E-2,-4.6793045E-3,1.2553052E-2,-1.1567089E-2],"split_indices":[8,22,17,24,0,8,5,0,0,8,17,17,8,0,7,0,25,0,5,0,0,0,22,0,0,0,0,0,0],"split_type":[0,0,0,0,0,0,0,0,0,0,0,0,0,0,0,0,0,0,0,0,0,0,0,0,0,0,0,0,0],"sum_hessian":[1.1025985E3,4.7070056E2,6.318979E2,4.637285E2,6.972081E0,5.8367926E2,4.8218655E1,4.5801617E2,5.7123137E0,2.1375885E2,3.699204E2,4.0161903E1,8.056749E0,1.7569751E2,3.8061344E1,3.5727448E2,1.2645925E1,3.0168772E1,9.993133E0,3.66419E0,4.392559E0,1.3042652E1,2.5018692E1,3.5686464E0,9.077278E0,6.5821714E0,3.4109612E0,1.1587686E1,1.3431007E1],"tree_param":{"num_deleted":"0","num_feature":"26","num_nodes":"29","size_leaf_vector":"1"}},{"base_weights":[-5.1677492E-3,1.551576E0,-1.1812096E0,1.6067597E0,-2.7996792E-2,-1.394882E0,1.2617818E0,-1.958607E-2,2.9145556E-2,-1.4412106E0,4.4114956E-1,1.4846504E0,8.717959E-1,-1.2699863E0,-1.5385101E0,2.1257704E-2,1.5660219E-1,2.8814588E-2,1.1122437E0,-3.0229393E-2,1.4457494E0,-2.751921E-2,3.173586E-2,-9.812108E-1,-2.7857795E-2,-1.7604742E-2,7.874453E-1,7.5519728E-3,2.8935373E-2,1.1838682E0,3.1956133E-2,-2.8250098E-2,-5.363135E-3,3.2022074E-2,-2.4253342E-3,1.3470247E-2,3.1530786E-2],"categories":[],"categories_nodes":[],"categories_segments":[],"categories_sizes":[],"default_left":[0,0,0,0,0,0,0,0,0,0,0,0,0,0,0,0,0,0,0,0,0,0,0,0,0,0,0,0,0,0,0,0,0,0,0,0,0],"id":15,"left_children":[1,3,5,7,-1,9,11,-1,-1,13,15,17,19,21,23,-1,25,-1,27,-1,29,-1,-1,31,-1,-1,33,-1,-1,35,-1,-1,-1,-1,-1,-1,-1],"loss_changes":[2.0279436E3,8.189514E1,3.2939075E2,2.368872E1,0E0,4.9373657E1,4.373535E0,0E0,0E0,9.384033E0,3.0042865E0,1.4267807E0,2.7138607E1,1.651464E2,3.0076294E0,0E0,7.4289455E0,0E0,2.7480135E0,0E0,1.2827473E0,0E0,0E0,3.8582287E0,0E0,0E0,6.165693E0,0E0,0E0,2.0798445E0,0E0,0E0,0E0,0E0,0E0,0E0,0E0],"parents":[2147483647,0,0,1,1,2,2,3,3,5,5,6,6,9,9,10,10,11,11,12,12,13,13,14,14,16,16,18,18,20,20,23,23,26,26,29,29],"right_children":[2,4,6,8,-1,10,12,-1,-1,14,16,18,20,22,24,-1,26,-1,28,-1,30,-1,-1,32,-1,-1,34,-1,-1,36,-1,-1,-1,-1,-1,-1,-1],"split_conditions":[1.2288E4,1E0,7.8848E4,3.3E2,-2.7996792E-2,1E0,1.25952E5,-1.958607E-2,2.9145556E-2,3.7888E4,1.812558E-3,6.234898E-1,1.31072E5,3.3792E4,3.2E1,2.1257704E-2,2.2787945E-3,2.8814588E-2,2.5030847E-3,-3.0229393E-2,3.8613381E-3,-2.751921E-2,3.173586E-2,2.5881904E-1,-2.7857795E-2,-1.7604742E-2,2.4894155E-3,7.5519728E-3,2.8935373E-2,9.749279E-1,3.1956133E-2,-2.8250098E-2,-5.363135E-3,3.2022074E-2,-2.4253342E-3,1.3470247E-2,3.1530786E-2],"split_indices":[17,22,17,13,0,20,17,0,0,17,2,11,17,17,0,0,2,0,2,0,1,0,0,16,0,0,2,0,0,12,0,0,0,0,0,0,0],"split_type":[0,0,0,0,0,0,0,0,0,0,0,0,0,0,0,0,0,0,0,0,0,0,0,0,0,0,0,0,0,0,0,0,0,0,0,0,0],"sum_hessian":[1.1076816E3,4.7668015E2,6.310015E2,4.683831E2,8.297055E0,5.8025726E2,5.074428E1,3.2211666E0,4.6516193E2,5.6598413E2,1.4273149E1,3.2262627E1,1.8481657E1,2.0515111E2,3.60833E2,3.9307842E0,1.0342364E1,2.4247246E1,8.015379E0,3.381665E0,1.5099993E1,1.8871858E2,1.6432524E1,9.583641E0,3.5124936E2,3.6789834E0,6.663381E0,3.3848236E0,4.6305556E0,8.522131E0,6.577862E0,5.108206E0,4.4754353E0,3.20652E0,3.456861E0,4.8796725E0,3.6424584E0],"tree_param":{"num_deleted":"0","num_feature":"26","num_nodes":"37","size_leaf_vector":"1"}},{"base_weights":[6.327825E-3,1.5366868E0,-1.1333606E0,-2.9303389E-2,1.5824802E0,-1.3457378E0,1.3289783E0,2.9192496E-2,-2.7687857E-2,-1.4045732E0,6.5909415E-1,6.1017174E-1,2.8194195E-2,-1.2273525E0,-2.7196996E-2,-5.502262E-3,1.1988734E0,1.1025527E0,-1.019279E-4,-2.7846074E-2,-9.5347255E-1,1.3674877E-2,3.4728736E-2,3.1100726E-2,7.621258E-3,3.1079696E-2,-2.4039349E-2],"categories":[],"categories_nodes":[],"categories_segments":[],"categories_sizes":[],"default_left":[0,0,0,0,0,0,0,0,0,0,0,0,0,0,0,0,0,0,0,0,0,0,0,0,0,0,0],"id":16,"left_children":[1,3,5,-1,7,9,11,-1,-1,13,15,17,-1,19,-1,-1,21,23,-1,-1,25,-1,-1,-1,-1,-1,-1],"loss_changes":[1.9113961E3,6.793286E1,3.2847565E2,0E0,6.579016E1,6.82207E1,8.6931E0,0E0,0E0,1.1130249E1,8.606995E0,3.8474545E0,0E0,1.9394592E1,0E0,0E0,3.364252E0,2.9793043E0,0E0,0E0,1.2317513E2,0E0,0E0,0E0,0E0,0E0,0E0],"parents":[2147483647,0,0,1,1,2,2,4,4,5,5,6,6,9,9,10,10,11,11,13,13,16,16,17,17,20,20],"right_children":[2,4,6,-1,8,10,12,-1,-1,14,16,18,-1,20,-1,-1,22,24,-1,-1,26,-1,-1,-1,-1,-1,-1],"split_conditions":[1.2288E4,0E0,7.8848E4,-2.9303389E-2,1E0,1E0,1E-1,2.9192496E-2,-2.7687857E-2,2E0,4.2E1,1.25952E5,2.8194195E-2,8.2E3,-2.7196996E-2,-5.502262E-3,2E0,4.2848447E-3,-1.019279E-4,-2.7846074E-2,8.71E3,1.3674877E-2,3.4728736E-2,3.1100726E-2,7.621258E-3,3.1079696E-2,-2.4039349E-2],"split_indices":[17,25,17,0,22,20,23,0,0,25,0,17,0,7,0,0,9,1,0,0,7,0,0,0,0,0,0],"split_type":[0,0,0,0,0,0,0,0,0,0,0,0,0,0,0,0,0,0,0,0,0,0,0,0,0,0,0],"sum_hessian":[1.0958921E3,4.6777774E2,6.281143E2,6.6534348E0,4.611243E2,5.7824744E2,4.986692E1,4.5449802E2,6.6262774E0,5.617692E2,1.6478186E1,1.2633555E1,3.7233364E1,2.1789153E2,3.438777E2,5.8980455E0,1.058014E1,7.032261E0,5.601294E0,9.9506714E1,1.1838482E2,6.6653414E0,3.9147992E0,3.6252756E0,3.4069853E0,1.4906902E1,1.0347791E2],"tree_param":{"num_deleted":"0","num_feature":"26","num_nodes":"27","size_leaf_vector":"1"}},{"base_weights":[-3.8071448E-4,1.4909222E0,-1.1096636E0,-2.7519135E-2,1.5616444E0,-1.3352197E0,1.2670965E0,2.8718393E-2,-2.901635E-2,-1.3943568E0,7.2700816E-1,5.9606975E-1,2.7269099E-2,-1.2126848E0,-1.5072349E0,-2.7596976E-3,1.1767136E0,2.7576147E-2,-3.0397505E-2,-1.4068354E0,2.9328203E-2,-2.731017E-2,-1.0631739E0,3.5150535E-2,1.0032169E-2,-2.0006426E-2,-2.677793E-2,1.8193321E-3,-2.7712066E-2],"categories":[],"categories_nodes":[],"categories_segments":[],"categories_sizes":[],"default_left":[0,0,0,0,0,0,0,0,0,0,0,0,0,0,0,0,0,0,0,0,0,0,0,0,0,0,0,0,0],"id":17,"left_children":[1,3,5,-1,7,9,11,-1,-1,13,15,17,-1,19,21,-1,23,-1,-1,25,-1,-1,27,-1,-1,-1,-1,-1,-1],"loss_changes":[1.8134932E3,1.00066284E2,3.370191E2,0E0,5.815503E1,7.003412E1,9.244041E0,0E0,0E0,1.1402344E1,6.353984E0,3.231206E1,0E0,1.1832776E2,2.3875122E0,0E0,5.0902367E0,0E0,0E0,5.007538E0,0E0,0E0,6.7241774E0,0E0,0E0,0E0,0E0,0E0,0E0],"parents":[2147483647,0,0,1,1,2,2,4,4,5,5,6,6,9,9,10,10,11,11,13,13,14,14,16,16,19,19,22,22],"right_children":[2,4,6,-1,8,10,12,-1,-1,14,16,18,-1,20,22,-1,24,-1,-1,26,-1,-1,28,-1,-1,-1,-1,-1,-1],"split_conditions":[1.2288E4,1E0,8.0896E4,-2.7519135E-2,1E0,1E0,1.65E4,2.8718393E-2,-2.901635E-2,3.7888E4,2.1744138E-3,1.54E4,2.7269099E-2,3.3792E4,6.656E4,-2.7596976E-3,4.3724524E-3,2.7576147E-2,-3.0397505E-2,5E0,2.9328203E-2,-2.731017E-2,3.243877E-3,3.5150535E-2,1.0032169E-2,-2.0006426E-2,-2.677793E-2,1.8193321E-3,-2.7712066E-2],"split_indices":[17,19,17,0,24,20,7,0,0,17,2,7,0,17,17,0,1,0,0,10,0,0,1,0,0,0,0,0,0],"split_type":[0,0,0,0,0,0,0,0,0,0,0,0,0,0,0,0,0,0,0,0,0,0,0,0,0,0,0,0,0],"sum_hessian":[1.096243E3,4.6759787E2,6.286452E2,1.06740265E1,4.5692383E2,5.741639E2,5.448133E1,4.5125064E2,5.673193E0,5.581655E2,1.5998319E1,1.4966612E1,3.951472E1,2.1396204E2,3.442035E2,5.3967495E0,1.0601569E1,1.06117115E1,4.3549E0,2.0031453E2,1.3647504E1,3.3227435E2,1.1929162E1,4.6580644E0,5.9435053E0,4.598382E1,1.543307E2,3.485703E0,8.4434595E0],"tree_param":{"num_deleted":"0","num_feature":"26","num_nodes":"29","size_leaf_vector":"1"}},{"base_weights":[-1.8287364E-2,1.5256509E0,-9.377502E-1,-2.870891E-2,1.5722874E0,-1.0970156E0,3.5729042E-1,-3.0849857E-2,2.8800588E-2,-1.6248767E-1,-1.3134239E0,1.5534679E0,-2.7418183E-2,-2.740154E-2,2.7159797E-2,-1.3518912E0,5.4510355E-1,1.2349907E0,3.015149E-2,-1.1325414E0,-1.4683038E0,-4.6839686E-3,1.9358248E-2,2.815922E-2,1.1900541E-2,-2.3619475E-2,-3.0908936E-3,-2.1914236E-2,-2.6890604E-2],"categories":[],"categories_nodes":[],"categories_segments":[],"categories_sizes":[],"default_left":[0,0,0,0,0,0,0,0,0,0,0,0,0,0,0,0,0,0,0,0,0,0,0,0,0,0,0,0,0],"id":18,"left_children":[1,3,5,-1,7,9,11,-1,-1,13,15,17,-1,-1,-1,19,21,23,-1,25,27,-1,-1,-1,-1,-1,-1,-1,-1],"loss_changes":[1.520639E3,5.8308167E1,1.3848547E2,0E0,4.4059326E1,1.2088898E2,1.6589714E2,0E0,0E0,2.575429E2,3.47182E1,1.7886658E0,0E0,0E0,0E0,1.2102722E1,4.252741E0,2.4473267E0,0E0,2.9238113E1,2.3585205E0,0E0,0E0,0E0,0E0,0E0,0E0,0E0,0E0],"parents":[2147483647,0,0,1,1,2,2,4,4,5,5,6,6,9,9,10,10,11,11,15,15,16,16,17,17,19,19,20,20],"right_children":[2,4,6,-1,8,10,12,-1,-1,14,16,18,-1,-1,-1,20,22,24,-1,26,28,-1,-1,-1,-1,-1,-1,-1,-1],"split_conditions":[4E3,0E0,2.42E4,-2.870891E-2,3.152E3,5E3,1E0,-3.0849857E-2,2.8800588E-2,4.152E3,1E0,1E0,-2.7418183E-2,-2.740154E-2,2.7159797E-2,2E0,2.5881904E-1,3.736635E-3,3.015149E-2,1.49E4,8.71E3,-4.6839686E-3,1.9358248E-2,2.815922E-2,1.1900541E-2,-2.3619475E-2,-3.0908936E-3,-2.1914236E-2,-2.6890604E-2],"split_indices":[7,25,7,0,7,7,19,0,0,7,20,25,0,0,0,25,15,1,0,7,7,0,0,0,0,0,0,0,0],"split_type":[0,0,0,0,0,0,0,0,0,0,0,0,0,0,0,0,0,0,0,0,0,0,0,0,0,0,0,0,0],"sum_hessian":[1.0711793E3,3.9981055E2,6.7136884E2,5.869769E0,3.9394077E2,5.9785547E2,7.351338E1,4.015784E0,3.89925E2,1.12426926E2,4.8542853E2,4.499221E1,2.8521173E1,6.1972588E1,5.0454338E1,4.7559326E2,9.835254E0,1.2947802E1,3.204441E1,1.6494626E2,3.10647E2,3.9106958E0,5.9245577E0,8.138609E0,4.8091927E0,1.3831622E2,2.663003E1,3.5233994E1,2.75413E2],"tree_param":{"num_deleted":"0","num_feature":"26","num_nodes":"29","size_leaf_vector":"1"}},{"base_weights":[8.245848E-3,1.4818234E0,-1.1227074E0,1.5361811E0,-2.702315E-2,-1.3333088E0,1.2730919E0,2.8182631E-2,-2.8397514E-2,-1.0884974E0,-2.6564078E-2,4.5251527E-1,1.526486E0,-1.4985079E0,6.421245E-1,3.0767536E-2,-2.974932E-2,1.0880035E0,2.908205E-2,-2.7173795E-2,-1.7199757E-2,3.063001E-2,6.1239783E-2,7.277598E-3,3.0081306E-2,1.9255271E-2,-4.700728E-3],"categories":[],"categories_nodes":[],"categories_segments":[],"categories_sizes":[],"default_left":[0,0,0,0,0,0,0,0,0,0,0,0,0,0,0,0,0,0,0,0,0,0,0,0,0,0,0],"id":19,"left_children":[1,3,5,7,-1,9,11,-1,-1,13,-1,15,17,19,21,-1,-1,23,-1,-1,-1,-1,25,-1,-1,-1,-1],"loss_changes":[1.7782407E3,7.528491E1,3.046006E2,5.0554443E1,0E0,2.009259E1,1.0111557E1,0E0,0E0,1.4853111E2,0E0,3.0757164E1,1.5157852E0,1.5130615E0,2.4799349E1,0E0,0E0,2.6613455E0,0E0,0E0,0E0,0E0,8.513845E0,0E0,0E0,0E0,0E0],"parents":[2147483647,0,0,1,1,2,2,3,3,5,5,6,6,9,9,11,11,12,12,13,13,14,14,17,17,22,22],"right_children":[2,4,6,8,-1,10,12,-1,-1,14,-1,16,18,20,22,-1,-1,24,-1,-1,-1,-1,26,-1,-1,-1,-1],"split_conditions":[4.9152E7,1E0,7.8848E4,1E0,-2.702315E-2,3.619876E8,2.097152E9,2.8182631E-2,-2.8397514E-2,2.661376E8,-2.6564078E-2,1.31072E9,1E0,2.62144E8,2.82624E8,3.0767536E-2,-2.974932E-2,1E0,2.908205E-2,-2.7173795E-2,-1.7199757E-2,3.063001E-2,2.575E4,7.277598E-3,3.0081306E-2,1.9255271E-2,-4.700728E-3],"split_indices":[8,22,17,24,0,8,8,0,0,8,0,8,22,8,8,0,0,25,0,0,0,0,5,0,0,0,0],"split_type":[0,0,0,0,0,0,0,0,0,0,0,0,0,0,0,0,0,0,0,0,0,0,0,0,0,0,0],"sum_hessian":[1.0670123E3,4.6332892E2,6.036835E2,4.5505917E2,8.269718E0,5.5491144E2,4.8772022E1,4.4993082E2,5.1283865E0,2.09301E2,3.4561047E2,1.1522424E1,3.72496E1,1.6921907E2,4.008193E1,7.213689E0,4.308735E0,6.692368E0,3.0557232E1,1.640135E2,5.205559E0,1.4125744E1,2.5956184E1,3.1162999E0,3.576068E0,6.2921047E0,1.966408E1],"tree_param":{"num_deleted":"0","num_feature":"26","num_nodes":"27","size_leaf_vector":"1"}},{"base_weights":[-3.298247E-2,1.4759821E0,-1.1868128E0,3.8133642E-1,1.5191737E0,-1.3552855E0,1.0779041E0,-2.8888034E-2,2.7318416E-2,1.2989181E0,2.7596708E-2,-1.3925977E0,1.8019028E-1,5.051835E-1,1.3405813E0,2.5284702E-2,8.4607804E-1,-1.250487E0,-1.4746405E0,-2.0599429E-2,9.3913037E-1,4.8471965E-2,2.157667E-2,2.9063229E-2,9.566507E-1,2.4771282E-2,7.774541E-3,-1.4031769E0,2.945631E-2,-2.6739113E-2,-8.710652E-1,3.2227386E-2,2.3624818E-3,1.2960823E-2,-1.101828E-2,2.9844893E-2,6.4293414E-1,-2.071569E-2,-2.6379382E-2,4.860974E-3,-2.7008865E-2,-4.927605E-3,2.315133E-2],"categories":[],"categories_nodes":[],"categories_segments":[],"categories_sizes":[],"default_left":[0,0,0,0,0,0,0,0,0,0,0,0,0,0,0,0,0,0,0,0,0,0,0,0,0,0,0,0,0,0,0,0,0,0,0,0,0,0,0,0,0,0,0],"id":20,"left_children":[1,3,5,7,9,11,13,-1,-1,15,-1,17,19,21,23,-1,25,27,29,-1,31,33,-1,-1,35,-1,-1,37,-1,-1,39,-1,-1,-1,-1,-1,41,-1,-1,-1,-1,-1,-1],"loss_changes":[1.7860327E3,2.0986877E1,2.2180646E2,3.8442856E1,1.8312988E0,3.1017212E1,6.0264206E0,0E0,0E0,1.7560501E0,0E0,6.1151123E0,1.2940734E1,4.023943E0,2.926365E0,0E0,1.5285563E0,8.545477E1,3.324768E0,0E0,5.6361303E0,3.4357214E0,0E0,0E0,2.554225E0,0E0,0E0,3.0560608E0,0E0,0E0,6.556686E0,0E0,0E0,0E0,0E0,0E0,4.834623E0,0E0,0E0,0E0,0E0,0E0,0E0],"parents":[2147483647,0,0,1,1,2,2,3,3,4,4,5,5,6,6,9,9,11,11,12,12,13,13,14,14,16,16,17,17,18,18,20,20,21,21,24,24,27,27,30,30,36,36],"right_children":[2,4,6,8,10,12,14,-1,-1,16,-1,18,20,22,24,-1,26,28,30,-1,32,34,-1,-1,36,-1,-1,38,-1,-1,40,-1,-1,-1,-1,-1,42,-1,-1,-1,-1,-1,-1],"split_conditions":[1.2288E4,4.7E2,8.0896E4,1.024E4,7.4074075E-2,1E0,1.0344828E-1,-2.8888034E-2,2.7318416E-2,4.4E1,2.7596708E-2,3.7888E4,2.2810264E-3,2.5030847E-3,1.25952E5,2.5284702E-2,-4.3388373E-1,3.3792E4,6.656E4,-2.0599429E-2,4.3E1,1.25952E5,2.157667E-2,2.9063229E-2,2.0010688E-3,2.4771282E-2,7.774541E-3,5E0,2.945631E-2,-2.6739113E-2,1.9584303E-3,3.2227386E-2,2.3624818E-3,1.2960823E-2,-1.101828E-2,2.9844893E-2,6.234898E-1,-2.071569E-2,-2.6379382E-2,4.860974E-3,-2.7008865E-2,-4.927605E-3,2.315133E-2],"split_indices":[17,13,17,17,23,20,23,0,0,0,0,17,2,2,17,0,12,17,17,0,0,17,0,0,2,0,0,10,0,0,2,0,0,0,0,0,11,0,0,0,0,0,0],"split_type":[0,0,0,0,0,0,0,0,0,0,0,0,0,0,0,0,0,0,0,0,0,0,0,0,0,0,0,0,0,0,0,0,0,0,0,0,0,0,0,0,0,0,0],"sum_hessian":[1.0258105E3,4.444939E2,5.8131665E2,1.6886267E1,4.2760764E2,5.410734E2,4.0243183E1,6.14818E0,1.0738087E1,3.556029E1,3.9204736E2,5.282466E2,1.2826865E1,1.26734085E1,2.7569773E1,2.8517431E1,7.0428605E0,1.934243E2,3.3482227E2,4.6549487E0,8.171917E0,7.675714E0,4.997694E0,1.5908635E1,1.1661139E1,3.046772E0,3.9960885E0,1.8373433E2,9.689968E0,3.2581424E2,9.008043E0,3.9509923E0,4.2209244E0,3.8157153E0,3.8599987E0,3.563521E0,8.097618E0,3.9631256E1,1.4410307E2,3.2120202E0,5.796023E0,3.3435442E0,4.7540736E0],"tree_param":{"num_deleted":"0","num_feature":"26","num_nodes":"43","size_leaf_vector":"1"}},{"base_weights":[-4.209867E-3,1.4736692E0,-1.1085292E0,-2.6903398E-2,1.5158238E0,-1.2650229E0,2.5565576E-2,2.7717236E-2,-2.8361492E-2,-1.0070695E0,-2.5841631E-2,-2.6684111E-2,-5.611054E-1,7.1133316E-1,-1.0657002E0,2.82954E-2,2.2200532E-3,-2.5889162E-2,4.9140938E-3],"categories":[],"categories_nodes":[],"categories_segments":[],"categories_sizes":[],"default_left":[0,0,0,0,0,0,0,0,0,0,0,0,0,0,0,0,0,0,0],"id":21,"left_children":[1,3,5,-1,7,9,-1,-1,-1,11,-1,-1,13,15,17,-1,-1,-1,-1],"loss_changes":[1.6942474E3,5.566687E1,2.3564978E2,0E0,4.0692078E1,2.5395935E1,0E0,0E0,0E0,4.870964E1,0E0,0E0,7.5711334E1,1.7020845E1,4.279859E1,0E0,0E0,0E0,0E0],"parents":[2147483647,0,0,1,1,2,2,4,4,5,5,9,9,12,12,13,13,14,14],"right_children":[2,4,6,-1,8,10,-1,-1,-1,12,-1,-1,14,16,18,-1,-1,-1,-1],"split_conditions":[4.9152E7,1E0,2.2550528E9,-2.6903398E-2,1E0,2E0,2.5565576E-2,2.7717236E-2,-2.8361492E-2,2.661376E8,-2.5841631E-2,-2.6684111E-2,3.619876E8,2.82624E8,1.078272E9,2.82954E-2,2.2200532E-3,-2.5889162E-2,4.9140938E-3],"split_indices":[8,19,8,0,24,25,0,0,0,8,0,0,8,8,8,0,0,0,0],"split_type":[0,0,0,0,0,0,0,0,0,0,0,0,0,0,0,0,0,0,0],"sum_hessian":[1.0381075E3,4.4395773E2,5.941498E2,6.198608E0,4.3775912E2,5.59602E2,3.454779E1,4.3356543E2,4.193703E0,2.2715353E2,3.324485E2,1.09249016E2,1.1790452E2,3.3471043E1,8.443347E1,1.3510574E1,1.996047E1,6.5855095E1,1.8578379E1],"tree_param":{"num_deleted":"0","num_feature":"26","num_nodes":"19","size_leaf_vector":"1"}},{"base_weights":[-1.5681464E-2,7.46605E-1,-1.0884849E0,-2.6514875E-2,9.2049974E-1,-1.1438088E0,1.3644507E0,1.0656376E0,-2.6582565E-2,-9.906352E-1,-1.2974914E0,3.1097682E-2,1.0734335E-2,8.4304756E-1,1.1810129E0,-9.404482E-1,-2.6858868E-2,-1.0790517E0,-2.4936238E-2,9.403066E-1,1.7084688E-1,5.008903E-1,1.2134722E0,-2.6287453E-2,-8.85435E-1,-8.598976E-1,-1.3198615E0,1.3473199E-2,2.2405233E-2,-2.6880981E-2,9.8193865E-3,-1.7234049E-3,1.7660124E-2,2.2088926E-2,1.5144024E-2,-1.7569551E-2,-1.1331979E-2,-1.7780418E-2,6.9962465E-3,-1.2968779E-2,-2.490466E-2],"categories":[],"categories_nodes":[],"categories_segments":[],"categories_sizes":[],"default_left":[0,0,0,0,0,0,0,0,0,0,0,0,0,0,0,0,0,0,0,0,0,0,0,0,0,0,0,0,0,0,0,0,0,0,0,0,0,0,0,0,0],"id":22,"left_children":[1,3,5,-1,7,9,11,13,-1,15,17,-1,-1,19,21,23,-1,25,-1,27,29,31,33,-1,35,37,39,-1,-1,-1,-1,-1,-1,-1,-1,-1,-1,-1,-1,-1,-1],"loss_changes":[8.401509E2,2.3241043E2,5.791519E1,0E0,1.9428647E2,9.788391E0,2.6289997E0,1.34599E1,0E0,5.2847595E0,4.202484E0,0E0,0E0,1.1712013E1,7.611145E0,5.465622E0,0E0,3.2569504E0,0E0,9.12265E0,1.4270995E1,4.5739155E0,2.215454E0,0E0,4.099228E0,5.3930016E0,1.1905937E0,0E0,0E0,0E0,0E0,0E0,0E0,0E0,0E0,0E0,0E0,0E0,0E0,0E0,0E0],"parents":[2147483647,0,0,1,1,2,2,4,4,5,5,6,6,7,7,9,9,10,10,13,13,14,14,15,15,17,17,19,19,20,20,21,21,22,22,24,24,25,25,26,26],"right_children":[2,4,6,-1,8,10,12,14,-1,16,18,-1,-1,20,22,24,-1,26,-1,28,30,32,34,-1,36,38,40,-1,-1,-1,-1,-1,-1,-1,-1,-1,-1,-1,-1,-1,-1],"split_conditions":[1E0,1E0,2E0,-2.6514875E-2,1E0,5E-1,2.684E4,6.123234E-17,-2.6582565E-2,1E0,2.0496973E-3,3.1097682E-2,1.0734335E-2,3.295E4,3.0474688E-3,1E0,-2.6858868E-2,5E0,-2.4936238E-2,4.0417803E-3,-7.0710677E-1,4.3388373E-1,2.9714224E-3,-2.6287453E-2,3.33E4,2.0268634E-3,1.3582621E-3,1.3473199E-2,2.2405233E-2,-2.6880981E-2,9.8193865E-3,-1.7234049E-3,1.7660124E-2,2.2088926E-2,1.5144024E-2,-1.7569551E-2,-1.1331979E-2,-1.7780418E-2,6.9962465E-3,-1.2968779E-2,-2.490466E-2],"split_indices":[22,18,18,0,24,15,5,15,0,24,2,0,0,5,1,18,0,10,0,1,15,12,2,0,5,2,2,0,0,0,0,0,0,0,0,0,0,0,0,0,0],"split_type":[0,0,0,0,0,0,0,0,0,0,0,0,0,0,0,0,0,0,0,0,0,0,0,0,0,0,0,0,0,0,0,0,0,0,0,0,0,0,0,0,0],"sum_hessian":[1.0273398E3,6.005811E2,4.2675873E2,4.35216E1,5.570595E2,4.1735294E2,9.405768E0,5.253379E2,3.1721607E1,2.0907935E2,2.0827359E2,6.3272924E0,3.078476E0,1.7939098E2,3.459469E2,1.9029066E2,1.8788689E1,6.2360195E1,1.4591339E2,1.5669661E2,2.2694372E1,1.5780547E1,3.3016635E2,1.799768E1,1.7229298E2,3.2685646E1,2.967455E1,9.731525E1,5.9381367E1,4.169259E0,1.8525112E1,7.053514E0,8.727034E0,3.143899E2,1.5776479E1,1.2547165E2,4.682133E1,2.958031E1,3.1053367E0,3.1052616E0,2.6569286E1],"tree_param":{"num_deleted":"0","num_feature":"26","num_nodes":"41","size_leaf_vector":"1"}},{"base_weights":[-2.1021046E-2,1.4146376E0,-1.1044439E0,-2.6169557E-2,1.4692589E0,-1.3234161E0,1.2018391E0,2.7085176E-2,-2.7854469E-2,-1.148716E0,-1.4337823E0,5.442933E-1,2.6872994E-2,-1.3136979E0,2.9432941E-2,-1.7292107E-2,-2.5848035E-2,2.559506E-2,-2.8803604E-2,-2.6448878E-2,-6.7777985E-1,-2.5044186E-2,-1.9420529E-3],"categories":[],"categories_nodes":[],"categories_segments":[],"categories_sizes":[],"default_left":[0,0,0,0,0,0,0,0,0,0,0,0,0,0,0,0,0,0,0,0,0,0,0],"id":23,"left_children":[1,3,5,-1,7,9,11,-1,-1,13,15,17,-1,19,-1,-1,-1,-1,-1,-1,21,-1,-1],"loss_changes":[1.6337021E3,7.0922485E1,3.023069E2,0E0,5.537268E1,1.0499573E1,1.0101395E1,0E0,0E0,9.7466156E1,1.1879272E0,3.0707817E1,0E0,2.0483856E1,0E0,0E0,0E0,0E0,0E0,0E0,1.6555563E1,0E0,0E0],"parents":[2147483647,0,0,1,1,2,2,4,4,5,5,6,6,9,9,10,10,11,11,13,13,20,20],"right_children":[2,4,6,-1,8,10,12,-1,-1,14,16,18,-1,20,-1,-1,-1,-1,-1,-1,22,-1,-1],"split_conditions":[4.9152E7,1E0,7.8848E4,-2.6169557E-2,1E0,3.7888E4,2.097152E9,2.7085176E-2,-2.7854469E-2,3.3792E4,8.54191E5,1.31072E9,2.6872994E-2,2.62144E8,2.9432941E-2,-1.7292107E-2,-2.5848035E-2,2.559506E-2,-2.8803604E-2,-2.6448878E-2,2.5881904E-1,-2.5044186E-2,-1.9420529E-3],"split_indices":[8,19,17,0,24,17,8,0,0,17,6,8,0,8,0,0,0,0,0,0,15,0,0],"split_type":[0,0,0,0,0,0,0,0,0,0,0,0,0,0,0,0,0,0,0,0,0,0,0],"sum_hessian":[1.0503224E3,4.5172342E2,5.9859894E2,8.418426E0,4.43305E2,5.466994E2,5.1899517E1,4.373331E2,5.971908E0,2.117222E2,3.349772E2,1.6161945E1,3.5737576E1,1.999085E2,1.1813714E1,5.509631E0,3.2946756E2,1.1462486E1,4.699458E0,1.5942209E2,4.0486393E1,1.788151E1,2.2604883E1],"tree_param":{"num_deleted":"0","num_feature":"26","num_nodes":"23","size_leaf_vector":"1"}},{"base_weights":[4.041073E-2,1.4236332E0,-1.0550524E0,1.4563653E0,-2.7467256E-2,-1.2789136E0,1.2301811E0,-3.1881277E-2,1.4852931E0,-1.0518156E0,-1.428408E0,6.789009E-1,2.5404839E-2,2.7214015E-2,-2.587902E-2,-1.2569598E0,3.065404E-2,-2.5928605E-2,-8.7321985E-1,2.6140556E-2,-2.891906E-2,-2.5919035E-2,-7.2095656E-1,5.9647406E-3,-2.5963668E-2,-2.6238808E-2,-6.976497E-3],"categories":[],"categories_nodes":[],"categories_segments":[],"categories_sizes":[],"default_left":[0,0,0,0,0,0,0,0,0,0,0,0,0,0,0,0,0,0,0,0,0,0,0,0,0,0,0],"id":24,"left_children":[1,3,5,7,-1,9,11,-1,13,15,17,19,-1,-1,-1,21,-1,-1,23,-1,-1,-1,25,-1,-1,-1,-1],"loss_changes":[1.5646149E3,4.415265E1,2.9478064E2,4.223413E1,0E0,1.777771E1,5.2577744E0,0E0,4.2546936E1,1.1804495E2,3.0669556E0,2.3263529E1,0E0,0E0,0E0,1.9573273E1,0E0,0E0,6.803169E0,0E0,0E0,0E0,1.2416763E1,0E0,0E0,0E0,0E0],"parents":[2147483647,0,0,1,1,2,2,3,3,5,5,6,6,8,8,9,9,10,10,11,11,15,15,18,18,22,22],"right_children":[2,4,6,8,-1,10,12,-1,14,16,18,20,-1,-1,-1,22,-1,-1,24,-1,-1,-1,26,-1,-1,-1,-1],"split_conditions":[1.2288E4,1E0,7.8848E4,3.152E3,-2.7467256E-2,3.7888E4,1.65E4,-3.1881277E-2,5E3,3.3792E4,6.656E4,1.54E4,2.5404839E-2,2.7214015E-2,-2.587902E-2,1.14E4,3.065404E-2,-2.5928605E-2,2E0,2.6140556E-2,-2.891906E-2,-2.5919035E-2,2.4576E4,5.9647406E-3,-2.5963668E-2,-2.6238808E-2,-6.976497E-3],"split_indices":[17,24,17,7,0,17,7,0,7,17,17,7,0,0,0,7,0,0,25,0,0,0,17,0,0,0,0],"split_type":[0,0,0,0,0,0,0,0,0,0,0,0,0,0,0,0,0,0,0,0,0,0,0,0,0,0,0],"sum_hessian":[1.0325566E3,4.563472E2,5.7620953E2,4.5135468E2,4.9925146E0,5.2480695E2,5.1402565E1,3.9951665E0,4.473595E2,2.0837729E2,3.1642966E2,1.3025802E1,3.8376762E1,4.424601E2,4.89941E0,1.9397383E2,1.4403468E1,3.0664243E2,9.787239E0,9.726781E0,3.2990203E0,1.4346701E2,5.050681E1,3.1516833E0,6.6355553E0,1.5586383E1,3.4920425E1],"tree_param":{"num_deleted":"0","num_feature":"26","num_nodes":"27","size_leaf_vector":"1"}},{"base_weights":[4.02766E-3,1.4195479E0,-8.6881894E-1,-3.1281743E-2,1.4558129E0,-4.141861E-1,-1.2518468E0,2.6737027E-2,-2.7264614E-2,-9.206397E-2,-2.586498E-2,-1.3715644E0,-3.159458E-1,-2.5189787E-2,2.5025448E-1,-1.1652515E0,-2.5232807E-2,-2.5814591E-2,2.5275769E-2,9.483297E-1,-2.1421553E-1,-2.4365691E-2,-1.7262558E-3,2.477691E-2,1.2574841E-3,-1.45890135E-2,1.958143E-2],"categories":[],"categories_nodes":[],"categories_segments":[],"categories_sizes":[],"default_left":[0,0,0,0,0,0,0,0,0,0,0,0,0,0,0,0,0,0,0,0,0,0,0,0,0,0,0],"id":25,"left_children":[1,3,5,-1,7,9,11,-1,-1,13,-1,15,17,-1,19,21,-1,-1,-1,23,25,-1,-1,-1,-1,-1,-1],"loss_changes":[1.2617832E3,4.470166E1,1.0997797E2,0E0,4.0524353E1,9.566742E1,3.8387085E1,0E0,0E0,9.88772E1,0E0,2.1976929E0,7.543604E1,0E0,5.658323E1,9.276653E0,0E0,0E0,0E0,2.6522896E1,8.202932E1,0E0,0E0,0E0,0E0,0E0,0E0],"parents":[2147483647,0,0,1,1,2,2,4,4,5,5,6,6,9,9,11,11,12,12,14,14,15,15,19,19,20,20],"right_children":[2,4,6,-1,8,10,12,-1,-1,14,-1,16,18,-1,20,22,-1,-1,-1,24,26,-1,-1,-1,-1,-1,-1],"split_conditions":[4E3,3.152E3,2E0,-3.1281743E-2,1E0,1E0,2E4,2.6737027E-2,-2.7264614E-2,3.7E2,-2.586498E-2,1E0,5E1,-2.5189787E-2,1E0,8.1E2,-2.5232807E-2,-2.5814591E-2,2.5275769E-2,5E3,1.52E4,-2.4365691E-2,-1.7262558E-3,2.477691E-2,1.2574841E-3,-1.45890135E-2,1.958143E-2],"split_indices":[7,7,25,0,24,24,7,0,0,13,0,22,13,0,22,13,0,0,0,7,7,0,0,0,0,0,0],"split_type":[0,0,0,0,0,0,0,0,0,0,0,0,0,0,0,0,0,0,0,0,0,0,0,0,0,0,0],"sum_hessian":[1.0212351E3,3.89533E2,6.317021E2,4.4079947E0,3.85125E2,2.8887106E2,3.4283102E2,3.8061102E2,4.513954E0,2.1998022E2,6.889086E1,3.0393597E2,3.889506E1,4.5503967E1,1.7447626E2,4.4911114E1,2.5902484E2,2.356049E1,1.5334574E1,6.97194E1,1.0475685E2,3.801093E1,6.9001822E0,4.6665623E1,2.3053774E1,7.1814575E1,3.294228E1],"tree_param":{"num_deleted":"0","num_feature":"26","num_nodes":"27","size_leaf_vector":"1"}},{"base_weights":[-1.593029E-2,1.3749416E0,-1.0307535E0,-2.5619678E-2,1.4313879E0,-1.2539449E0,1.2600408E0,2.6103316E-2,-2.6992043E-2,-1.0529188E0,-1.3803823E0,8.313392E-1,2.562383E-2,-1.1867371E0,2.8805181E-2,-2.5039515E-2,-9.1763943E-1,2.5233166E-2,3.1155387E-1,-1.380588E0,-6.295949E-1,-2.568978E-2,1.9764411E-3,1.7362E-2,-9.395356E-3,-2.585056E-2,-7.873721E-3,1.2597182E-2,-1.8435653E-2],"categories":[],"categories_nodes":[],"categories_segments":[],"categories_sizes":[],"default_left":[0,0,0,0,0,0,0,0,0,0,0,0,0,0,0,0,0,0,0,0,0,0,0,0,0,0,0,0,0],"id":26,"left_children":[1,3,5,-1,7,9,11,-1,-1,13,15,17,-1,19,-1,-1,21,-1,23,25,27,-1,-1,-1,-1,-1,-1,-1,-1],"loss_changes":[1.391464E3,6.5819885E1,2.914182E2,0E0,2.9252014E1,1.3162231E1,3.6310272E0,0E0,0E0,7.138489E1,2.3393555E0,4.2668705E0,0E0,2.0595978E1,0E0,0E0,5.716263E0,0E0,4.1526136E0,8.124939E0,2.6195932E1,0E0,0E0,0E0,0E0,0E0,0E0,0E0,0E0],"parents":[2147483647,0,0,1,1,2,2,4,4,5,5,6,6,9,9,10,10,11,11,13,13,16,16,18,18,19,19,20,20],"right_children":[2,4,6,-1,8,10,12,-1,-1,14,16,18,-1,20,-1,-1,22,-1,24,26,28,-1,-1,-1,-1,-1,-1,-1,-1],"split_conditions":[1.2288E4,1E0,7.8848E4,-2.5619678E-2,1E0,3.7888E4,1.3636364E-1,2.6103316E-2,-2.6992043E-2,3.3792E4,6.656E4,4.3388373E-1,2.562383E-2,8.2E3,2.8805181E-2,-2.5039515E-2,2.1875E-1,2.5233166E-2,3.303E4,3.2768E4,1E0,-2.568978E-2,1.9764411E-3,1.7362E-2,-9.395356E-3,-2.585056E-2,-7.873721E-3,1.2597182E-2,-1.8435653E-2],"split_indices":[17,19,17,0,24,17,23,0,0,17,17,12,0,7,0,0,23,0,5,17,22,0,0,0,0,0,0,0,0],"split_type":[0,0,0,0,0,0,0,0,0,0,0,0,0,0,0,0,0,0,0,0,0,0,0,0,0,0,0,0,0],"sum_hessian":[9.858108E2,4.1585004E2,5.6996075E2,8.20045E0,4.076496E2,5.193665E2,5.059424E1,4.042927E2,3.3568974E0,2.0058688E2,3.1877963E2,1.4336101E1,3.625814E1,1.9098373E2,9.6031475E0,3.080226E2,1.0756994E1,6.7854033E0,7.550697E0,1.4166383E2,4.9319897E1,7.1743846E0,3.5826097E0,4.2370143E0,3.3136823E0,1.330103E2,8.653543E0,1.1349538E1,3.797036E1],"tree_param":{"num_deleted":"0","num_feature":"26","num_nodes":"29","size_leaf_vector":"1"}},{"base_weights":[1.824083E-2,1.365447E0,-1.0374082E0,-2.5525477E-2,1.4159564E0,-1.2373536E0,1.1808677E0,-2.6812853E-2,1.4457731E0,-9.8847353E-1,-2.5201496E-2,7.09986E-1,2.5010027E-2,-3.5617482E-2,2.6386632E-2,-1.1479673E0,2.7199345E-2,2.7700467E-2,-2.8275376E-2,-1.3533077E0,-6.0998E-1,-2.5326692E-2,-4.532382E-3,9.1091925E-3,-1.6001923E-2],"categories":[],"categories_nodes":[],"categories_segments":[],"categories_sizes":[],"default_left":[0,0,0,0,0,0,0,0,0,0,0,0,0,0,0,0,0,0,0,0,0,0,0,0,0],"id":27,"left_children":[1,3,5,-1,7,9,11,-1,13,15,-1,17,-1,-1,-1,19,-1,-1,-1,21,23,-1,-1,-1,-1],"loss_changes":[1.4463015E3,6.2945435E1,2.5289526E2,0E0,3.810022E1,2.1853088E1,4.7168274E0,0E0,3.8535217E1,8.429466E1,0E0,2.8177958E1,0E0,0E0,0E0,2.1879486E1,0E0,0E0,0E0,9.325348E0,1.73166E1,0E0,0E0,0E0,0E0],"parents":[2147483647,0,0,1,1,2,2,4,4,5,5,6,6,8,8,9,9,11,11,15,15,19,19,20,20],"right_children":[2,4,6,-1,8,10,12,-1,14,16,-1,18,-1,-1,-1,20,-1,-1,-1,22,24,-1,-1,-1,-1],"split_conditions":[1.2288E4,1E0,7.8848E4,-2.5525477E-2,0E0,3.7888E4,1.65E4,-2.6812853E-2,2E3,3.3792E4,-2.5201496E-2,1.54E4,2.5010027E-2,-3.5617482E-2,2.6386632E-2,8.2E3,2.7199345E-2,2.7700467E-2,-2.8275376E-2,3.2768E4,1E0,-2.5326692E-2,-4.532382E-3,9.1091925E-3,-1.6001923E-2],"split_indices":[17,19,17,0,25,17,7,0,7,17,0,7,0,0,0,7,0,0,0,17,22,0,0,0,0],"split_type":[0,0,0,0,0,0,0,0,0,0,0,0,0,0,0,0,0,0,0,0,0,0,0,0,0],"sum_hessian":[1.01695435E3,4.4678528E2,5.7016907E2,7.940982E0,4.388443E2,5.230329E2,4.713616E1,4.442687E0,4.344016E2,2.1094681E2,3.1208612E2,1.4751666E1,3.23845E1,3.2410378E0,4.3116058E2,1.9832848E2,1.2618332E1,1.0811704E1,3.9399626E0,1.4351907E2,5.48094E1,1.3618033E2,7.338748E0,1.1044108E1,4.3765293E1],"tree_param":{"num_deleted":"0","num_feature":"26","num_nodes":"25","size_leaf_vector":"1"}},{"base_weights":[-1.3239894E-2,1.3559479E0,-1.0117285E0,-2.5421226E-2,1.3990726E0,-1.2263955E0,1.2079684E0,2.5671856E-2,-2.6582768E-2,-9.7606117E-1,-1.3717687E0,2.5689915E-2,6.667586E-1,-1.3843584E0,6.7705256E-1,-9.530853E-1,-2.4882939E-2,1.898991E-2,7.730791E-6,-2.5134334E-2,-1.4879809E-2,2.8557952E-2,1.1752557E-1,-2.5487015E-2,-7.592266E-3,-6.88734E-3,1.1045643E-2],"categories":[],"categories_nodes":[],"categories_segments":[],"categories_sizes":[],"default_left":[0,0,0,0,0,0,0,0,0,0,0,0,0,0,0,0,0,0,0,0,0,0,0,0,0,0,0],"id":28,"left_children":[1,3,5,-1,7,9,11,-1,-1,13,15,-1,17,19,21,23,-1,-1,-1,-1,-1,-1,25,-1,-1,-1,-1],"loss_changes":[1.3590698E3,5.0151917E1,2.7393542E2,0E0,3.8882996E1,1.9039429E1,6.1343994E0,0E0,0E0,1.300262E2,2.182373E0,0E0,3.879919E0,1.4569092E0,1.9519371E1,3.007553E0,0E0,0E0,0E0,0E0,0E0,0E0,5.9283757E0,0E0,0E0,0E0,0E0],"parents":[2147483647,0,0,1,1,2,2,4,4,5,5,6,6,9,9,10,10,12,12,13,13,14,14,15,15,22,22],"right_children":[2,4,6,-1,8,10,12,-1,-1,14,16,-1,18,20,22,24,-1,-1,-1,-1,-1,-1,26,-1,-1,-1,-1],"split_conditions":[4.9152E7,1E0,8.0896E4,-2.5421226E-2,1E0,3.619876E8,1.25952E5,2.5671856E-2,-2.6582768E-2,2.661376E8,3.3E1,2.5689915E-2,2.2718308E-3,2.62144E8,2.82624E8,5.65248E8,-2.4882939E-2,1.898991E-2,7.730791E-6,-2.5134334E-2,-1.4879809E-2,2.8557952E-2,4.2E1,-2.5487015E-2,-7.592266E-3,-6.88734E-3,1.1045643E-2],"split_indices":[8,19,17,0,24,8,17,0,0,8,0,0,2,8,8,8,0,0,0,0,0,0,0,0,0,0,0],"split_type":[0,0,0,0,0,0,0,0,0,0,0,0,0,0,0,0,0,0,0,0,0,0,0,0,0,0,0],"sum_hessian":[9.94111E2,4.1922678E2,5.748843E2,6.4117985E0,4.1281497E2,5.2419684E2,5.068745E1,4.081918E2,4.6231623E0,1.9262085E2,3.31576E2,3.5790768E1,1.4896685E1,1.544763E2,3.814453E1,1.2233938E1,3.1934204E2,9.361552E0,5.5351334E0,1.4974266E2,4.7336555E0,1.44563055E1,2.3688227E1,6.475907E0,5.7580314E0,1.1792997E1,1.189523E1],"tree_param":{"num_deleted":"0","num_feature":"26","num_nodes":"27","size_leaf_vector":"1"}},{"base_weights":[1.3933224E-2,1.3425463E0,-1.0134009E0,1.3974096E0,-2.503203E-2,-1.2549156E0,1.2543539E0,-2.631325E-2,1.4195669E0,-1.3009166E0,1.6956474E-1,1.3677429E0,1.1625476E-2,-1.27171045E-2,2.580567E-2,-1.1621859E0,-2.4823923E-2,2.026159E-2,-5.214489E-1,2.7606886E-2,9.4717187E-1,-1.3065319E0,2.749922E-2,-3.0640215E-2,4.1559557E-3,2.4442341E-2,-5.028082E-4,-2.4818463E-2,-2.0876681E-2],"categories":[],"categories_nodes":[],"categories_segments":[],"categories_sizes":[],"default_left":[0,0,0,0,0,0,0,0,0,0,0,0,0,0,0,0,0,0,0,0,0,0,0,0,0,0,0,0,0],"id":29,"left_children":[1,3,5,7,-1,9,11,-1,13,15,17,19,-1,-1,-1,21,-1,-1,23,-1,25,27,-1,-1,-1,-1,-1,-1,-1],"loss_changes":[1.363052E3,6.5433655E1,3.0844275E2,2.7105347E1,0E0,3.3367615E1,3.6929245E0,0E0,1.7735596E1,5.674011E0,1.0572486E1,3.2602463E0,0E0,0E0,0E0,7.2149185E1,0E0,0E0,8.294058E0,0E0,5.404044E0,1.9020386E0,0E0,0E0,0E0,0E0,0E0,0E0,0E0],"parents":[2147483647,0,0,1,1,2,2,3,3,5,5,6,6,8,8,9,9,10,10,11,11,15,15,18,18,20,20,21,21],"right_children":[2,4,6,8,-1,10,12,-1,14,16,18,20,-1,-1,-1,22,-1,-1,24,-1,26,28,-1,-1,-1,-1,-1,-1,-1],"split_conditions":[1.2288E4,1E0,7.8848E4,0E0,-2.503203E-2,1E0,3.578E4,-2.631325E-2,3.3E2,3.7888E4,5E0,1.25952E5,1.1625476E-2,-1.27171045E-2,2.580567E-2,3.3792E4,-2.4823923E-2,2.026159E-2,1.8E1,2.7606886E-2,2.936E4,8.1E2,2.749922E-2,-3.0640215E-2,4.1559557E-3,2.4442341E-2,-5.028082E-4,-2.4818463E-2,-2.0876681E-2],"split_indices":[17,22,17,25,0,20,5,0,13,17,10,17,0,0,0,17,0,0,10,0,5,13,0,0,0,0,0,0,0],"split_type":[0,0,0,0,0,0,0,0,0,0,0,0,0,0,0,0,0,0,0,0,0,0,0,0,0,0,0,0,0],"sum_hessian":[9.986155E2,4.3546188E2,5.631536E2,4.2691595E2,8.54595E0,5.0895743E2,5.4196182E1,3.2700942E0,4.2364584E2,4.930457E2,1.5911738E1,4.5630947E1,8.565234E0,3.867322E0,4.1977853E2,1.8540024E2,3.0764545E2,6.6657863E0,9.245952E0,3.236062E1,1.3270329E1,1.759841E2,9.41614E0,3.5947251E0,5.6512265E0,9.311678E0,3.9586515E0,1.1376162E2,6.2222485E1],"tree_param":{"num_deleted":"0","num_feature":"26","num_nodes":"29","size_leaf_vector":"1"}},{"base_weights":[-2.7485833E-2,1.3147409E0,-9.853535E-1,-3.13033E-2,1.3624897E0,-1.181957E0,1.3680786E0,2.5012113E-2,-2.5053317E-2,-1.2089372E0,2.7990228E-1,1.6852733E-2,2.595792E-2,-1.2592522E0,-6.2228346E-1,-1.4541095E-2,8.161133E-1,-1.0919445E0,-2.4480924E-2,2.377398E-2,-2.5264578E-2,3.1580973E-2,-2.1502166E-3,-2.476088E-2,8.880937E-3],"categories":[],"categories_nodes":[],"categories_segments":[],"categories_sizes":[],"default_left":[0,0,0,0,0,0,0,0,0,0,0,0,0,0,0,0,0,0,0,0,0,0,0,0,0],"id":30,"left_children":[1,3,5,-1,7,9,11,-1,-1,13,15,-1,-1,17,19,-1,21,23,-1,-1,-1,-1,-1,-1,-1],"loss_changes":[1.2538073E3,5.9350952E1,2.6331854E2,0E0,3.583893E1,2.0729797E1,1.4580612E0,0E0,0E0,1.5193726E1,5.5650063E0,0E0,0E0,8.390625E0,6.2489174E1,0E0,5.6743917E0,8.45847E1,0E0,0E0,0E0,0E0,0E0,0E0,0E0],"parents":[2147483647,0,0,1,1,2,2,4,4,5,5,6,6,9,9,10,10,13,13,14,14,16,16,17,17],"right_children":[2,4,6,-1,8,10,12,-1,-1,14,16,-1,-1,18,20,-1,22,24,-1,-1,-1,-1,-1,-1,-1],"split_conditions":[4.9152E7,3.152E3,2.097152E9,-3.13033E-2,5E3,1E0,3.7E1,2.5012113E-2,-2.5053317E-2,1.2296192E9,2.274847E-3,1.6852733E-2,2.595792E-2,3.619876E8,1.54E4,-1.4541095E-2,4.2274804E-3,2.661376E8,-2.4480924E-2,2.377398E-2,-2.5264578E-2,3.1580973E-2,-2.1502166E-3,-2.476088E-2,8.880937E-3],"split_indices":[8,7,8,0,7,20,0,0,0,8,2,0,0,8,7,0,1,8,0,0,0,0,0,0,0],"split_type":[0,0,0,0,0,0,0,0,0,0,0,0,0,0,0,0,0,0,0,0,0,0,0,0,0],"sum_hessian":[9.7521094E2,4.061172E2,5.6909375E2,6.2325478E0,3.998846E2,5.252245E2,4.3869312E1,3.952409E2,4.6437306E0,5.157166E2,9.507863E0,6.9127955E0,3.695652E1,4.7495413E2,4.0762455E1,3.1240997E0,6.383763E0,1.8435858E2,2.9059555E2,1.1720292E1,2.9042164E1,3.1827266E0,3.2010365E0,1.5596927E2,2.8389313E1],"tree_param":{"num_deleted":"0","num_feature":"26","num_nodes":"25","size_leaf_vector":"1"}},{"base_weights":[1.6373245E-2,1.3395956E0,-7.8173494E-1,1.3782343E0,-2.622074E-2,-3.619497E-1,-1.1409826E0,-3.048892E-2,2.5306657E-2,-7.981925E-2,-2.4882492E-2,-1.2842618E0,-1.934862E-1,-2.3542158E-2,2.6151356E-1,-1.0342118E0,-2.4103208E-2,-2.4700172E-2,2.7350795E-2,9.487981E-1,-1.833144E-1,-2.3295354E-2,-4.6243286E-1,2.3803696E-2,3.340856E-3,-1.2136607E-2,1.894144E-2,3.425627E-2,-2.186392E-2],"categories":[],"categories_nodes":[],"categories_segments":[],"categories_sizes":[],"default_left":[0,0,0,0,0,0,0,0,0,0,0,0,0,0,0,0,0,0,0,0,0,0,0,0,0,0,0,0,0],"id":31,"left_children":[1,3,5,7,-1,9,11,-1,-1,13,-1,15,17,-1,19,21,-1,-1,-1,23,25,-1,27,-1,-1,-1,-1,-1,-1],"loss_changes":[1.0290631E3,3.969507E1,9.163852E1,3.691223E1,0E0,8.110119E1,4.4438293E1,0E0,0E0,9.2557594E1,0E0,4.230591E0,8.759186E1,0E0,5.2653145E1,8.323929E0,0E0,0E0,0E0,1.9520405E1,6.3950035E1,0E0,3.1384853E1,0E0,0E0,0E0,0E0,0E0,0E0],"parents":[2147483647,0,0,1,1,2,2,3,3,5,5,6,6,9,9,11,11,12,12,14,14,15,15,19,19,20,20,22,22],"right_children":[2,4,6,8,-1,10,12,-1,-1,14,-1,16,18,-1,20,22,-1,-1,-1,24,26,-1,28,-1,-1,-1,-1,-1,-1],"split_conditions":[4E3,1E0,2E0,3.152E3,-2.622074E-2,1E0,2.42E4,-3.048892E-2,2.5306657E-2,3.5E2,-2.4882492E-2,8.71E3,1E0,-2.3542158E-2,1E0,8.1E2,-2.4103208E-2,-2.4700172E-2,2.7350795E-2,5E3,1.52E4,-2.3295354E-2,1E0,2.3803696E-2,3.340856E-3,-1.2136607E-2,1.894144E-2,3.425627E-2,-2.186392E-2],"split_indices":[7,24,25,7,0,24,7,0,0,13,0,7,22,0,22,13,0,0,0,7,7,0,22,0,0,0,0,0,0],"split_type":[0,0,0,0,0,0,0,0,0,0,0,0,0,0,0,0,0,0,0,0,0,0,0,0,0,0,0,0,0],"sum_hessian":[9.7440985E2,3.6660828E2,6.078016E2,3.6162796E2,4.9803233E0,2.803059E2,3.2749567E2,3.8466866E0,3.5778128E2,2.1985414E2,6.0451763E1,2.8446344E2,4.303223E1,4.7669388E1,1.7218475E2,5.5109436E1,2.29354E2,2.5485195E1,1.7547037E1,6.766598E1,1.04518776E2,3.763728E1,1.7472157E1,4.5194443E1,2.2471539E1,7.476536E1,2.9753414E1,4.2199736E0,1.3252183E1],"tree_param":{"num_deleted":"0","num_feature":"26","num_nodes":"29","size_leaf_vector":"1"}},{"base_weights":[3.0632971E-3,1.3260689E0,-1.0069515E0,-2.4800388E-2,1.3642142E0,-1.1463839E0,1.3270524E0,-1.1915821E-2,2.4807459E-2,-2.4589762E-2,-9.723613E-1,1.1135824E-2,2.6398433E-2,-1.0725547E0,8.810102E-1,-5.0573766E-1,-2.3780648E-2,2.807516E-2,-2.8228138E-2,-2.3969978E-2,9.281876E-3],"categories":[],"categories_nodes":[],"categories_segments":[],"categories_sizes":[],"default_left":[0,0,0,0,0,0,0,0,0,0,0,0,0,0,0,0,0,0,0,0,0],"id":32,"left_children":[1,3,5,-1,7,9,11,-1,-1,-1,13,-1,-1,15,17,19,-1,-1,-1,-1,-1],"loss_changes":[1.2838105E3,4.2989258E1,1.773034E2,0E0,1.6099304E1,2.0094727E1,3.1159935E0,0E0,0E0,0E0,5.3848083E1,0E0,0E0,3.953409E1,2.5000141E1,7.238154E1,0E0,0E0,0E0,0E0,0E0],"parents":[2147483647,0,0,1,1,2,2,4,4,5,5,6,6,10,10,13,13,14,14,15,15],"right_children":[2,4,6,-1,8,10,12,-1,-1,-1,14,-1,-1,16,18,20,-1,-1,-1,-1,-1],"split_conditions":[4.9152E7,1E0,2.2550528E9,-2.4800388E-2,3.3E2,8.1E2,3.5714287E-2,-1.1915821E-2,2.4807459E-2,-2.4589762E-2,1.2296192E9,1.1135824E-2,2.6398433E-2,3.619876E8,1.31072E9,2.770944E8,-2.3780648E-2,2.807516E-2,-2.8228138E-2,-2.3969978E-2,9.281876E-3],"split_indices":[8,19,8,0,13,13,23,0,0,0,8,0,0,8,8,8,0,0,0,0,0],"split_type":[0,0,0,0,0,0,0,0,0,0,0,0,0,0,0,0,0,0,0,0,0],"sum_hessian":[9.6074365E2,4.1593237E2,5.448113E2,5.768404E0,4.1016397E2,5.141063E2,3.0704977E1,3.8636305E0,4.0630035E2,2.2415742E2,2.899489E2,5.2577395E0,2.5447237E1,2.7508655E2,1.4862345E1,8.508109E1,1.9000546E2,1.1626557E1,3.2357872E0,4.6958965E1,3.8122128E1],"tree_param":{"num_deleted":"0","num_feature":"26","num_nodes":"21","size_leaf_vector":"1"}},{"base_weights":[-8.488729E-3,1.2941555E0,-1.0057721E0,1.342097E0,-2.4371844E-2,-1.2059544E0,1.1553786E0,1.3762805E0,-2.6339596E-2,-1.0135318E0,-1.3217442E0,2.5058113E-2,8.4904087E-1,-2.060331E-2,2.5044601E-2,-1.1834447E0,2.7427824E-2,-1.3389846E0,-8.083439E-1,-0E0,1.17094E0,-2.4628503E-2,-3.1674328E-1,-1.0915972E-2,-2.4179965E-2,6.7197257E-3,-2.4642466E-2,2.5165508E-2,1.1116702E-2,8.623677E-3,-1.7634131E-2],"categories":[],"categories_nodes":[],"categories_segments":[],"categories_sizes":[],"default_left":[0,0,0,0,0,0,0,0,0,0,0,0,0,0,0,0,0,0,0,0,0,0,0,0,0,0,0,0,0,0,0],"id":33,"left_children":[1,3,5,7,-1,9,11,13,-1,15,17,-1,19,-1,-1,21,-1,23,25,-1,27,-1,29,-1,-1,-1,-1,-1,-1,-1,-1],"loss_changes":[1.2189116E3,5.1758667E1,2.2991388E2,3.8405945E1,0E0,1.0799927E1,3.30624E0,2.0439514E1,0E0,7.898576E1,2.6536255E0,0E0,5.427758E0,0E0,0E0,2.8208328E1,0E0,2.0211792E0,6.643621E0,0E0,1.8180141E0,0E0,1.6411652E1,0E0,0E0,0E0,0E0,0E0,0E0,0E0,0E0],"parents":[2147483647,0,0,1,1,2,2,3,3,5,5,6,6,7,7,9,9,10,10,12,12,15,15,17,17,18,18,20,20,22,22],"right_children":[2,4,6,8,-1,10,12,14,-1,16,18,-1,20,-1,-1,22,-1,24,26,-1,28,-1,30,-1,-1,-1,-1,-1,-1,-1,-1],"split_conditions":[4.9152E7,1E0,8.0896E4,1E0,-2.4371844E-2,3.619876E8,2.2718308E-3,3.3E2,-2.6339596E-2,3.3792E4,6.656E4,2.5058113E-2,2.097152E9,-2.060331E-2,2.5044601E-2,2.62144E8,2.7427824E-2,3E1,3.7E1,-0E0,4.194304E9,-2.4628503E-2,1E0,-1.0915972E-2,-2.4179965E-2,6.7197257E-3,-2.4642466E-2,2.5165508E-2,1.1116702E-2,8.623677E-3,-1.7634131E-2],"split_indices":[8,22,17,24,0,8,2,13,0,17,17,0,8,0,0,8,0,0,0,0,8,0,22,0,0,0,0,0,0,0,0],"split_type":[0,0,0,0,0,0,0,0,0,0,0,0,0,0,0,0,0,0,0,0,0,0,0,0,0,0,0,0,0,0,0],"sum_hessian":[9.382677E2,4.068405E2,5.314272E2,3.9962683E2,7.2137027E0,4.8638254E2,4.5044643E1,3.9483203E2,4.7947893E0,1.8278142E2,3.036011E2,2.5126738E1,1.9917906E1,3.1711204E0,3.9166092E2,1.7134116E2,1.1440268E1,2.937061E2,9.89503E0,5.4884644E0,1.4429441E1,1.4050235E2,3.0838808E1,3.8192785E0,2.898868E2,3.1940928E0,6.7009373E0,1.0125126E1,4.3043156E0,1.4031072E1,1.6807735E1],"tree_param":{"num_deleted":"0","num_feature":"26","num_nodes":"31","size_leaf_vector":"1"}},{"base_weights":[-5.3154626E-3,1.2978573E0,-1.0146533E0,1.335182E0,-2.6078241E-2,-1.1438425E0,2.3032364E-2,2.4606524E-2,-2.4246648E-2,-9.311287E-1,-1.282627E0,-1.0461162E0,7.031206E-1,-1.0826968E0,-2.3973096E-2,-2.4442371E-2,-6.823683E-1,2.5506036E-2,-2.6376957E-2,-2.3618856E-2,-1.3610962E-1,2.8526532E-2,-1.7517619E-2,-2.5985671E-2,7.683733E-3],"categories":[],"categories_nodes":[],"categories_segments":[],"categories_sizes":[],"default_left":[0,0,0,0,0,0,0,0,0,0,0,0,0,0,0,0,0,0,0,0,0,0,0,0,0],"id":34,"left_children":[1,3,5,7,-1,9,-1,-1,-1,11,13,15,17,19,-1,-1,21,-1,-1,-1,23,-1,-1,-1,-1],"loss_changes":[1.2144539E3,4.140149E1,1.545523E2,3.9709473E1,0E0,1.4508606E1,0E0,0E0,0E0,3.656909E1,3.2026367E0,2.0933914E1,1.9999226E1,1.4147675E1,0E0,0E0,5.6714424E1,0E0,0E0,0E0,9.4238205E0,0E0,0E0,0E0,0E0],"parents":[2147483647,0,0,1,1,2,2,3,3,5,5,9,9,10,10,11,11,12,12,13,13,16,16,20,20],"right_children":[2,4,6,8,-1,10,-1,-1,-1,12,14,16,18,20,-1,-1,22,-1,-1,-1,24,-1,-1,-1,-1],"split_conditions":[4.9152E7,1E0,2.097152E9,1E0,-2.6078241E-2,2E0,2.3032364E-2,2.4606524E-2,-2.4246648E-2,1.2296192E9,3.619876E8,2.770944E8,1.54E4,2.62144E8,-2.3973096E-2,-2.4442371E-2,2.82624E8,2.5506036E-2,-2.6376957E-2,-2.3618856E-2,0E0,2.8526532E-2,-1.7517619E-2,-2.5985671E-2,7.683733E-3],"split_indices":[8,24,8,22,0,25,0,0,0,8,8,8,7,8,0,0,8,0,0,0,16,0,0,0,0],"split_type":[0,0,0,0,0,0,0,0,0,0,0,0,0,0,0,0,0,0,0,0,0,0,0,0,0],"sum_hessian":[9.232969E2,4.0298343E2,5.203135E2,3.9759802E2,5.3853884E0,4.926402E2,2.767325E1,3.9218222E2,5.4157996E0,1.9456157E2,2.9807864E2,1.8178098E2,1.2780589E1,6.3812412E1,2.3426624E2,9.709739E1,8.4683586E1,9.608797E0,3.1717918E0,5.1127216E1,1.2685196E1,9.708579E0,7.497501E1,3.820701E0,8.864495E0],"tree_param":{"num_deleted":"0","num_feature":"26","num_nodes":"25","size_leaf_vector":"1"}},{"base_weights":[1.05311135E-2,1.2733259E0,-9.462669E-1,-2.4297275E-2,2.3689767E-2,-1.2065953E0,1.225042E0,-1.0392623E0,-1.3130081E0,7.7775633E-1,2.4943816E-2,-1.2044196E0,2.841855E-2,-2.4038129E-2,-6.0877216E-1,2.5724506E-2,-2.7862672E-2,-2.4328023E-2,-6.5632266E-1,-2.4467114E-2,2.084759E-2,5.475015E-3,-1.985574E-2],"categories":[],"categories_nodes":[],"categories_segments":[],"categories_sizes":[],"default_left":[0,0,0,0,0,0,0,0,0,0,0,0,0,0,0,0,0,0,0,0,0,0,0],"id":35,"left_children":[1,3,5,-1,-1,7,9,11,13,15,-1,17,-1,-1,19,-1,-1,-1,21,-1,-1,-1,-1],"loss_changes":[1.1422993E3,5.129901E1,3.0403824E2,0E0,0E0,8.514954E0,4.244133E0,8.094693E1,5.6817017E0,2.3933891E1,0E0,1.4645309E1,0E0,0E0,1.4877376E1,0E0,0E0,0E0,1.6605112E1,0E0,0E0,0E0,0E0],"parents":[2147483647,0,0,1,1,2,2,5,5,6,6,7,7,8,8,9,9,11,11,14,14,18,18],"right_children":[2,4,6,-1,-1,8,10,12,14,16,-1,18,-1,-1,20,-1,-1,-1,22,-1,-1,-1,-1],"split_conditions":[4.9152E7,1E0,8.0896E4,-2.4297275E-2,2.3689767E-2,3.7888E4,2.097152E9,3.3792E4,6.656E4,1.31072E9,2.4943816E-2,2.62144E8,2.841855E-2,-2.4038129E-2,1E9,2.5724506E-2,-2.7862672E-2,-2.4328023E-2,1E0,-2.4467114E-2,2.084759E-2,5.475015E-3,-1.985574E-2],"split_indices":[8,19,17,0,0,17,8,17,17,8,0,8,0,0,8,0,0,0,22,0,0,0,0],"split_type":[0,0,0,0,0,0,0,0,0,0,0,0,0,0,0,0,0,0,0,0,0,0,0],"sum_hessian":[9.454153E2,4.0754544E2,5.378699E2,7.2852015E0,4.0026022E2,4.8029306E2,5.757682E1,1.8676692E2,2.9352612E2,1.5619412E1,4.195741E1,1.7571501E2,1.1051917E1,2.824223E2,1.1103845E1,1.2191686E1,3.4277275E0,1.3746541E2,3.8249603E1,7.789266E0,3.3145785E0,1.2202568E1,2.6047035E1],"tree_param":{"num_deleted":"0","num_feature":"26","num_nodes":"23","size_leaf_vector":"1"}},{"base_weights":[-1.322093E-2,1.2925003E0,-8.072949E-1,-2.911526E-2,1.320374E0,-8.735513E-1,1.2146897E0,1.0366893E0,2.4057439E-2,-9.243733E-1,7.2777987E-1,7.5387526E-1,2.7859548E-2,2.2817265E-2,-2.681679E-3,-2.4735035E-1,-1.0649856E0,3.232804E-1,1.2737705E0,2.324229E-2,-0E0,-2.4143418E-2,2.415514E-2,-1.1797001E0,-1.6616635E-1,1.937599E-2,-1.7086454E-2,3.4673423E-2,1.0046659E-2,-2.3935832E-2,-1.9409256E-2,2.4500737E-2,-2.394645E-2],"categories":[],"categories_nodes":[],"categories_segments":[],"categories_sizes":[],"default_left":[0,0,0,0,0,0,0,0,0,0,0,0,0,0,0,0,0,0,0,0,0,0,0,0,0,0,0,0,0,0,0,0,0],"id":36,"left_children":[1,3,5,-1,7,9,11,13,-1,15,17,19,-1,-1,-1,21,23,25,27,-1,-1,-1,-1,29,31,-1,-1,-1,-1,-1,-1,-1,-1],"loss_changes":[9.433054E2,2.7968689E1,7.5790924E1,0E0,2.0255737E0,4.458667E1,2.767706E0,6.7046185E0,0E0,5.052722E1,3.6961136E0,3.1144915E0,0E0,0E0,0E0,1.6007835E2,4.5309875E1,9.374572E0,3.3293934E0,0E0,0E0,0E0,0E0,5.845215E0,8.921194E1,0E0,0E0,0E0,0E0,0E0,0E0,0E0,0E0],"parents":[2147483647,0,0,1,1,2,2,4,4,5,5,6,6,7,7,9,9,10,10,11,11,15,15,16,16,17,17,18,18,23,23,24,24],"right_children":[2,4,6,-1,8,10,12,14,-1,16,18,20,-1,-1,-1,22,24,26,28,-1,-1,-1,-1,30,32,-1,-1,-1,-1,-1,-1,-1,-1],"split_conditions":[4E3,3.152E3,2E0,-2.911526E-2,7.4074075E-2,1E0,1.7391305E-1,3.594E4,2.4057439E-2,5E3,2.436341E-3,2.887E4,2.7859548E-2,2.2817265E-2,-2.681679E-3,4.152E3,2.42E4,2.83E4,2.5426385E-3,2.324229E-2,-0E0,-2.4143418E-2,2.415514E-2,8.1E2,3.02E4,1.937599E-2,-1.7086454E-2,3.4673423E-2,1.0046659E-2,-2.3935832E-2,-1.9409256E-2,2.4500737E-2,-2.394645E-2],"split_indices":[7,7,18,0,23,20,23,5,0,7,2,5,0,0,0,7,7,5,2,0,0,0,0,13,7,0,0,0,0,0,0,0,0],"split_type":[0,0,0,0,0,0,0,0,0,0,0,0,0,0,0,0,0,0,0,0,0,0,0,0,0,0,0,0,0,0,0,0,0],"sum_hessian":[9.097908E2,3.4404572E2,5.6574506E2,3.250907E0,3.407948E2,5.478032E2,1.7941822E1,2.3901157E1,3.1689365E2,5.30962E2,1.6841259E1,7.627155E0,1.0314668E1,1.9946966E1,3.9541922E0,9.1330574E1,4.3963138E2,9.691648E0,7.149611E0,4.431531E0,3.1956236E0,5.406847E1,3.7262108E1,3.8985785E2,4.9773544E1,6.089538E0,3.60211E0,3.7010849E0,3.4485264E0,1.5006364E2,2.3979419E2,2.1535568E1,2.8237976E1],"tree_param":{"num_deleted":"0","num_feature":"26","num_nodes":"33","size_leaf_vector":"1"}},{"base_weights":[-3.5529765E-3,1.2475891E0,-9.2749256E-1,-2.4025818E-2,1.2934073E0,-1.1429294E0,1.0883543E0,2.3934036E-2,-2.625691E-2,-1.1977221E0,6.5579695E-1,6.00702E-1,2.2538148E-2,-1.0224413E0,-1.2994256E0,-3.943908E-3,1.2582414E0,2.5149876E-2,-2.7200919E-2,-1.2260848E0,2.5821686E-2,-2.3794333E-2,-6.00686E-1,2.8015131E-2,1.3697941E-2,-2.399609E-2,-8.006768E-3,-2.4173174E-2,2.0827105E-2],"categories":[],"categories_nodes":[],"categories_segments":[],"categories_sizes":[],"default_left":[0,0,0,0,0,0,0,0,0,0,0,0,0,0,0,0,0,0,0,0,0,0,0,0,0,0,0,0,0],"id":37,"left_children":[1,3,5,-1,7,9,11,-1,-1,13,15,17,-1,19,21,-1,23,-1,-1,25,-1,-1,27,-1,-1,-1,-1,-1,-1],"loss_changes":[1.0574689E3,4.6072693E1,2.2852908E2,0E0,4.362567E1,4.6864563E1,4.14896E0,0E0,0E0,8.187805E0,7.4270754E0,2.2218346E1,0E0,8.498703E1,5.6030273E0,0E0,1.216445E0,0E0,0E0,1.3664902E1,0E0,0E0,1.4658468E1,0E0,0E0,0E0,0E0,0E0,0E0],"parents":[2147483647,0,0,1,1,2,2,4,4,5,5,6,6,9,9,10,10,11,11,13,13,14,14,16,16,19,19,22,22],"right_children":[2,4,6,-1,8,10,12,-1,-1,14,16,18,-1,20,22,-1,24,-1,-1,26,-1,-1,28,-1,-1,-1,-1,-1,-1],"split_conditions":[4.9152E7,1E0,8.0896E4,-2.4025818E-2,1E0,1E0,2.097152E9,2.3934036E-2,-2.625691E-2,3.619876E8,2.5881904E-1,1.31072E9,2.2538148E-2,3.3792E4,6.656E4,-3.943908E-3,5.18662E5,2.5149876E-2,-2.7200919E-2,2.62144E8,2.5821686E-2,-2.3794333E-2,1E9,2.8015131E-2,1.3697941E-2,-2.399609E-2,-8.006768E-3,-2.4173174E-2,2.0827105E-2],"split_indices":[8,19,17,0,24,20,8,0,0,8,15,8,0,17,17,0,4,0,0,8,0,0,8,0,0,0,0,0,0],"split_type":[0,0,0,0,0,0,0,0,0,0,0,0,0,0,0,0,0,0,0,0,0,0,0,0,0,0,0,0,0],"sum_hessian":[9.147801E2,3.8857684E2,5.2620325E2,6.7541394E0,3.8182272E2,4.7540427E2,5.079899E1,3.7617844E2,5.644264E0,4.6135925E2,1.4045025E1,1.307755E1,3.7721436E1,1.6946524E2,2.91894E2,5.715136E0,8.329888E0,9.491125E0,3.586425E0,1.5652812E2,1.293711E1,2.807739E2,1.11201105E1,5.1349244E0,3.1949644E0,1.3681422E2,1.9713902E1,7.8142896E0,3.3058207E0],"tree_param":{"num_deleted":"0","num_feature":"26","num_nodes":"29","size_leaf_vector":"1"}},{"base_weights":[1.5220186E-2,1.2394431E0,-9.1947395E-1,-3.1064421E-2,1.2668157E0,-1.0927922E0,2.3196233E-2,7.698953E-1,2.3153203E-2,-2.3719378E-2,-9.147218E-1,-2.3540905E-2,2.5134405E-2,-3.1230104E-1,-1.156357E0,-1.2107886E0,8.5043263E-1,-1.2458854E0,5.090047E-1,-8.423307E-3,-2.4114937E-2,2.6781918E-2,8.181214E-3,-8.053831E-3,-2.2855524E-2,-8.883496E-3,2.081077E-2],"categories":[],"categories_nodes":[],"categories_segments":[],"categories_sizes":[],"default_left":[0,0,0,0,0,0,0,0,0,0,0,0,0,0,0,0,0,0,0,0,0,0,0,0,0,0,0],"id":38,"left_children":[1,3,5,-1,7,9,-1,11,-1,-1,13,-1,-1,15,17,19,21,23,25,-1,-1,-1,-1,-1,-1,-1,-1],"loss_changes":[1.0261533E3,3.1584106E1,1.9505557E2,0E0,4.645935E0,1.9285034E1,0E0,2.3814405E1,0E0,0E0,3.868094E1,0E0,0E0,7.954739E1,2.830272E1,4.2420044E0,8.383139E0,4.105438E0,6.343036E0,0E0,0E0,0E0,0E0,0E0,0E0,0E0,0E0],"parents":[2147483647,0,0,1,1,2,2,4,4,5,5,7,7,10,10,13,13,14,14,15,15,16,16,17,17,18,18],"right_children":[2,4,6,-1,8,10,-1,12,-1,-1,14,-1,-1,16,18,20,22,24,26,-1,-1,-1,-1,-1,-1,-1,-1],"split_conditions":[4.9152E7,1.76512E7,2.2550528E9,-3.1064421E-2,4.7E2,8.1E2,2.3196233E-2,4.40112E7,2.3153203E-2,-2.3719378E-2,3.619876E8,-2.3540905E-2,2.5134405E-2,2.661376E8,1.2296192E9,-7.818315E-1,2.82624E8,3.2E1,1.0344828E-1,-8.423307E-3,-2.4114937E-2,2.6781918E-2,8.181214E-3,-8.053831E-3,-2.2855524E-2,-8.883496E-3,2.081077E-2],"split_indices":[8,8,8,0,13,13,0,8,0,0,8,0,0,8,8,12,8,0,23,0,0,0,0,0,0,0,0],"split_type":[0,0,0,0,0,0,0,0,0,0,0,0,0,0,0,0,0,0,0,0,0,0,0,0,0,0,0],"sum_hessian":[8.9676306E2,3.8825607E2,5.08507E2,3.5370176E0,3.8471906E2,4.7158386E2,3.6923107E1,1.8087303E1,3.6663174E2,2.0570793E2,2.6587595E2,4.2041497E0,1.3883152E1,7.613332E1,1.8974261E2,4.295363E1,3.3179695E1,1.8007141E2,9.67121E0,6.6017566E0,3.635187E1,1.2589978E1,2.0589716E1,6.300787E0,1.7377063E2,3.7970736E0,5.874137E0],"tree_param":{"num_deleted":"0","num_feature":"26","num_nodes":"27","size_leaf_vector":"1"}},{"base_weights":[4.1035738E-2,1.2533009E0,-9.370389E-1,-2.9267322E-2,1.2826848E0,-1.0879546E0,2.2110661E-2,-2.6229605E-2,1.3113865E0,-1.1499828E0,6.277025E-1,9.5485586E-1,2.3814963E-2,-9.559673E-1,-1.2744559E0,2.8365633E-2,1.8892197E-1,1.2493307E-2,2.370338E-2,-1.0651355E0,9.153591E-1,-2.3011588E-2,-1.365097E-2,-5.361466E-3,1.2712191E-2,-2.36696E-2,-1.40762385E-2,2.6544051E-2,4.6122787E-3],"categories":[],"categories_nodes":[],"categories_segments":[],"categories_sizes":[],"default_left":[0,0,0,0,0,0,0,0,0,0,0,0,0,0,0,0,0,0,0,0,0,0,0,0,0,0,0,0,0],"id":39,"left_children":[1,3,5,-1,7,9,-1,-1,11,13,15,17,-1,19,21,-1,23,-1,-1,25,27,-1,-1,-1,-1,-1,-1,-1,-1],"loss_changes":[1.070612E3,3.4188416E1,1.6367255E2,0E0,3.1456726E1,4.9733887E1,0E0,0E0,2.3309937E0,1.0855286E1,6.7979794E0,1.6581001E0,0E0,3.602115E1,1.2268677E0,0E0,2.8427622E0,0E0,0E0,1.1863037E1,3.5858107E0,0E0,0E0,0E0,0E0,0E0,0E0,0E0,0E0],"parents":[2147483647,0,0,1,1,2,2,4,4,5,5,8,8,9,9,10,10,11,11,13,13,14,14,16,16,19,19,20,20],"right_children":[2,4,6,-1,8,10,-1,-1,12,14,16,18,-1,20,22,-1,24,-1,-1,26,28,-1,-1,-1,-1,-1,-1,-1,-1],"split_conditions":[4.9152E7,3.152E3,2.097152E9,-2.9267322E-2,0E0,1E0,2.2110661E-2,-2.6229605E-2,4.7E2,2E0,2.624E4,4.1059325E-3,2.3814963E-2,1.2296192E9,1.373E3,2.8365633E-2,4.4700354E-3,1.2493307E-2,2.370338E-2,2.661376E8,-2.5881904E-1,-2.3011588E-2,-1.365097E-2,-5.361466E-3,1.2712191E-2,-2.36696E-2,-1.40762385E-2,2.6544051E-2,4.6122787E-3],"split_indices":[8,7,8,0,25,20,0,0,13,25,5,1,0,8,25,0,1,0,0,8,16,0,0,0,0,0,0,0,0],"split_type":[0,0,0,0,0,0,0,0,0,0,0,0,0,0,0,0,0,0,0,0,0,0,0,0,0,0,0,0,0],"sum_hessian":[9.0293835E2,4.032044E2,4.9973398E2,4.058045E0,3.9914636E2,4.672491E2,3.2484863E1,4.1229153E0,3.9502344E2,4.5095447E2,1.6294659E1,1.7828255E1,3.771952E2,1.7629813E2,2.7465634E2,5.1199136E0,1.1174745E1,1.0496107E1,7.3321466E0,1.6658861E2,9.709527E0,2.6992596E2,4.7303767E0,5.751822E0,5.422923E0,8.7175156E1,7.9413445E1,5.2107234E0,4.4988036E0],"tree_param":{"num_deleted":"0","num_feature":"26","num_nodes":"29","size_leaf_vector":"1"}},{"base_weights":[-1.1205812E-3,1.2321544E0,-9.2659384E-1,-2.3476139E-2,1.2662051E0,-1.0796434E0,2.2453928E-2,-4.748632E-3,2.3014082E-2,-1.1341358E0,-4.0980262E-1,-9.333934E-1,-1.264697E0,2.5379531E-2,-2.3790296E-2,-2.3282079E-2,5.9728795E-1,-2.3403538E-2,-8.9968145E-1,2.6550336E-2,2.0666707E-3,1.0503338E-2,-2.3537833E-2],"categories":[],"categories_nodes":[],"categories_segments":[],"categories_sizes":[],"default_left":[0,0,0,0,0,0,0,0,0,0,0,0,0,0,0,0,0,0,0,0,0,0,0],"id":40,"left_children":[1,3,5,-1,7,9,-1,-1,-1,11,13,15,17,-1,-1,-1,19,-1,21,-1,-1,-1,-1],"loss_changes":[1.024245E3,3.3296204E1,1.7096762E2,0E0,1.0083435E1,1.7462158E1,0E0,0E0,0E0,1.15755005E1,6.0364883E1,9.7595566E1,3.9374084E0,0E0,0E0,0E0,1.429509E1,0E0,1.6502821E1,0E0,0E0,0E0,0E0],"parents":[2147483647,0,0,1,1,2,2,4,4,5,5,9,9,10,10,11,11,12,12,16,16,18,18],"right_children":[2,4,6,-1,8,10,-1,-1,-1,12,14,16,18,-1,-1,-1,20,-1,22,-1,-1,-1,-1],"split_conditions":[4.9152E7,1E0,2.097152E9,-2.3476139E-2,3.3E2,1.2296192E9,2.2453928E-2,-4.748632E-3,2.3014082E-2,3.619876E8,1.31072E9,2.770944E8,9.304064E8,2.5379531E-2,-2.3790296E-2,-2.3282079E-2,2.82624E8,-2.3403538E-2,1.0985472E9,2.6550336E-2,2.0666707E-3,1.0503338E-2,-2.3537833E-2],"split_indices":[8,19,8,0,13,8,0,0,0,8,8,8,8,0,0,0,8,0,8,0,0,0,0],"split_type":[0,0,0,0,0,0,0,0,0,0,0,0,0,0,0,0,0,0,0,0,0,0,0],"sum_hessian":[8.97386E2,3.847098E2,5.126762E2,5.079363E0,3.7963046E2,4.7903555E2,3.3640625E1,4.2373066E0,3.7539316E2,4.4297568E2,3.605989E1,1.7462108E2,2.6835458E2,1.2052727E1,2.4007164E1,1.4100096E2,3.362013E1,2.414817E2,2.6872887E1,1.18557E1,2.176443E1,5.8388805E0,2.1034006E1],"tree_param":{"num_deleted":"0","num_feature":"26","num_nodes":"23","size_leaf_vector":"1"}},{"base_weights":[-4.489547E-3,1.2239534E0,-9.3011236E-1,-2.9320499E-2,1.258756E0,-1.1568264E0,1.0664797E0,1.2908427E0,-2.6183702E-2,-9.815904E-1,-2.2909064E-2,1.1399007E0,4.0327036E-3,2.3686174E-2,-2.3728285E-2,-1.0980107E0,2.579422E-2,8.3390284E-1,2.2371294E-2,-2.350828E-2,-5.3724855E-1,2.022721E-2,2.1256197E-3,-2.1698035E-2,-3.0589057E-3],"categories":[],"categories_nodes":[],"categories_segments":[],"categories_sizes":[],"default_left":[0,0,0,0,0,0,0,0,0,0,0,0,0,0,0,0,0,0,0,0,0,0,0,0,0],"id":41,"left_children":[1,3,5,-1,7,9,11,13,-1,15,-1,17,-1,-1,-1,19,-1,21,-1,-1,23,-1,-1,-1,-1],"loss_changes":[9.96215E2,3.746228E1,2.2617484E2,0E0,3.2453674E1,9.466248E0,3.1276665E0,2.8996887E1,0E0,5.1616898E1,0E0,1.5122337E0,0E0,0E0,0E0,2.0857605E1,0E0,2.5585384E0,0E0,0E0,1.185983E1,0E0,0E0,0E0,0E0],"parents":[2147483647,0,0,1,1,2,2,4,4,5,5,6,6,7,7,9,9,11,11,15,15,17,17,20,20],"right_children":[2,4,6,-1,8,10,12,14,-1,16,-1,18,-1,-1,-1,20,-1,22,-1,-1,24,-1,-1,-1,-1],"split_conditions":[1.2288E4,3.152E3,8.0896E4,-2.9320499E-2,1E0,3.7888E4,3.803E4,5E3,-2.6183702E-2,3.3792E4,-2.2909064E-2,1.65E4,4.0327036E-3,2.3686174E-2,-2.3728285E-2,8.2E3,2.579422E-2,3.169E4,2.2371294E-2,-2.350828E-2,-1.8369701E-16,2.022721E-2,2.1256197E-3,-2.1698035E-2,-3.0589057E-3],"split_indices":[17,7,17,0,24,17,5,7,0,17,0,7,0,0,0,7,0,5,0,0,15,0,0,0,0],"split_type":[0,0,0,0,0,0,0,0,0,0,0,0,0,0,0,0,0,0,0,0,0,0,0,0,0],"sum_hessian":[8.761192E2,3.7646988E2,4.9964935E2,4.5209203E0,3.7194894E2,4.487068E2,5.094257E1,3.6761752E2,4.331435E0,1.8319601E2,2.6551077E2,4.6838326E1,4.1042433E0,3.6343036E2,4.1871495E0,1.7479503E2,8.400984E0,1.2240809E1,3.459752E1,1.2664382E2,4.8151215E1,8.658418E0,3.5823915E0,1.6967314E1,3.1183899E1],"tree_param":{"num_deleted":"0","num_feature":"26","num_nodes":"25","size_leaf_vector":"1"}},{"base_weights":[-1.143481E-2,1.2037265E0,-9.181834E-1,-2.3467764E-2,2.2363586E-2,-1.0680013E0,1.1257195E0,-1.1111771E0,-5.4435927E-1,7.1048015E-1,2.3204848E-2,-9.074547E-1,-1.2396227E0,2.2982955E-2,-2.3660995E-2,-6.3757687E-3,2.5129465E-2,-1.2820966E0,5.510836E-1,-5.7287556E-1,-2.2762977E-2,-2.3352528E-2,-1.2254458E-2,2.5647635E-2,2.532928E-3,6.284834E-3,-2.3339149E-2],"categories":[],"categories_nodes":[],"categories_segments":[],"categories_sizes":[],"default_left":[0,0,0,0,0,0,0,0,0,0,0,0,0,0,0,0,0,0,0,0,0,0,0,0,0,0,0],"id":42,"left_children":[1,3,5,-1,-1,7,9,11,13,15,-1,17,19,-1,-1,-1,-1,21,23,25,-1,-1,-1,-1,-1,-1,-1],"loss_changes":[9.741088E2,4.1313904E1,1.5503583E2,0E0,0E0,1.06397705E1,2.387001E0,1.1369019E1,5.091833E1,7.3886104E0,0E0,9.211737E1,5.2986145E0,0E0,0E0,0E0,0E0,1.5995636E0,1.238852E1,7.749586E0,0E0,0E0,0E0,0E0,0E0,0E0,0E0],"parents":[2147483647,0,0,1,1,2,2,5,5,6,6,7,7,8,8,9,9,11,11,12,12,17,17,18,18,19,19],"right_children":[2,4,6,-1,-1,8,10,12,14,16,-1,18,20,-1,-1,-1,-1,22,24,26,-1,-1,-1,-1,-1,-1,-1],"split_conditions":[4.9152E7,1E0,2.2550528E9,-2.3467764E-2,2.2363586E-2,1.2296192E9,3.8613381E-3,3.619876E8,1.31072E9,7.818315E-1,2.3204848E-2,2.661376E8,3.3E1,2.2982955E-2,-2.3660995E-2,-6.3757687E-3,2.5129465E-2,2.62144E8,2.82624E8,5E0,-2.2762977E-2,-2.3352528E-2,-1.2254458E-2,2.5647635E-2,2.532928E-3,6.284834E-3,-2.3339149E-2],"split_indices":[8,19,8,0,0,8,1,8,8,12,0,8,0,0,0,0,0,8,8,10,0,0,0,0,0,0,0],"split_type":[0,0,0,0,0,0,0,0,0,0,0,0,0,0,0,0,0,0,0,0,0,0,0,0,0,0,0],"sum_hessian":[8.8406824E2,3.7777878E2,5.0628946E2,6.425355E0,3.7135342E2,4.7172067E2,3.4568787E1,4.3576056E2,3.5960114E1,1.0004804E1,2.4563984E1,1.6855515E2,2.672054E2,1.0710517E1,2.5249598E1,3.9270587E0,6.0777454E0,1.3411606E2,3.443909E1,1.1491122E1,2.557143E2,1.2969E2,4.4260545E0,1.0934997E1,2.3504093E1,5.0607715E0,6.4303503E0],"tree_param":{"num_deleted":"0","num_feature":"26","num_nodes":"27","size_leaf_vector":"1"}},{"base_weights":[-2.301807E-2,1.1964304E0,-9.4201726E-1,-2.344318E-2,1.2497865E0,-1.1357553E0,8.794856E-1,-1.12036485E-2,1.2684915E0,-9.5884156E-1,-1.2536975E0,9.804641E-1,-8.585993E-3,1.0189393E0,2.3207204E-2,-1.0669458E0,2.724356E-2,-1.2737796E0,-6.8377835E-1,2.147338E-2,4.2582756E-1,2.1910345E-2,3.2895052E-1,-2.262884E-2,-8.1812644E-1,-2.3025896E-2,-1.4125245E-2,7.2515523E-3,-2.315266E-2,8.371423E-1,-5.0944905E-3,-2.207891E-3,1.2951972E-2,-2.3415277E-2,-1.1397469E-2,3.69862E-3,2.475551E-2],"categories":[],"categories_nodes":[],"categories_segments":[],"categories_sizes":[],"default_left":[0,0,0,0,0,0,0,0,0,0,0,0,0,0,0,0,0,0,0,0,0,0,0,0,0,0,0,0,0,0,0,0,0,0,0,0,0],"id":43,"left_children":[1,3,5,-1,7,9,11,-1,13,15,17,19,-1,21,-1,23,-1,25,27,-1,29,-1,31,-1,33,-1,-1,-1,-1,35,-1,-1,-1,-1,-1,-1,-1],"loss_changes":[9.5573737E2,4.8966736E1,1.7163013E2,0E0,1.25946045E1,9.13739E0,6.4206276E0,0E0,2.251648E0,4.7121628E1,2.987671E0,5.217148E0,0E0,4.6507683E0,0E0,8.149445E0,0E0,1.2557678E0,5.96732E0,0E0,3.5910408E0,0E0,1.3614005E0,0E0,6.5667458E0,0E0,0E0,0E0,0E0,2.6446042E0,0E0,0E0,0E0,0E0,0E0,0E0,0E0],"parents":[2147483647,0,0,1,1,2,2,4,4,5,5,6,6,8,8,9,9,10,10,11,11,13,13,15,15,17,17,18,18,20,20,22,22,24,24,29,29],"right_children":[2,4,6,-1,8,10,12,-1,14,16,18,20,-1,22,-1,24,-1,26,28,-1,30,-1,32,-1,34,-1,-1,-1,-1,36,-1,-1,-1,-1,-1,-1,-1],"split_conditions":[1.2288E4,1E0,7.8848E4,-2.344318E-2,3.3E2,3.7888E4,3.768E4,-1.12036485E-2,7.4074075E-2,3.3792E4,6.656E4,1.25952E5,-8.585993E-3,4.3E1,2.3207204E-2,8.1E2,2.724356E-2,6.4E-1,3.7E1,2.147338E-2,2.2205391E-3,2.1910345E-2,4.6E1,-2.262884E-2,2.4576E4,-2.3025896E-2,-1.4125245E-2,7.2515523E-3,-2.315266E-2,7.818315E-1,-5.0944905E-3,-2.207891E-3,1.2951972E-2,-2.3415277E-2,-1.1397469E-2,3.69862E-3,2.475551E-2],"split_indices":[17,19,17,0,13,17,5,0,23,17,17,17,0,0,0,13,0,23,0,0,2,0,0,0,17,0,0,0,0,12,0,0,0,0,0,0,0],"split_type":[0,0,0,0,0,0,0,0,0,0,0,0,0,0,0,0,0,0,0,0,0,0,0,0,0,0,0,0,0,0,0,0,0,0,0,0,0],"sum_hessian":[8.528229E2,3.664941E2,4.8632877E2,7.639856E0,3.5885425E2,4.3958286E2,4.6745907E1,3.5368457E0,3.5531738E2,1.7589117E2,2.6369168E2,4.352178E1,3.2241278E0,3.3361893E1,3.219555E2,1.685463E2,7.3448753E0,2.5468884E2,9.0028515E0,3.1256294E1,1.2265485E1,2.5759352E1,7.602543E0,9.443376E1,7.411253E1,2.493166E2,5.372235E0,3.217166E0,5.785686E0,7.7785697E0,4.4869156E0,3.5213861E0,4.0811567E0,2.015111E1,5.3961422E1,3.613867E0,4.1647024E0],"tree_param":{"num_deleted":"0","num_feature":"26","num_nodes":"37","size_leaf_vector":"1"}},{"base_weights":[2.5688382E-2,1.1930958E0,-9.1280645E-1,-2.2961412E-2,1.2304803E0,-1.0777248E0,9.682872E-1,2.2472432E-2,1.9188358E-2,-1.1278532E0,4.5484665E-1,1.122931E0,5.670317E-3,-9.441301E-1,-1.2454873E0,7.340889E-1,1.2828979E-3,2.245725E-2,7.69767E-1,-1.1562155E0,2.6887374E-2,-2.2698576E-2,-6.268176E-1,1.4914052E-3,3.0496396E-2,6.691313E-3,2.1899963E-2,-2.1521855E-2,-1.4377504E-2,-2.341998E-2,-1.1217976E-3],"categories":[],"categories_nodes":[],"categories_segments":[],"categories_sizes":[],"default_left":[0,0,0,0,0,0,0,0,0,0,0,0,0,0,0,0,0,0,0,0,0,0,0,0,0,0,0,0,0,0,0],"id":44,"left_children":[1,3,5,-1,7,9,11,-1,-1,13,15,17,-1,19,21,23,-1,-1,25,27,-1,-1,29,-1,-1,-1,-1,-1,-1,-1,-1],"loss_changes":[9.3916E2,3.5331726E1,1.4741919E2,0E0,1.3410034E0,3.3575165E1,3.8401108E0,0E0,0E0,9.108826E0,1.4686549E0,1.3838043E0,0E0,8.561775E1,3.2321777E0,4.9952507E0,0E0,0E0,1.4695239E0,2.3437195E0,0E0,0E0,3.1526453E0,0E0,0E0,0E0,0E0,0E0,0E0,0E0,0E0],"parents":[2147483647,0,0,1,1,2,2,4,4,5,5,6,6,9,9,10,10,11,11,13,13,14,14,15,15,18,18,19,19,22,22],"right_children":[2,4,6,-1,8,10,12,-1,-1,14,16,18,-1,20,22,24,-1,-1,26,28,-1,-1,30,-1,-1,-1,-1,-1,-1,-1,-1],"split_conditions":[1.2288E4,1E0,7.8848E4,-2.2961412E-2,1.62506E6,1E0,3.43E4,2.2472432E-2,1.9188358E-2,3.7888E4,4.055739E-3,1.387871E6,5.670317E-3,3.3792E4,6.656E4,3.763373E-3,1.2828979E-3,2.245725E-2,1.49111E6,3.2768E4,2.6887374E-2,-2.2698576E-2,6.234898E-1,1.4914052E-3,3.0496396E-2,6.691313E-3,2.1899963E-2,-2.1521855E-2,-1.4377504E-2,-2.341998E-2,-1.1217976E-3],"split_indices":[17,19,17,0,6,20,5,0,0,17,1,6,0,17,17,1,0,0,6,17,0,0,11,0,0,0,0,0,0,0,0],"split_type":[0,0,0,0,0,0,0,0,0,0,0,0,0,0,0,0,0,0,0,0,0,0,0,0,0,0,0,0,0,0,0],"sum_hessian":[8.57197E2,3.8201608E2,4.7518094E2,5.6803737E0,3.7633572E2,4.3688712E2,3.829382E1,3.2931592E2,4.7019787E1,4.2305945E2,1.3827645E1,3.0933535E1,7.3602834E0,1.6519743E2,2.5786203E2,7.9766793E0,5.8509655E0,2.2597435E1,8.3361E0,1.5201169E2,1.318574E1,2.4958868E2,8.273355E0,4.777607E0,3.1990724E0,4.4579983E0,3.8781009E0,1.3515024E2,1.686145E1,3.7407274E0,4.5326266E0],"tree_param":{"num_deleted":"0","num_feature":"26","num_nodes":"31","size_leaf_vector":"1"}},{"base_weights":[5.44217E-3,1.1765976E0,-8.990926E-1,2.1674499E-2,-2.6508732E-2,-1.1116468E0,1.1334316E0,-9.162267E-1,-1.2432958E0,2.6017303E-2,1.0402706E0,-7.5804883E-1,-2.2942567E-2,-2.2462575E-2,-1.2819353E-2,7.3763347E-1,2.1471435E-2,-2.306296E-2,-5.617578E-1,8.426593E-3,2.1172062E-2,3.3881085E-4,-1.4245244E-2],"categories":[],"categories_nodes":[],"categories_segments":[],"categories_sizes":[],"default_left":[0,0,0,0,0,0,0,0,0,0,0,0,0,0,0,0,0,0,0,0,0,0,0],"id":45,"left_children":[1,3,5,-1,-1,7,9,11,13,-1,15,17,-1,-1,-1,19,-1,-1,21,-1,-1,-1,-1],"loss_changes":[8.916117E2,3.1375946E1,2.0515955E2,0E0,0E0,1.1026733E1,1.2903748E0,9.916138E0,1.2548218E0,0E0,1.6259003E0,1.24789505E1,0E0,0E0,0E0,1.3908744E0,0E0,0E0,1.189883E1,0E0,0E0,0E0,0E0],"parents":[2147483647,0,0,1,1,2,2,5,5,6,6,7,7,8,8,10,10,11,11,15,15,18,18],"right_children":[2,4,6,-1,-1,8,10,12,14,-1,16,18,-1,-1,-1,20,-1,-1,22,-1,-1,-1,-1],"split_conditions":[1.2288E4,1E0,7.8848E4,2.1674499E-2,-2.6508732E-2,2E0,8.4992E4,1E0,1.373E3,2.6017303E-2,8E0,2.4576E4,-2.2942567E-2,-2.2462575E-2,-1.2819353E-2,2E0,2.1471435E-2,-2.306296E-2,3E4,8.426593E-3,2.1172062E-2,3.3881085E-4,-1.4245244E-2],"split_indices":[17,24,17,0,0,25,17,24,25,0,10,17,0,0,0,18,0,0,17,0,0,0,0],"split_type":[0,0,0,0,0,0,0,0,0,0,0,0,0,0,0,0,0,0,0,0,0,0,0],"sum_hessian":[8.4164935E2,3.6677664E2,4.7487274E2,3.6238596E2,4.3906927E0,4.2992136E2,4.4951397E1,1.7310057E2,2.5682077E2,1.0151528E1,3.4799866E1,1.2062906E2,5.2471516E1,2.522671E2,4.553678E0,1.1934069E1,2.2865799E1,3.2658825E1,8.797023E1,7.463762E0,4.4703064E0,2.515285E1,6.2817383E1],"tree_param":{"num_deleted":"0","num_feature":"26","num_nodes":"23","size_leaf_vector":"1"}},{"base_weights":[-2.929308E-3,1.1757716E0,-9.559293E-1,-2.9060714E-2,1.2151974E0,-1.133325E0,1.0330257E0,1.2441124E0,-2.63008E-2,-9.4769174E-1,-2.2520455E-2,6.2000453E-1,2.2607777E-2,2.2835E-2,-2.3077723E-2,-2.2953486E-2,7.643249E-2,2.2242688E-2,-2.6579121E-2,2.1958759E-2,-3.1910598E-1,-9.865617E-3,1.8123545E-2],"categories":[],"categories_nodes":[],"categories_segments":[],"categories_sizes":[],"default_left":[0,0,0,0,0,0,0,0,0,0,0,0,0,0,0,0,0,0,0,0,0,0,0],"id":46,"left_children":[1,3,5,-1,7,9,11,13,-1,15,-1,17,-1,-1,-1,-1,19,-1,-1,-1,21,-1,-1],"loss_changes":[9.379462E2,4.1156372E1,1.6290958E2,0E0,2.85484E1,9.618408E0,3.5283546E0,2.7130432E1,0E0,5.7464615E1,0E0,1.7569845E1,0E0,0E0,0E0,0E0,1.8790182E1,0E0,0E0,0E0,9.443618E0,0E0,0E0],"parents":[2147483647,0,0,1,1,2,2,4,4,5,5,6,6,7,7,9,9,11,11,16,16,20,20],"right_children":[2,4,6,-1,8,10,12,14,-1,16,-1,18,-1,-1,-1,-1,20,-1,-1,-1,22,-1,-1],"split_conditions":[4.9152E7,3.152E3,7.8848E4,-2.9060714E-2,1E0,3.7888E4,1.65E4,1E0,-2.63008E-2,2.770944E8,-2.2520455E-2,1.54E4,2.2607777E-2,2.2835E-2,-2.3077723E-2,-2.2953486E-2,8.71E3,2.2242688E-2,-2.6579121E-2,2.1958759E-2,9.749279E-1,-9.865617E-3,1.8123545E-2],"split_indices":[8,7,17,0,24,17,7,22,0,8,0,7,0,0,0,0,7,0,0,0,12,0,0],"split_type":[0,0,0,0,0,0,0,0,0,0,0,0,0,0,0,0,0,0,0,0,0,0,0],"sum_hessian":[8.349876E2,3.7328326E2,4.6170435E2,5.182887E0,3.6810037E2,4.2390448E2,3.779986E1,3.6418094E2,3.9194427E0,1.6872336E2,2.5518112E2,1.3464585E1,2.4335274E1,3.6000266E2,4.1782823E0,1.2738452E2,4.1338844E1,1.0402306E1,3.0622804E0,1.059942E1,3.0739424E1,2.6198805E1,4.5406194E0],"tree_param":{"num_deleted":"0","num_feature":"26","num_nodes":"23","size_leaf_vector":"1"}},{"base_weights":[-1.3292793E-2,6.29412E-1,-8.8408124E-1,7.293949E-1,-2.3059972E-2,-8.41106E-1,-2.3347026E-2,-2.5366464E-1,8.364168E-1,-7.0808005E-1,-9.9493396E-1,-4.2468452E-1,1.2960943E-2,5.4175115E-1,9.290325E-1,-8.335391E-1,-5.1190907E-1,-1.1117716E0,-7.541648E-1,-3.0074853E-1,-2.2607075E-2,4.8779145E-1,2.500314E-2,9.881522E-1,8.156999E-1,-7.6371056E-1,-2.266914E-2,-5.660025E-1,6.9772215E-3,-7.555649E-1,-2.0790933E-2,-6.361806E-1,-2.2693703E-2,-2.551577E-2,-3.118784E-3,8.104172E-3,2.027526E-2,-7.472814E-6,1.8251503E-2,1.7377095E-2,1.1867369E-2,-1.1020854E-2,-1.6646583E-2,-2.5613147E-3,-1.2309942E-2,-1.8982546E-2,-4.2269743E-4,-1.342977E-2,-1.4024812E-3],"categories":[],"categories_nodes":[],"categories_segments":[],"categories_sizes":[],"default_left":[0,0,0,0,0,0,0,0,0,0,0,0,0,0,0,0,0,0,0,0,0,0,0,0,0,0,0,0,0,0,0,0,0,0,0,0,0,0,0,0,0,0,0,0,0,0,0,0,0],"id":47,"left_children":[1,3,5,7,-1,9,-1,11,13,15,17,19,-1,21,23,25,27,29,31,33,-1,35,-1,37,39,41,-1,43,-1,45,-1,47,-1,-1,-1,-1,-1,-1,-1,-1,-1,-1,-1,-1,-1,-1,-1,-1,-1],"loss_changes":[4.5180933E2,8.894716E1,6.1249695E0,4.645134E1,0E0,6.3358154E0,0E0,7.2324514E0,1.0842224E1,4.084404E0,4.02536E0,3.7989564E0,0E0,4.3538E0,2.0012817E0,3.0267181E0,3.1765633E0,1.6205215E0,2.8152237E0,4.5508776E0,0E0,2.0390987E0,0E0,5.867096E0,2.4281998E0,2.1251984E0,0E0,3.121643E0,0E0,2.5386162E0,0E0,2.4007492E0,0E0,0E0,0E0,0E0,0E0,0E0,0E0,0E0,0E0,0E0,0E0,0E0,0E0,0E0,0E0,0E0,0E0],"parents":[2147483647,0,0,1,1,2,2,3,3,5,5,7,7,8,8,9,9,10,10,11,11,13,13,14,14,15,15,16,16,17,17,18,18,19,19,21,21,23,23,24,24,25,25,27,27,29,29,31,31],"right_children":[2,4,6,8,-1,10,-1,12,14,16,18,20,-1,22,24,26,28,30,32,34,-1,36,-1,38,40,42,-1,44,-1,46,-1,48,-1,-1,-1,-1,-1,-1,-1,-1,-1,-1,-1,-1,-1,-1,-1,-1,-1],"split_conditions":[1E0,1E0,1E0,4E-2,-2.3059972E-2,6.234898E-1,-2.3347026E-2,9.749279E-1,2.0833333E-1,2.3076923E-1,5E-1,4.4E1,1.2960943E-2,1E0,4.3388373E-1,4.5E1,1E0,-9.659258E-1,3.8709676E-1,1.6652283E-3,-2.2607075E-2,3.1136381E-3,2.500314E-2,1.7054878E-3,4.53304E5,6.451613E-2,-2.266914E-2,1.7218253E-3,6.9772215E-3,1.8518518E-1,-2.0790933E-2,2.532755E-3,-2.2693703E-2,-2.551577E-2,-3.118784E-3,8.104172E-3,2.027526E-2,-7.472814E-6,1.8251503E-2,1.7377095E-2,1.1867369E-2,-1.1020854E-2,-1.6646583E-2,-2.5613147E-3,-1.2309942E-2,-1.8982546E-2,-4.2269743E-4,-1.342977E-2,-1.4024812E-3],"split_indices":[22,24,24,23,0,11,0,12,23,23,16,0,0,20,12,0,16,16,23,2,0,2,0,2,4,23,0,2,0,23,0,2,0,0,0,0,0,0,0,0,0,0,0,0,0,0,0,0,0],"split_type":[0,0,0,0,0,0,0,0,0,0,0,0,0,0,0,0,0,0,0,0,0,0,0,0,0,0,0,0,0,0,0,0,0,0,0,0,0,0,0,0,0,0,0,0,0,0,0,0,0],"sum_hessian":[8.072807E2,4.6446005E2,3.4282068E2,4.4142804E2,2.3032E1,3.109E2,3.1920704E1,4.3324997E1,3.9810303E2,1.6678084E2,1.4411914E2,3.6881916E1,6.44308E0,9.524502E1,3.0285803E2,1.016744E2,6.5106445E1,9.6985825E1,4.713332E1,3.213895E1,4.7429676E0,8.9596344E1,5.648671E0,1.9893636E2,1.0392167E2,8.752626E1,1.4148138E1,6.1435078E1,3.6713643E0,1.150868E1,8.547714E1,3.8326687E1,8.806635E0,3.2484899E0,2.8890461E1,8.489502E1,4.7013254E0,5.799679E0,1.9313667E2,5.19741E1,5.1947567E1,4.599546E1,4.15308E1,1.3648061E1,4.7787018E1,8.123861E0,3.3848193E0,3.1858578E1,6.4681087E0],